%YAML:1.0
opencv_ml_svm:
   format: 3
   svmType: C_SVC
   kernel:
      type: LINEAR
   C: 2.
   term_criteria: { epsilon:1.1920928955078125e-007, iterations:1000 }
   var_count: 25
   class_count: 17
   class_labels: !!opencv-matrix
      rows: 17
      cols: 1
      dt: i
      data: [ 0, 1, 2, 3, 4, 5, 6, 7, 8, 9, 10, 11, 12, 13, 14, 15, 16 ]
   sv_total: 136
   support_vectors:
      - [ -2.60486627e+000, 1.76574063e+000, -1.15003400e-001,
          -5.34098506e-001, -8.48173052e-002, -1.76924825e-001,
          -1.24267721e+000, -2.12842751e+000, -3.01342177e+000,
          -5.24467289e-001, -1.58827692e-001, -1.27128673e+000,
          -1.16536987e+000, 5.65113246e-001, 3.53271931e-001,
          7.99588636e-002, 8.82842422e-001, -1.27450123e-001,
          -2.46570230e-001, -1.89229310e-001, 3.94958466e-001,
          2.44559512e-001, 5.21910369e-001, -3.18217576e-001,
          -3.74112546e-001 ]
      - [ -6.43976629e-001, -2.47797847e+000, -2.21324220e-001,
          -2.50604320e+000, -8.34181439e-003, 1.97584116e+000,
          -1.16440356e+000, -9.56593871e-001, -1.51395470e-001,
          -6.19406819e-001, -9.48778808e-001, 4.03077930e-001,
          -5.22145271e-001, -3.42306383e-002, -6.64489865e-001,
          4.54974473e-001, -4.28498723e-002, 2.56259084e-001,
          -5.80054700e-001, -3.98300469e-001, -2.99993038e-001,
          2.52101898e-001, 1.68314129e-001, -2.75131583e-001,
          3.47072750e-001 ]
      - [ -3.22871041e+000, -2.07859778e+000, -9.28294882e-002,
          -2.39590853e-001, 2.22542667e+000, 1.06475346e-001,
          -9.89188671e-001, -2.20912123e+000, -8.15869570e-001,
          -1.37815252e-001, -7.27391988e-002, -6.24254525e-001,
          4.72333618e-002, -1.18731618e+000, 2.92843670e-001,
          -6.07706785e-001, -8.15416098e-001, 2.96249688e-001,
          -4.76434648e-001, -3.34791183e-001, -9.64578331e-001,
          -2.54511952e-001, -5.84196985e-001, -7.56493568e-001,
          -1.21899575e-001 ]
      - [ -1.82232702e+000, 1.60958350e+000, 4.59049076e-001,
          -6.11229837e-001, 2.41878653e+000, 7.66492821e-003,
          -1.26254451e+000, -1.04714203e+000, -8.71559139e-003,
          6.87013447e-001, -1.42905444e-001, 2.74669319e-001,
          -6.55619025e-001, 2.05773592e-001, -1.26701198e-003,
          3.90833527e-001, -3.11204106e-001, 9.00162384e-002,
          -3.58806074e-001, 1.11332200e-001, 2.05749832e-002,
          8.43639299e-002, -2.32187718e-001, 3.67389947e-001,
          1.60363272e-001 ]
      - [ -1.43682027e+000, -3.68888736e-001, 1.08432174e+000,
          -3.18652797e+000, 2.24730277e+000, -1.51320487e-001,
          -8.43002573e-002, -3.14357138e+000, -2.31781960e+000,
          1.40281081e+000, -7.13161290e-001, -9.46011662e-001,
          -7.99387842e-002, 1.10920107e+000, 7.04698145e-001,
          -1.48747015e+000, -1.47688523e-001, -4.90818284e-002,
          -4.89396423e-001, 7.30183065e-001, -2.72296399e-001,
          -1.06484175e+000, -8.95783722e-001, -7.52229273e-001,
          2.59688646e-001 ]
      - [ -1.97530699e+000, 8.25385869e-001, 4.16938424e-001,
          -1.40206909e+000, -1.83645952e+000, 1.49846804e+000,
          -2.57940555e+000, -5.52223742e-001, -1.12326026e+000,
          1.11422098e+000, 2.55745858e-001, 8.04129779e-001,
          -1.43189672e-002, -2.83267438e-001, 5.05586147e-001,
          -4.64068323e-001, -5.41399658e-001, 4.95215431e-002,
          -6.03326857e-002, -1.86194494e-001, 5.91148622e-002,
          -2.22146660e-001, 6.83508575e-001, 2.29276285e-001,
          2.82841146e-001 ]
      - [ -2.13793230e+000, -2.17962837e+000, -1.55773154e-002,
          1.21427476e-001, -2.67463624e-001, -1.18801343e+000,
          -2.91456342e+000, -2.15908933e+000, 8.01169813e-001,
          1.00208664e+000, -1.51648724e+000, -6.53254837e-002,
          -9.64166880e-001, -2.80708283e-001, 1.66469768e-001,
          -1.13927618e-001, 1.26544321e+000, 2.55635589e-001,
          -1.78932428e-001, 8.52691233e-001, 6.94913194e-002,
          -5.80058515e-001, -7.37887263e-001, -4.13383663e-001,
          7.13850483e-002 ]
      - [ -1.23154986e+000, -1.73939383e+000, -2.15918207e+000,
          -1.53996027e+000, 9.30479944e-001, -3.41122389e-001,
          -2.91694546e+000, 1.40263641e+000, -1.13766730e+000,
          -1.59378305e-001, -4.77794737e-001, 8.58171657e-002,
          -2.59365160e-002, 5.93844593e-001, -8.02816525e-002,
          -2.44284615e-001, 4.42902327e-001, 8.43143642e-001,
          -1.38462777e-003, 3.60390246e-001, -2.65407592e-001,
          1.11689351e-001, 4.40687746e-001, -4.87400383e-001,
          1.93099886e-001 ]
      - [ -9.36231971e-001, 5.95260821e-002, 3.79563284e+000,
          -2.91220665e+000, 8.48553002e-001, -8.87918115e-001,
          2.31260180e-001, 4.25771415e-001, -1.92062533e+000,
          1.73799112e-001, -8.52876306e-001, 1.44525337e+000,
          -5.07341087e-001, -6.22254491e-001, 7.70241082e-001,
          4.10492301e-001, 1.07522237e+000, -3.11114937e-001,
          -4.27022785e-001, -1.64315537e-001, 1.22696616e-001,
          -1.60614029e-002, 2.92639211e-002, -6.49029255e-001,
          2.67791271e-001 ]
      - [ -1.43852246e+000, 1.41767502e+000, 3.17260265e+000,
          -2.04095721e-001, 1.85822058e+000, -8.47938538e-001,
          -5.97121358e-001, 1.71478063e-001, -3.13766032e-001,
          -4.44624811e-001, -2.00307417e+000, 2.10185513e-001,
          -4.23451841e-001, 1.55503631e-001, -9.58491743e-001,
          -3.85228515e-001, 2.76597589e-001, 2.71792430e-002,
          -9.59607601e-001, -4.18621421e-001, -7.96195388e-001,
          -1.41870409e-001, 2.75615416e-002, 1.78822204e-001,
          1.43846506e-002 ]
      - [ -1.85038435e+000, -6.84951901e-001, 2.00070071e+000,
          7.11577415e-001, -2.91604042e-001, -2.57685018e+000,
          -2.48467517e+000, -2.79401112e+000, -1.43901157e+000,
          -1.12963283e+000, -2.11857128e+000, 5.26122630e-001,
          1.66361642e+000, 5.18146932e-001, -2.35957913e-002,
          1.58835351e-001, 2.91913360e-001, 8.23046327e-001,
          -5.89379251e-001, 7.04016805e-001, 4.22224045e-001,
          -8.79007399e-001, 1.39046222e-001, 7.41391182e-002,
          -7.08533406e-001 ]
      - [ -1.83230698e+000, 1.12657535e+000, -1.52741814e+000,
          -2.00445771e+000, 4.72087294e-001, 1.11712582e-001,
          5.35339713e-001, -9.89659309e-001, -2.09534075e-002,
          3.81052010e-002, -8.66427481e-001, -4.53966409e-002,
          5.43092489e-001, -2.82669693e-001, -6.18154928e-002,
          8.90882909e-002, 4.61645156e-001, 3.55640543e-004,
          -1.80097282e-001, 1.32728487e-001, -1.68942884e-001,
          3.38831060e-002, -9.06869322e-002, -1.20351247e-001,
          3.93667631e-002 ]
      - [ -3.35044646e+000, -1.19946003e+000, 6.78895637e-002,
          -7.39814162e-001, 4.67799246e-001, -6.50522292e-001,
          -1.01830375e+000, -8.61613452e-001, -2.41693556e-001,
          -3.99644226e-002, -4.25686896e-001, 4.76317853e-001,
          -5.87292053e-002, 2.18959600e-001, -4.75466490e-001,
          1.21675991e-001, -4.53128040e-001, -1.26805708e-001,
          6.18259490e-001, -2.66923010e-001, -5.34319162e-001,
          -4.64355536e-002, 8.36958811e-002, -2.66866356e-001,
          -2.08734006e-001 ]
      - [ -1.51627886e+000, -4.69208151e-001, 8.93740952e-001,
          -1.21346843e+000, 6.90211713e-001, -1.52908826e+000,
          -2.22643733e+000, 8.33711147e-001, -1.90863490e+000,
          2.15183544e+000, 1.73166886e-001, 6.08071208e-001,
          7.56055772e-001, -3.06271669e-002, -1.05038917e+000,
          1.94454849e-001, 6.23369873e-001, -5.44952214e-001,
          -6.75696507e-002, -6.85949862e-001, 4.95393485e-001,
          4.13157456e-002, 1.42660886e-002, 2.86235213e-002,
          7.82332048e-002 ]
      - [ -2.94567847e+000, -6.71485484e-001, 1.10796964e+000,
          -1.17733562e+000, -2.41221964e-001, -9.23650622e-001,
          -6.07267916e-001, -5.63158572e-001, -1.92200124e-001,
          -5.13537321e-003, -3.83621007e-001, -1.20424889e-001,
          -2.11158931e-001, 9.38016772e-002, -4.69882190e-001,
          3.49930018e-001, -2.60615975e-001, -1.57577142e-001,
          2.82465309e-001, 2.37935022e-001, -2.97293495e-002,
          5.23118973e-002, 1.57082662e-001, -1.39110446e-001,
          1.49241403e-001 ]
      - [ -3.15163875e+000, -1.44437933e+000, -7.03269243e-001,
          8.96101713e-001, -4.48635280e-001, 9.45610583e-001,
          -5.07396460e-001, 3.84505987e-002, -1.54042101e+000,
          7.59650886e-001, -1.84042609e+000, 7.28485957e-002,
          -3.83752078e-001, 5.70201039e-001, 1.18902087e-001,
          2.88574934e-001, -1.13932304e-002, 4.64460999e-001,
          -2.32352495e-001, -2.33694986e-001, -2.99505681e-001,
          2.30911598e-001, -4.68949467e-001, -5.26642680e-001,
          -2.92575866e-001 ]
      - [ 1.00903654e+000, -2.61992931e+000, 1.33454978e-001,
          -1.03772807e+000, 2.54946530e-001, 1.44313097e+000,
          1.25216069e-002, 2.30338648e-001, 1.12213588e+000,
          -8.21123496e-002, -4.07602340e-001, 6.65401042e-001,
          4.79696871e-004, 2.06517223e-002, -7.55386293e-001,
          6.14132583e-001, -2.90952802e-001, 5.31747758e-001,
          -7.02990964e-002, 1.73115790e-001, -3.17269921e-001,
          -4.83152010e-002, 9.49429497e-002, -5.48416600e-002,
          1.63791373e-001 ]
      - [ 2.31245145e-001, -3.47659302e+000, 1.43901274e-001,
          5.06574988e-001, 2.38067675e+000, -2.08268985e-001,
          3.06521982e-001, 5.46100080e-001, 2.05901790e+000,
          1.20882332e+000, -9.60404202e-002, 7.58418739e-001,
          8.57475638e-001, -1.08595574e+000, 3.05999219e-001,
          -6.30191267e-002, -1.68698084e+000, 7.76782215e-001,
          4.55494449e-002, -8.24569687e-002, 1.44725412e-001,
          -5.59045747e-002, -4.00083363e-001, 8.35662112e-002,
          6.98053390e-002 ]
      - [ -8.81244242e-001, 1.07781303e+000, 8.34879100e-001,
          2.37711072e-001, 3.13321567e+000, 5.09993017e-001,
          -5.93806446e-001, 3.85321639e-002, 2.02871609e+000,
          9.62339282e-001, 7.13477656e-002, 7.92537510e-001,
          -2.67908007e-001, 1.12820834e-001, -4.28779185e-001,
          4.07889247e-001, -5.94589710e-001, 5.29232740e-001,
          1.19818345e-001, 8.23075473e-002, -3.40061873e-001,
          -2.77076006e-001, -1.85291216e-001, 4.15021539e-001,
          -2.24306256e-001 ]
      - [ 2.36484170e+000, -2.29195857e+000, 7.67927349e-001,
          -1.71772027e+000, 1.50446701e+000, -2.03015894e-001,
          2.18222499e+000, 3.41020405e-001, 1.85577881e+000,
          1.17072451e+000, 6.31784871e-002, 1.02559173e+000,
          4.89718169e-001, 7.72567272e-001, 6.80553764e-002,
          -1.69448757e+000, -1.98642397e+000, 9.07424867e-001,
          3.61623108e-001, 8.93262506e-001, 4.25611943e-001,
          -5.80128849e-001, -3.90320301e-001, -1.73957154e-001,
          -8.19366276e-001 ]
      - [ -1.08885372e+000, 1.80424049e-001, 8.58649909e-001,
          -6.21108890e-001, -2.04653883e+000, 2.14164829e+000,
          -1.84138715e+000, 9.12060678e-001, 1.91381729e+000,
          2.44045591e+000, 7.93148816e-001, 2.27853775e+000,
          6.68402016e-001, -1.20391250e+000, 3.20336223e-001,
          -7.36574411e-001, -4.04682755e-001, 1.09527683e+000,
          1.15536249e+000, 1.10005379e+000, -3.44065964e-001,
          1.28201246e-001, -2.11877853e-001, 5.61511517e-001,
          -2.78536618e-001 ]
      - [ 3.02736223e-001, -2.90197253e+000, 2.37362608e-001,
          4.23059762e-001, 1.36809545e-002, -4.40740108e-001,
          -8.13369930e-001, 2.88220160e-002, 2.79712296e+000,
          1.02039576e+000, -8.18632066e-001, 8.51060808e-001,
          -6.64728165e-001, -3.84745747e-001, 2.58765250e-001,
          -3.71387482e-001, -6.62451923e-001, 7.62944460e-001,
          -2.93147415e-001, 3.84078801e-001, 4.94900435e-001,
          -3.79491568e-001, -1.36707827e-001, -1.47528052e-001,
          1.46766201e-001 ]
      - [ 9.30505872e-001, -2.20152307e+000, -1.60943818e+000,
          -9.49137568e-001, 6.88982069e-001, -4.66707915e-001,
          -1.45004725e+000, 1.77009964e+000, 1.06341219e+000,
          7.31291622e-002, -3.53199720e-001, 8.85393023e-001,
          2.47657061e-001, 2.44622216e-001, 1.77966580e-001,
          -6.06241785e-002, -4.76930082e-001, 7.14991093e-001,
          1.17581360e-001, 3.29833776e-001, -1.84334189e-001,
          -2.36315444e-001, 1.94022253e-001, -3.96113694e-002,
          4.64726657e-001 ]
      - [ 1.42788458e+000, -1.14346230e+000, 2.56189013e+000,
          -1.15407670e+000, 4.78482932e-001, -7.37078965e-001,
          1.60432410e+000, 1.82651234e+000, 9.98432100e-001,
          1.02038574e+000, -1.92046657e-001, 1.89717269e+000,
          1.19942948e-001, -4.96254265e-001, 2.04762727e-001,
          2.51921833e-001, -7.13546932e-001, 3.86935115e-001,
          1.84710100e-001, -8.79582092e-002, 1.47017077e-001,
          -3.61744463e-001, 2.62759137e-003, -4.22848791e-001,
          -3.24069351e-001 ]
      - [ 2.69155912e-002, 4.69704270e-001, 2.90700245e+000,
          6.83354616e-001, 1.99890721e+000, -1.18964039e-001,
          5.15838601e-002, 1.19710410e+000, 1.94480145e+000,
          7.96886683e-002, -1.68521750e+000, 5.21335483e-001,
          2.37943083e-001, 7.72104710e-002, -9.22177255e-001,
          -4.52658892e-001, -3.94289970e-001, 8.50307405e-001,
          -3.79320771e-001, 1.40298605e-001, -1.46848857e-001,
          -7.98591614e-001, -2.77163923e-001, 2.63918549e-001,
          -3.84861648e-001 ]
      - [ 9.99684930e-001, -2.76278687e+000, 1.17258406e+000,
          8.89448345e-001, -1.43479863e-002, -1.86449814e+000,
          -9.99096453e-001, 3.85289520e-001, 2.93487668e+000,
          9.03236195e-002, -1.74381745e+000, 2.15883398e+000,
          2.71097875e+000, -1.62389219e-001, -5.38727582e-001,
          4.10075396e-001, -1.70060790e+000, 1.01207805e+000,
          -4.97333229e-001, 8.74014795e-001, -9.22951624e-002,
          -1.10029173e+000, -4.63226438e-001, 5.92158675e-001,
          -4.60124552e-001 ]
      - [ -1.11007285e+000, 5.20771384e-001, -1.93011951e+000,
          -1.84545219e+000, 9.48436499e-001, -1.81512535e-001,
          1.40694189e+000, 2.14357018e-001, 1.50996101e+000,
          8.06764722e-001, -1.11440611e+000, 7.44060874e-001,
          1.13432705e+000, -3.14191461e-001, 6.84740469e-002,
          1.11729214e-002, 2.86584735e-001, 2.55815327e-001,
          -3.43329817e-001, 9.55883861e-002, -1.16695665e-001,
          6.03793673e-002, -2.93497499e-002, 1.57129262e-002,
          -8.45106319e-002 ]
      - [ -2.15527177e+000, -2.88162661e+000, 4.22334492e-001,
          -3.90079677e-001, 9.38686490e-001, -2.52961874e-001,
          1.77150816e-001, 2.95335561e-001, 1.53199852e+000,
          5.78991234e-001, 1.60848409e-001, 1.29988289e+000,
          3.26377898e-001, -1.01888135e-001, -3.58803451e-001,
          9.11138654e-002, -5.34928024e-001, 8.06979910e-002,
          4.33666259e-001, -5.19685037e-002, -2.94849396e-001,
          -3.22710931e-001, -1.75566927e-001, -1.07237972e-001,
          -7.87408650e-002 ]
      - [ 8.60454515e-002, -1.97214496e+000, 7.57673442e-001,
          -3.52684647e-001, 9.01481986e-001, -1.17347085e+000,
          -7.07870841e-001, 1.61905980e+000, 4.61942106e-001,
          2.31374431e+000, 7.37059355e-001, 1.34697020e+000,
          1.17913365e+000, -1.49252281e-001, -8.42976391e-001,
          8.04855525e-002, -1.64282694e-001, -3.60585116e-002,
          -5.22054993e-002, -2.36427054e-001, 5.42986333e-001,
          -2.30193213e-001, 2.40307808e-001, -5.94573803e-002,
          -7.89266303e-002 ]
      - [ -2.22604656e+000, -1.77447104e+000, 1.55293298e+000,
          -1.05838597e+000, 2.67905593e-001, -5.87695718e-001,
          1.23039156e-001, 2.18531460e-001, 1.50746870e+000,
          5.08452415e-001, -2.96402454e-001, 3.78275901e-001,
          3.50724101e-001, -2.08727404e-001, 7.35427961e-002,
          6.56563416e-002, -4.41554576e-001, 1.21297911e-001,
          3.45820665e-001, 4.11617339e-001, 2.27224398e-002,
          -9.35284514e-003, -1.08643487e-001, -1.42635897e-001,
          1.43232450e-001 ]
      - [ -1.26000726e+000, -3.00524616e+000, -6.91454932e-002,
          1.12628424e+000, 1.72777623e-001, 1.54787052e+000,
          8.87408495e-001, 1.43103182e+000, 8.77661467e-001,
          1.28219688e+000, -9.21033978e-001, 9.76881146e-001,
          2.11413294e-001, 3.27564448e-001, 4.23284709e-001,
          2.42031977e-001, -5.16697407e-001, 2.70518839e-001,
          -3.00675511e-001, 1.05245663e-002, -1.43809423e-001,
          -4.17029977e-001, -4.10667509e-001, -2.75879592e-001,
          -1.32678255e-001 ]
      - [ -1.70643508e+000, 2.43374228e+000, 9.71799833e-004,
          2.90670156e+000, 1.55849195e+000, -2.18881083e+000,
          7.12370217e-001, 2.80365139e-001, -2.74265379e-001,
          1.16601717e+000, 8.36012781e-001, -9.48206604e-001,
          4.26585615e-001, -8.14435661e-001, 8.14943314e-001,
          -1.05482399e+000, -1.15442872e+000, 1.07790604e-001,
          -1.46135896e-001, -2.37359256e-001, 3.27545017e-001,
          1.14605889e-001, -1.28963605e-001, -9.23193097e-001,
          -4.10369962e-001 ]
      - [ -1.07604027e+000, 2.15416813e+000, 6.33956075e-001,
          7.50993311e-001, 1.46828115e+000, -7.14879513e-001,
          2.10821852e-002, -1.93256527e-001, 2.31450990e-001,
          4.16747242e-001, 3.01101536e-001, 1.89053729e-001,
          -3.75491798e-001, 1.06023774e-001, 1.14880137e-001,
          -2.61200398e-001, -1.06054924e-001, -8.19691345e-002,
          -1.23947419e-001, 3.99605334e-002, 5.07098675e-001,
          2.40458231e-002, -6.26447471e-003, 1.44415691e-001,
          9.36317816e-002 ]
      - [ -1.16162784e-001, 3.37446904e+000, 2.21113944e+000,
          8.56028080e-001, 1.65410829e+000, -2.84792280e+000,
          2.65200663e+000, -2.38319471e-001, -8.89364243e-001,
          1.91853678e+000, 1.45696568e+000, -4.93231118e-001,
          1.14988542e+000, 7.80907154e-001, 1.81656468e+000,
          -1.85381424e+000, 1.35358125e-001, -2.11496043e+000,
          -3.43247533e-001, 8.56722474e-001, -6.87533617e-002,
          -9.64103460e-001, -1.14850914e+000, 1.50081551e+000,
          -9.07544076e-001 ]
      - [ -9.77168977e-001, 2.65281320e+000, 3.66703540e-001,
          7.25088716e-001, -1.47015131e+000, -7.02102423e-001,
          -7.82836080e-001, 4.31710064e-001, -4.88767885e-002,
          6.85184538e-001, 5.20206690e-001, 3.42772782e-001,
          1.05081297e-001, -1.87187046e-001, 5.30795813e-001,
          -4.68139052e-001, -1.91214651e-001, -7.53883421e-002,
          5.18333614e-001, 4.99092489e-002, 1.54726982e-001,
          -3.94392639e-001, -2.31877714e-002, 3.70840430e-001,
          -3.10034305e-002 ]
      - [ -1.35232127e+000, 1.60761094e+000, 2.64531940e-001,
          2.39681149e+000, -6.62149668e-001, -3.45534229e+000,
          -5.49794316e-001, -3.60805571e-001, 6.53923750e-001,
          1.10396349e+000, -5.02250552e-001, -5.10116927e-002,
          -4.47127610e-001, 4.28529382e-001, 6.60318196e-001,
          -8.93090546e-001, 1.59621626e-001, 5.35180755e-002,
          1.14169130e-002, 3.15271527e-001, 4.26128268e-001,
          1.91368863e-001, -2.99492091e-001, -5.06877378e-002,
          1.29258677e-001 ]
      - [ -1.54850984e+000, 7.14726686e-001, -2.04979563e+000,
          1.61026001e+000, 3.68799508e-001, -2.49776673e+000,
          -1.59786010e+000, 2.03922462e+000, -9.68241751e-001,
          -2.74244159e-001, -8.35798383e-002, -1.94125265e-001,
          2.35104918e-001, 4.56488103e-001, 6.94481850e-001,
          -1.23878706e+000, -2.20260695e-001, 4.01983947e-001,
          1.33380443e-001, -3.93391609e-001, 5.05547345e-001,
          5.10816693e-001, 2.94431627e-001, -4.94886981e-003,
          2.68774241e-001 ]
      - [ -2.89963763e-002, 2.10904837e+000, 2.77532053e+000,
          3.13760728e-001, 7.60263145e-001, -2.04730129e+000,
          2.37742138e+000, 9.15348053e-001, -7.42568552e-001,
          1.10506713e+000, 4.72257316e-001, -2.90235877e-001,
          7.40296915e-002, -6.62499905e-001, 1.69483709e+000,
          -1.02467462e-001, 6.45273805e-001, -1.10200250e+000,
          -1.86246470e-001, 5.69427133e-001, -8.81756172e-002,
          -5.76110959e-001, -5.22590399e-001, 5.47315121e-001,
          -5.43701708e-001 ]
      - [ -4.01762098e-001, 2.27616334e+000, 1.87696981e+000,
          1.27804506e+000, 1.01069283e+000, -1.29422915e+000,
          -1.34969383e-001, 3.73800009e-001, 2.84740746e-001,
          4.00339395e-001, -4.13444698e-001, -4.27014589e-001,
          -1.03982799e-001, 3.56772100e-003, -1.43941622e-002,
          -4.41332400e-001, 2.58077443e-001, -1.22026041e-001,
          -2.66809076e-001, -1.52762815e-001, 1.35221362e-001,
          -8.74931887e-002, -1.45804569e-001, -7.12339431e-002,
          -1.64101139e-001 ]
      - [ -6.62200302e-002, 2.28719020e+000, 3.93029749e-001,
          2.06973362e+000, -4.72897232e-001, -3.07960486e+000,
          -1.51458934e-001, -1.81533411e-001, -2.13489771e-001,
          -8.55303332e-002, -3.94357294e-001, 7.91546181e-002,
          1.03801525e+000, -1.61233887e-001, 6.61789998e-002,
          -3.09338480e-001, 4.88792323e-002, 1.97165832e-003,
          1.42631367e-001, 2.72823811e-001, 5.24400890e-001,
          2.20080376e-001, -2.15988666e-001, 2.23852903e-001,
          -1.17881946e-001 ]
      - [ -1.48472762e+000, 1.97180629e+000, -1.06650186e+000,
          -2.43964672e-001, 2.75862962e-001, -1.19316459e+000,
          1.08424366e+000, -5.49965620e-001, 2.23155722e-001,
          9.94717777e-002, -3.87482762e-001, 3.27541679e-002,
          3.96401078e-001, -4.45198536e-001, -3.08740810e-002,
          -4.64705199e-001, 2.53833383e-001, 8.67018178e-002,
          1.35225570e-002, 1.47107244e-001, 2.85091817e-001,
          1.58223435e-002, 2.08279770e-002, 1.00302026e-001,
          -9.31662172e-002 ]
      - [ -2.88746023e+000, 1.09968245e+000, 1.84005469e-001,
          9.42944527e-001, 6.21376097e-001, -2.05397391e+000,
          4.14497137e-001, 3.76497269e-001, -2.52116203e-001,
          2.80389398e-001, 6.63047671e-001, 3.99489850e-001,
          -2.04071030e-001, 3.94416302e-001, 2.01108173e-001,
          -7.95291901e-001, -2.47548074e-001, -4.40735012e-001,
          9.62918252e-002, -1.34344086e-001, 1.51334152e-001,
          2.37252191e-001, -2.26970240e-002, -2.59712189e-001,
          -3.35342348e-001 ]
      - [ -8.96803021e-001, 1.25945199e+000, 9.66392934e-001,
          9.99556363e-001, 3.73242021e-001, -2.38731647e+000,
          -1.21670440e-001, 1.06463802e+000, -1.14151716e+000,
          1.37985647e+000, 6.58507586e-001, 4.19673949e-001,
          7.23956406e-001, -2.25891620e-001, -1.70258582e-001,
          -1.19257338e-001, 4.51113023e-002, -7.63608217e-001,
          -1.68823451e-002, -2.38545477e-001, 4.27704066e-001,
          -7.63960481e-002, 2.06685349e-001, 3.21937531e-001,
          8.56685042e-002 ]
      - [ -2.47675371e+000, 1.12936974e+000, 1.13908470e+000,
          4.94118482e-001, 5.35698831e-002, -2.25453854e+000,
          2.37606987e-001, 3.05663347e-001, -1.63132012e-001,
          7.13035047e-001, 2.85265952e-001, -2.85882801e-001,
          -7.67356306e-002, 4.05573919e-002, 2.87123658e-002,
          -3.05023491e-001, -4.30695564e-001, -1.99665681e-001,
          -8.65247026e-002, 1.26740932e-001, 2.68055826e-001,
          2.37513393e-001, -1.55141816e-001, 2.90711336e-002,
          1.31801218e-001 ]
      - [ -2.16674232e+000, 1.21641898e+000, -7.10966349e-001,
          2.18764472e+000, -4.35870081e-001, -5.98304510e-001,
          8.99903595e-001, 1.30353940e+000, -1.08641028e+000,
          9.70275223e-001, -5.82502484e-001, 5.13190553e-002,
          -4.04734313e-001, 6.02528930e-001, 4.51564789e-001,
          1.11553364e-003, -4.77376254e-003, -1.60882816e-001,
          -1.15491644e-001, -1.69973344e-001, 4.00498301e-001,
          -1.94002345e-001, -3.21002513e-001, -1.99148953e-001,
          2.07785591e-001 ]
      - [ -4.65834051e-001, 3.50149179e+000, 8.61597598e-001,
          -5.19494534e-001, 2.71881676e+000, 2.01076418e-001,
          -9.84332561e-001, 9.75995541e-001, 1.30884159e+000,
          1.94742441e-001, 7.64775574e-001, 4.15019870e-001,
          -7.74122775e-001, 1.34395409e+000, -1.01404548e-001,
          7.29649663e-001, 9.23048079e-001, -1.89127047e-002,
          -5.24216473e-001, 3.15352157e-002, 3.17612350e-001,
          -5.62508225e-001, 3.54766428e-001, -8.09937343e-002,
          2.32461780e-001 ]
      - [ 3.70092297e+000, 8.46490502e-001, 4.32258159e-001,
          -3.55378962e+000, -9.73783433e-001, -8.31976056e-001,
          1.69221663e+000, -2.36472756e-001, -4.37999368e-001,
          1.41810298e-001, 2.74141133e-001, 9.08301771e-002,
          -6.69538021e-001, 2.51202941e+000, -7.84779489e-002,
          -9.73730385e-001, 7.70538032e-001, -1.04616141e+000,
          -8.03034287e-003, 7.62835264e-001, 7.11558700e-001,
          -5.20985007e-001, -1.67218059e-001, 1.08536863e+000,
          -4.00668710e-001 ]
      - [ -5.67611516e-001, 2.33120823e+000, -7.05966204e-002,
          -4.41660017e-001, -2.70446563e+000, 1.44077039e+000,
          -1.42012239e+000, 8.25473547e-001, 1.97227523e-001,
          3.91357005e-001, 4.67572987e-001, 7.43179262e-001,
          6.27544969e-002, 3.31535220e-001, 1.42648697e-001,
          -3.54455709e-001, 2.07245648e-001, 6.76427409e-002,
          4.43707943e-001, 5.54863214e-001, 2.96766907e-001,
          1.53684132e-002, 7.73315728e-001, 1.13143049e-001,
          2.89039724e-002 ]
      - [ 2.04932213e+000, -6.63201034e-001, -7.81588256e-002,
          -4.37194824e-001, -3.56549239e+000, -9.60271537e-001,
          -1.87785220e+000, -2.58272678e-001, 3.23480821e+000,
          5.50585270e-001, -2.55705309e+000, 1.14331037e-001,
          -1.44654191e+000, 2.95262635e-001, 1.02447629e+000,
          -1.13493584e-001, 1.72901058e+000, -4.08851832e-001,
          9.23058689e-001, 3.56449306e-001, 1.89869866e-001,
          -1.10893083e+000, 1.39798239e-001, 4.04413223e-001,
          -3.78326654e-001 ]
      - [ 1.43815541e+000, -1.01413023e+000, -2.42726374e+000,
          -1.65417635e+000, -9.61298227e-001, -3.74972582e-001,
          -2.77608895e+000, 2.43874741e+000, -1.16270289e-001,
          -9.19262052e-001, -4.20688033e-001, 3.89605641e-001,
          -1.28896534e+000, 7.90364861e-001, -7.00717390e-001,
          -8.89689699e-002, 6.60555601e-001, 9.22732502e-002,
          -2.35360321e-002, 4.22491431e-001, 2.47951418e-001,
          4.11145985e-001, 7.31971562e-002, -7.33898357e-002,
          7.94353187e-001 ]
      - [ 2.16788793e+000, 9.89276350e-001, 2.57732725e+000,
          -2.43691301e+000, -1.20462024e+000, -7.20506728e-001,
          1.59073186e+000, 1.37003458e+000, -7.14637995e-001,
          -2.46042028e-001, -3.30982059e-001, 1.00703788e+000,
          -8.08330894e-001, 7.17370808e-001, 4.04533178e-001,
          1.24691594e+000, 1.23742735e+000, -6.51109576e-001,
          3.12391639e-001, -3.54711711e-002, 2.54027188e-001,
          -7.67615557e-001, -8.81677866e-002, -5.75736582e-001,
          -3.18465263e-001 ]
      - [ 6.96943045e-001, 3.46356559e+000, 2.61448121e+000,
          -2.84877926e-001, 1.07189667e+000, -2.57026285e-001,
          -5.74136794e-001, 1.70903409e+000, 1.03766620e+000,
          -1.51626587e+000, -1.16684663e+000, -5.12545817e-002,
          -3.13944519e-001, 9.40346003e-001, -7.81931937e-001,
          -1.97869807e-001, 1.88456094e+000, 3.84761617e-002,
          -9.17852074e-002, 6.86687529e-002, -3.24924946e-001,
          -5.42497456e-001, 3.70172650e-001, -4.16293025e-001,
          -1.23714935e-003 ]
      - [ 2.17161489e+000, 2.26556945e+000, 4.65866923e-001,
          2.17535123e-001, -2.93421817e+000, -1.77522469e+000,
          -9.19386506e-001, 4.72456872e-001, 2.37549320e-001,
          -2.38648677e+000, -1.63893259e+000, 1.21947598e+000,
          1.87533283e+000, 1.04302526e+000, -6.22962356e-001,
          1.29472744e+000, -7.54761249e-002, 2.70375878e-001,
          5.19192278e-001, 7.99310982e-001, 3.34420711e-001,
          -1.84339181e-001, 1.05848372e-001, 3.12842876e-001,
          2.78252870e-001 ]
      - [ -9.45032835e-001, 1.90672553e+000, -1.80405307e+000,
          -1.79110575e+000, -5.42227745e-001, -2.26710767e-001,
          1.03047717e+000, -2.91929662e-001, 7.66607583e-001,
          1.05852619e-001, -9.01375055e-001, 2.14520380e-001,
          2.51582861e-001, 2.51147985e-001, -5.93787611e-001,
          2.52127141e-001, 9.30696785e-001, -6.91150546e-001,
          -3.96652907e-001, 5.31773984e-001, 4.21941057e-002,
          -1.94111124e-001, -1.69017464e-001, -2.30542406e-001,
          9.82652456e-002 ]
      - [ -4.58899069e+000, -5.54299891e-001, 5.91342002e-002,
          -1.60412359e+000, -1.13691878e+000, -1.84763402e-001,
          -2.28492439e-001, 8.43230128e-001, 6.11747801e-001,
          -1.59031415e+000, -4.05338764e-001, 2.44928288e+000,
          7.61931837e-002, 2.94283986e+000, -3.52891460e-002,
          7.88246751e-001, 8.44176292e-001, -2.27033481e-001,
          3.88018340e-001, -6.73071206e-001, -3.51317436e-001,
          8.32276568e-002, -6.45400584e-001, 4.39283073e-001,
          -5.81001341e-001 ]
      - [ 5.36776900e-001, 1.00050235e+000, 5.83572328e-001,
          -1.35292125e+000, -7.16905832e-001, -9.16840196e-001,
          -1.78310180e+000, 2.39418554e+000, -1.33020937e+000,
          2.35342574e+000, 1.56940997e+000, 9.80625868e-001,
          9.46233273e-001, 5.92189074e-001, -1.82778513e+000,
          3.49045217e-001, 2.04968929e+000, -2.99068123e-001,
          -4.27261412e-001, -4.33257967e-001, 8.72073770e-001,
          -1.53582782e-001, 1.25812128e-001, 2.73472935e-001,
          4.16772574e-001 ]
      - [ -2.78118229e+000, 3.82934242e-001, 1.00389886e+000,
          -2.82916784e+000, -1.79532337e+000, -6.72465682e-001,
          1.82035297e-001, 1.68710187e-001, 9.58418906e-001,
          -8.47462356e-001, -2.88403213e-001, 3.49081010e-001,
          -2.48538405e-001, 1.19547760e+000, -1.47530749e-001,
          1.15742099e+000, 5.78673005e-001, -7.40678787e-001,
          4.68769521e-001, 7.79577851e-001, -4.13523525e-001,
          4.81492341e-001, -9.14991125e-002, 1.63495854e-001,
          -2.77887583e-001 ]
      - [ -2.58297253e+000, 4.19763237e-001, -1.17102683e+000,
          1.35456216e+000, -2.78806734e+000, 2.22464180e+000,
          1.19714606e+000, 1.86763358e+000, -1.40692461e+000,
          4.02606785e-001, -1.43774939e+000, 1.41437793e+000,
          -1.36222750e-001, 2.48736477e+000, 1.38014936e+000,
          9.74058509e-001, 3.45811605e-001, -9.14814025e-002,
          1.29182801e-001, 5.10887086e-001, 4.08551633e-001,
          2.16776609e-001, 6.97034478e-001, 5.25489390e-001,
          -6.54230952e-001 ]
      - [ 1.93046832e+000, -1.70295751e+000, -1.20225511e-002,
          -8.84155631e-001, -2.30631113e+000, -6.94304824e-001,
          1.16596961e+000, -2.99400330e-001, -9.29326177e-001,
          -7.43951229e-003, 4.07944433e-002, -3.28769565e-001,
          3.83019507e-001, 6.82186335e-002, -2.80160666e-001,
          -7.89121091e-001, -4.28270042e-001, -6.26851991e-002,
          1.94216162e-001, -2.42486626e-001, -4.13052261e-001,
          -2.60815561e-001, -3.69157270e-003, -3.58696729e-001,
          -4.09206361e-001 ]
      - [ 1.16925806e-001, -8.04072917e-001, -5.58667541e-001,
          -1.34533733e-001, -3.48906660e+000, 1.13560998e+000,
          -7.09711909e-001, 6.13901377e-001, -6.83565497e-001,
          1.33161303e-002, -3.66008915e-002, 2.74201989e-001,
          7.32350528e-001, -5.19761443e-001, 5.65212250e-001,
          -1.24507117e+000, -1.16698794e-001, 5.27457774e-001,
          3.70841384e-001, 2.84642369e-001, 4.56267178e-001,
          6.35995626e-001, 3.94313395e-001, -5.11447042e-002,
          -6.68308958e-002 ]
      - [ 8.31197679e-001, -2.26444006e+000, -2.12312207e-001,
          -1.35119498e-001, -2.25901365e+000, -1.07201755e+000,
          1.41887292e-002, -2.65007645e-001, 2.66683072e-001,
          -1.04227483e-001, -6.85970426e-001, -1.45027965e-001,
          -3.38834301e-002, -3.13556880e-001, 1.02323197e-001,
          -2.94718742e-001, 2.23561168e-001, 4.85106111e-002,
          2.58411348e-001, 8.99819508e-002, 1.55051559e-001,
          -2.87186265e-001, -2.33125109e-002, -2.45964780e-001,
          -1.88690260e-001 ]
      - [ 9.16995108e-001, -1.81238985e+000, -1.49759686e+000,
          -7.10194111e-001, -1.78480148e+000, -5.07231593e-001,
          -4.04193640e-001, 9.75231886e-001, -6.43749774e-001,
          -5.65075159e-001, -3.90400589e-001, -2.04118155e-003,
          -4.54852469e-002, 2.27915078e-001, -3.46390083e-002,
          -1.74738303e-001, -7.57769793e-002, 3.57033372e-001,
          1.76941335e-001, 5.24778999e-002, -1.58496931e-001,
          1.18301652e-001, 1.04263596e-001, -1.04152098e-001,
          2.79049009e-001 ]
      - [ 1.42765462e+000, -1.27744508e+000, 1.14321268e+000,
          -8.73351872e-001, -1.91560590e+000, -1.20863986e+000,
          1.04961085e+000, 8.34236622e-001, -8.11643541e-001,
          -2.11426839e-001, -3.36451799e-001, 2.65195608e-001,
          2.08148286e-001, -1.55170113e-001, -4.11533974e-002,
          1.27554899e-002, 1.37395605e-001, -5.05458983e-003,
          2.02268288e-001, -2.86037117e-001, -9.62364301e-002,
          -1.10052407e-001, 2.17050716e-001, -6.09312117e-001,
          1.40745100e-002 ]
      - [ 8.27418804e-001, -1.01124811e+000, 3.01852489e+000,
          6.38105035e-001, -1.64833677e+000, -5.81014097e-001,
          -7.25625753e-002, 2.08164835e+000, -2.97351062e-001,
          -1.62657177e+000, -3.04706526e+000, -3.54203284e-001,
          4.19934243e-001, -3.23383719e-001, -1.22646296e+000,
          -1.39738500e+000, 8.02861214e-001, -9.71416831e-001,
          -9.10890773e-002, -1.11154392e-001, 2.37196814e-002,
          2.05652401e-001, 6.50001884e-001, -5.14082253e-001,
          1.36797056e-001 ]
      - [ 1.10675228e+000, -1.71559644e+000, 3.87176089e-002,
          1.17426969e-001, -2.57555246e+000, -1.21165597e+000,
          2.16183942e-002, 2.44676992e-001, -5.37715256e-001,
          -1.03575873e+000, -7.39246726e-001, 1.33656144e-001,
          1.28087378e+000, -2.06572801e-001, -2.26648122e-001,
          -2.75537878e-001, 8.04210007e-002, -2.59737601e-003,
          1.02205068e-001, -1.99789507e-003, -4.86610532e-002,
          -1.29709318e-001, -4.51658340e-003, -2.10162535e-001,
          -2.43298203e-001 ]
      - [ -2.65590519e-001, -2.27841869e-001, -1.89578736e+000,
          -1.50536597e+000, -1.35353029e+000, -5.14938414e-001,
          1.91639256e+000, -2.02391632e-002, -2.47372612e-001,
          -3.12639624e-001, -7.14706182e-001, -3.68306667e-001,
          7.95736969e-001, -5.67454875e-001, 3.07999134e-001,
          -2.49958962e-001, 4.40434545e-001, 7.57653341e-002,
          -1.25603572e-001, 4.66950051e-002, -1.54839158e-001,
          -1.19555712e-001, 2.36715958e-001, -3.23684543e-001,
          -1.77518666e-001 ]
      - [ -1.02490926e+000, -3.04166102e+000, -1.34959012e-001,
          -7.74233565e-002, -2.30134463e+000, -7.17576265e-001,
          5.59648871e-001, 1.24189317e-001, -4.03673142e-001,
          -5.17152786e-001, -2.09271029e-001, 3.29455614e-001,
          5.25307059e-001, 5.72333187e-002, -6.59466863e-001,
          -6.97419420e-003, 6.41831085e-002, -1.24528550e-001,
          5.25945306e-001, -8.65682811e-002, -4.86851364e-001,
          -1.99677974e-001, -8.24887753e-002, -2.52272278e-001,
          -4.95009780e-001 ]
      - [ 5.65482974e-001, -2.08257437e+000, -1.51320562e-001,
          -4.49139208e-001, -2.09351087e+000, -1.32350028e+000,
          -1.05133265e-001, 6.87539577e-001, -1.35179782e+000,
          7.33037949e-001, 4.37978774e-001, 1.94005102e-001,
          7.02176988e-001, -1.82607055e-001, -8.51351321e-001,
          1.64571300e-001, 5.27452946e-001, -3.59344147e-002,
          -2.52430122e-002, -4.97798294e-001, 5.06928712e-002,
          -1.92037687e-001, 1.57733306e-001, -2.22048208e-001,
          9.87494960e-002 ]
      - [ -1.11731398e+000, -1.90386283e+000, 8.25441301e-001,
          -5.73737323e-001, -2.24173951e+000, -7.85102487e-001,
          5.73640227e-001, 3.48586813e-002, -2.93743432e-001,
          -1.58159405e-001, -6.17091179e-001, -4.31574315e-001,
          2.69403100e-001, -8.50503147e-002, -4.94723052e-001,
          -2.80571014e-001, -2.29007639e-002, -1.11513389e-002,
          2.65095651e-001, 1.58234820e-001, -1.49401337e-001,
          1.47341907e-001, 9.88759473e-002, -2.80857086e-001,
          -1.72496721e-001 ]
      - [ -5.71935058e-001, -2.09514427e+000, -1.43685758e-001,
          9.43996072e-001, -2.10710430e+000, 6.29023075e-001,
          1.08265400e+000, 1.80078194e-001, -1.00014842e+000,
          5.77748579e-004, -3.77824605e-001, 9.39075556e-003,
          2.95773387e-001, -8.44020694e-002, 5.89852184e-002,
          -5.33335321e-002, 1.59227714e-001, 5.46632931e-002,
          -1.29384743e-002, 5.84322810e-002, -3.96244556e-001,
          -1.88662753e-001, 3.28447223e-001, -3.71672094e-001,
          -8.78087506e-002 ]
      - [ -1.66418624e+000, 1.01406229e+000, -3.75520997e-002,
          5.67194879e-001, -2.20330215e+000, 1.58440697e+000,
          -2.15660357e+000, 6.70123041e-001, -2.84211934e-002,
          -4.87378865e-001, 4.83684748e-001, 7.37338424e-001,
          2.20281228e-001, -9.82221544e-001, 2.52628237e-001,
          3.08497965e-001, 2.70995229e-001, 2.37098321e-001,
          5.86878955e-001, 2.35815674e-001, 4.51313198e-001,
          4.59208071e-001, 5.23717165e-001, 4.73374635e-001,
          3.17344457e-001 ]
      - [ -1.75345349e+000, -1.62660611e+000, -7.34772623e-001,
          1.30759883e+000, -1.31108236e+000, -1.28789377e+000,
          -3.09641147e+000, -5.45749009e-001, 2.48721409e+000,
          2.65113125e-003, -1.58443904e+000, 9.22495544e-001,
          -1.09790778e+000, -4.58133042e-001, 2.94470429e-001,
          5.62798083e-001, 1.68771982e+000, 3.12341303e-001,
          1.05076833e-002, 7.46288478e-001, -7.45672286e-002,
          -1.22828007e-001, -1.80895492e-001, -4.27353323e-001,
          1.41798422e-001 ]
      - [ -1.25620651e+000, -1.13640833e+000, -2.54683757e+000,
          1.05884537e-001, -3.73640031e-001, -1.24561395e-002,
          -3.04883170e+000, 2.20107698e+000, 1.77718297e-001,
          -6.30100191e-001, -2.35126883e-001, 3.98616314e-001,
          -1.52132258e-001, 1.75905779e-001, -1.32274732e-001,
          5.54106295e-001, 4.86776710e-001, 6.67997420e-001,
          2.12960407e-001, -3.24588478e-001, -5.11319995e-001,
          3.75121653e-001, 5.46506524e-001, -2.88221985e-001,
          7.02447057e-001 ]
      - [ 4.17533815e-001, 9.17054474e-001, 4.06927967e+000,
          6.11969888e-001, -1.11735833e+000, -1.51946807e+000,
          6.50973976e-001, 3.34493446e+000, -7.74363279e-001,
          -1.74941945e+000, -1.19178081e+000, 2.41227460e+000,
          -1.42143631e+000, -3.13845944e+000, 8.57917786e-001,
          2.19618654e+000, 1.36064255e+000, 7.24012613e-001,
          1.14561915e+000, 4.70993714e-003, -7.00802326e-001,
          -4.57077652e-001, 8.62495154e-002, -5.88767052e-001,
          -8.81340981e-001 ]
      - [ -1.46515024e+000, 1.93881297e+000, 2.57501793e+000,
          1.78349900e+000, 1.34462512e+000, 2.72259593e-001,
          -9.16180074e-001, 1.30193770e+000, 1.05764604e+000,
          -1.01135540e+000, -2.20119309e+000, -2.47567803e-001,
          -1.40206795e-002, -6.84910953e-001, -7.91669369e-001,
          -2.28330061e-001, 1.81354508e-001, 3.68139267e-001,
          -3.39695096e-001, -3.39751571e-001, 1.68962002e-001,
          -2.35163301e-001, -1.57150656e-001, 1.42147228e-001,
          1.92215964e-001 ]
      - [ -5.57615399e-001, 1.82887316e-001, 1.97399352e-002,
          3.32019353e+000, -2.14234948e+000, -1.34848416e+000,
          -2.24616170e+000, 1.13568768e-001, 7.61043966e-001,
          -2.06227636e+000, -1.61232531e+000, 1.08484733e+000,
          2.34429169e+000, -2.09667951e-001, -8.53046656e-001,
          1.40699685e+000, 2.69787014e-001, 1.31576693e+000,
          -1.36703521e-001, -8.38230476e-002, 3.91292483e-001,
          2.31651306e-001, 1.54250577e-001, 4.13976848e-001,
          2.88243949e-001 ]
      - [ -2.43002844e+000, 1.20383894e+000, -2.09246278e+000,
          -6.30963326e-001, 3.41846853e-001, 4.27943841e-002,
          8.27090800e-001, -4.22132522e-001, 1.04374206e+000,
          -2.87840098e-001, -5.24877369e-001, 3.79120916e-001,
          7.66279459e-001, -1.05760193e+000, -4.95755255e-001,
          6.39407158e-001, 8.62159252e-001, -4.03717250e-001,
          2.01045245e-001, 2.36705035e-001, -1.32489577e-001,
          3.22722107e-001, 6.80191875e-001, 2.47794896e-001,
          3.84583294e-001 ]
      - [ -3.81269860e+000, -4.28583086e-001, -6.07160270e-001,
          3.04794252e-001, -1.38488263e-001, 4.42458577e-002,
          -1.13345301e+000, 5.72035730e-001, 6.48095787e-001,
          -7.66977847e-001, -2.74809003e-001, 8.62114429e-001,
          4.27766815e-002, 5.08199692e-001, 4.12507094e-002,
          4.11567688e-001, 4.33216095e-001, -4.77803014e-002,
          3.04851651e-001, -4.16968226e-001, -2.34643310e-001,
          2.67172724e-001, 9.92095545e-002, -7.10242987e-002,
          -1.81649014e-001 ]
      - [ -1.62933993e+000, 3.51562910e-002, -4.15558606e-001,
          1.02983439e+000, -3.58950496e-001, -1.10621083e+000,
          -2.21518803e+000, 2.25629354e+000, -1.24878192e+000,
          2.09501314e+000, 5.78781426e-001, 9.54395115e-001,
          9.16022837e-001, -3.28114420e-001, -1.71719158e+000,
          1.08180904e+000, 9.49818194e-001, -2.89747417e-001,
          4.83366586e-002, -7.10681081e-001, 8.17473829e-001,
          5.23867130e-001, 1.41352177e-001, 5.13946235e-001,
          4.48645204e-001 ]
      - [ -3.85885000e+000, -2.46336594e-001, 8.75146449e-001,
          -6.48631036e-001, -3.92424911e-001, -3.59520823e-001,
          -9.39109445e-001, 5.74784935e-001, 7.19039977e-001,
          -3.05889785e-001, -8.76217008e-001, -9.54443067e-002,
          1.29743787e-002, -1.20114230e-001, -3.25441629e-001,
          1.97169259e-001, -1.74375668e-001, -7.09368289e-003,
          4.69447374e-002, 3.95399719e-001, -1.70778874e-002,
          5.02258062e-001, 4.55070809e-002, 2.08112285e-001,
          1.09885514e-001 ]
      - [ -2.53139472e+000, -1.93130702e-001, -1.04710698e+000,
          1.72171593e+000, -7.09096134e-001, 1.19412708e+000,
          -5.46844542e-001, 1.18847942e+000, -7.05430627e-001,
          7.63591900e-002, -1.22134471e+000, 6.30026519e-001,
          1.74914837e-001, 5.02564728e-001, 3.46002877e-001,
          1.06132746e+000, 6.87114358e-001, 1.42888993e-001,
          -4.80317920e-002, -2.58588076e-001, -8.46536085e-002,
          5.90793192e-001, 7.44864643e-002, -3.26651067e-001,
          1.25736725e-002 ]
      - [ 3.69557232e-001, -2.71824288e+000, -4.90601987e-001,
          8.02486241e-001, 1.02348828e+000, -2.08450460e+000,
          4.21829849e-001, -9.49969590e-001, 1.03786683e+000,
          -3.85126546e-002, -1.21466005e+000, -5.81505120e-001,
          -1.11900306e+000, -2.72302121e-001, 1.65277079e-001,
          1.06928840e-001, 5.56645691e-001, 3.84282582e-002,
          -7.26357698e-001, 1.47454396e-001, 5.30017242e-002,
          -5.52545488e-001, -9.34946537e-001, -2.68867314e-001,
          4.65104319e-002 ]
      - [ 9.88478959e-001, -1.92283762e+000, -1.75998390e+000,
          -4.66205090e-001, 1.31388092e+000, -1.83250844e+000,
          -3.68150860e-001, 1.21150744e+000, 1.29813766e-002,
          -7.33198106e-001, -4.46790576e-001, -2.54527867e-001,
          -1.06294371e-001, 8.83829355e-001, -1.61885306e-001,
          -9.63593498e-002, 2.50056058e-001, 6.24823710e-003,
          -2.99335957e-001, -4.42689843e-002, -6.94126308e-001,
          -1.85033664e-001, -1.38669563e-002, -1.30361065e-001,
          7.67958820e-001 ]
      - [ 9.48956430e-001, -1.21385646e+000, 1.43555689e+000,
          2.34014839e-002, 2.06262994e+000, -1.67968082e+000,
          2.19494319e+000, 5.48577845e-001, -6.63294435e-001,
          3.71337414e-001, -7.23242164e-001, -1.35667086e-001,
          -1.58263355e-001, 2.74154544e-001, -2.42665559e-001,
          1.15237072e-001, 2.02453390e-001, 4.16957885e-002,
          -4.37621087e-001, -7.35930800e-001, 1.43602788e-001,
          -2.47112028e-002, -2.97305465e-001, -7.41445243e-001,
          -4.56840366e-001 ]
      - [ 1.47350922e-001, 3.30849409e-001, 2.14887691e+000,
          1.18468642e+000, 2.51847458e+000, -1.28607869e+000,
          1.31625044e+000, 3.21980625e-001, 1.44209594e-001,
          -4.95719880e-001, -1.53155875e+000, -4.70486581e-001,
          -6.43589079e-001, 4.18228775e-001, -1.07072639e+000,
          -1.70777336e-001, 4.59693581e-001, -5.46273649e-001,
          -7.26076424e-001, -6.44284785e-002, -6.44410104e-002,
          -8.28825235e-002, -3.45009677e-002, 1.64654180e-002,
          -1.46645442e-001 ]
      - [ 9.38018322e-001, -1.76521420e+000, 2.22326562e-001,
          1.48797846e+000, 1.31330991e+000, -2.99990940e+000,
          1.00969911e+000, -6.79920197e-001, 6.19105160e-001,
          -1.12668598e+000, -1.61898363e+000, -1.04083121e-001,
          9.92219746e-001, 3.65154475e-001, -6.46972597e-001,
          6.41018093e-001, -2.88433194e-001, -2.85802394e-001,
          -7.06602037e-001, 3.82628679e-001, -2.33075004e-002,
          -4.58646804e-001, -4.03432369e-001, 4.14731726e-002,
          -3.95171762e-001 ]
      - [ -5.24802864e-001, 3.72259557e-001, -1.87604094e+000,
          -1.26387620e+000, 1.05371022e+000, -1.09097064e+000,
          1.82920825e+000, -4.28918272e-001, 7.00984478e-001,
          -2.22505927e-001, -6.64710462e-001, -1.52163237e-001,
          1.65446967e-001, -1.04908086e-001, -4.17240649e-001,
          1.74909607e-001, 3.04393768e-001, 1.60232596e-002,
          -4.73817438e-001, -1.50775015e-001, -3.20197232e-002,
          -1.31558090e-001, -3.00753750e-002, -1.79724559e-001,
          3.27519551e-002 ]
      - [ -1.46147954e+000, -2.61880517e+000, -1.21789604e-001,
          4.52699363e-001, 1.84000111e+000, -1.56541538e+000,
          9.55372930e-001, -5.83631814e-001, 4.75868016e-001,
          -8.10632885e-001, -1.26278415e-001, 6.66839182e-002,
          -1.16420284e-001, 1.28042266e-001, -6.71655834e-001,
          1.85677007e-001, 2.69805379e-002, -3.85449797e-001,
          -2.94730932e-001, -4.83412772e-001, -3.50837469e-001,
          -4.05269146e-001, -4.20031369e-001, -2.30973348e-001,
          -2.07225785e-001 ]
      - [ 4.91968572e-001, -1.47803462e+000, 3.53233129e-001,
          2.01286256e-001, 1.65686369e+000, -2.67147470e+000,
          5.73505104e-001, 7.45211244e-001, -6.20516360e-001,
          1.15337253e+000, 2.34478772e-001, -1.56575397e-001,
          5.19631863e-001, 4.39331084e-001, -1.04155922e+000,
          2.17574298e-001, 5.25426209e-001, -3.57876688e-001,
          -4.59747642e-001, -6.89932525e-001, 3.88044000e-001,
          -4.92231637e-001, -2.76259154e-001, -3.77855688e-001,
          -7.05387071e-002 ]
      - [ -2.19191384e+000, -1.80239975e+000, 1.43318498e+000,
          -6.12090826e-001, 1.34692681e+000, -1.71026945e+000,
          1.13268650e+000, -3.87857705e-001, 3.73546332e-001,
          -5.38781345e-001, 4.24234234e-002, -1.05129325e+000,
          -2.91722208e-001, 8.37497935e-002, -5.26303470e-001,
          1.85289860e-001, -2.05142915e-001, -2.46552974e-001,
          -2.92610735e-001, -2.26727992e-001, 2.41428703e-001,
          2.45395020e-001, -2.77567208e-001, -6.59054697e-001,
          5.75122684e-002 ]
      - [ -7.10217476e-001, -2.52202821e+000, -1.43666759e-001,
          1.47964883e+000, 1.33018100e+000, -1.05403952e-001,
          1.91581261e+000, 5.08723080e-001, -9.02972519e-001,
          -1.58133060e-002, -1.54942381e+000, -4.74352747e-001,
          -1.78526223e-001, 6.67530179e-001, 1.15075121e-002,
          4.66992855e-001, 1.73097745e-001, 8.62582698e-002,
          -7.69199371e-001, -4.29686248e-001, -2.87513249e-004,
          -1.27751395e-001, -3.72408718e-001, -7.88162887e-001,
          -2.83675551e-001 ]
      - [ 1.15121774e-001, -5.07951267e-002, -1.72592723e+000,
          -9.95720387e-001, 1.31789768e+000, 1.07559383e+000,
          -8.26030076e-001, 3.26529121e+000, -2.07641768e+000,
          -2.45714259e+000, 1.33764350e+000, -3.09206843e-001,
          7.96007156e-001, -2.97529340e-001, 4.19365801e-002,
          4.96791303e-001, -3.50716412e-001, 6.97655141e-001,
          -2.95385778e-001, -5.54353178e-001, -4.40184623e-001,
          3.87158304e-001, 1.17805302e+000, -6.55443192e-001,
          4.20417003e-002 ]
      - [ 1.07682598e+000, 1.40554357e+000, 1.93021202e+000,
          -1.52685499e+000, 5.76914430e-001, 5.37386715e-001,
          2.02424455e+000, 1.41799855e+000, -1.93648410e+000,
          -2.90030658e-001, 8.35713089e-001, 5.95663726e-001,
          7.10129321e-001, -6.51217951e-003, -5.31140622e-003,
          4.71469969e-001, -2.34582961e-001, -1.53091967e-001,
          -3.68729919e-001, -8.13478589e-001, 9.84482840e-002,
          4.17310148e-001, 7.94123560e-002, -7.94242844e-002,
          1.51677579e-001 ]
      - [ -1.18811511e-001, 2.52651548e+000, 2.22609472e+000,
          -4.32611853e-002, 1.73977292e+000, 5.25592148e-001,
          3.45064908e-001, 1.29023147e+000, -9.62924063e-001,
          -6.63561106e-001, -5.06039560e-001, -5.23301847e-002,
          5.54619014e-001, 2.48684168e-001, -4.23110247e-001,
          5.23342798e-003, 1.91095993e-001, 1.24760084e-002,
          -2.82449961e-001, -5.01832366e-001, -1.49198204e-001,
          6.30981848e-002, -1.96535081e-001, 1.80961892e-001,
          1.36589274e-001 ]
      - [ 1.18346894e+000, 3.47330165e+000, 7.47566819e-001,
          8.10421228e-001, -7.82739639e-001, -3.05176884e-001,
          1.48520052e+000, 7.23450065e-001, -3.55419421e+000,
          -3.42723417e+000, -8.31436336e-001, 5.63597441e-001,
          2.04477382e+000, 4.64038938e-001, -1.51807356e+000,
          1.12123716e+000, -1.42030787e+000, 5.09358227e-001,
          5.35934567e-001, 1.77572623e-001, -5.17055035e-001,
          -4.14823413e-001, 2.99475551e-001, 6.73009872e-001,
          -3.91851902e-001 ]
      - [ -1.11613822e+000, 1.62095797e+000, -1.36610293e+000,
          -1.27734840e+000, 5.09445608e-001, 6.64276123e-001,
          1.42799842e+000, -2.57863820e-001, -5.50417304e-002,
          -4.01958376e-001, -1.44835100e-001, -1.55157121e-002,
          9.88675833e-001, -4.17647600e-001, -3.27958077e-001,
          2.24167004e-001, 1.82387322e-001, -2.09650263e-001,
          -3.09630483e-001, 6.01283126e-002, -2.09692627e-001,
          2.64399409e-001, 2.04266116e-001, -2.63812631e-001,
          7.51629397e-002 ]
      - [ -3.67279220e+000, 5.20671997e-003, 3.23888808e-001,
          -4.62886900e-001, 1.01561296e+000, 7.18102276e-001,
          8.31818581e-001, 1.01631761e+000, -1.41135883e+000,
          -8.54056358e-001, 1.26117849e+000, 8.94233525e-001,
          1.10864437e+000, 7.22577989e-001, -8.71550977e-001,
          4.25340801e-001, -7.88772404e-001, -3.66297334e-001,
          6.42855763e-002, -8.03320467e-001, -7.36282349e-001,
          1.27485454e-001, 1.43675044e-001, 2.01028898e-001,
          -1.09835185e-001 ]
      - [ -7.63409793e-001, 8.80363762e-001, 8.31206262e-001,
          -3.93417418e-001, 1.13225448e+000, 2.26056173e-001,
          2.58978844e-001, 1.85315442e+000, -2.55980372e+000,
          1.25953102e+000, 1.68057203e+000, 2.47945294e-001,
          1.35636568e+000, -2.13326365e-001, -1.25803661e+000,
          3.38692479e-002, 4.34295893e-001, -3.78702223e-001,
          -2.91982621e-001, -8.11606824e-001, 2.67898023e-001,
          -9.65870991e-002, 5.46128333e-001, 2.00842530e-001,
          2.19365776e-001 ]
      - [ -3.18272114e+000, 8.68835568e-001, 1.11436379e+000,
          -1.50193560e+000, 3.09170425e-001, 1.52280405e-001,
          8.51521969e-001, 7.44458377e-001, -6.72915280e-001,
          -4.01904792e-001, 5.35952032e-001, -4.85822648e-001,
          9.16053176e-001, 7.49531627e-001, -6.44076228e-001,
          7.09654152e-001, -5.87830722e-001, -2.87867766e-002,
          1.59009889e-001, -3.17195319e-002, -1.56556517e-001,
          5.33094227e-001, 4.50413525e-002, 3.88029478e-002,
          2.25938261e-001 ]
      - [ -2.20146632e+000, 1.37690574e-001, -4.97804940e-001,
          8.99268806e-001, 2.86388546e-001, 2.10957861e+000,
          1.59871352e+000, 1.76231217e+000, -2.16720390e+000,
          -1.47105437e-002, 3.61977927e-002, 4.51227039e-001,
          6.77713275e-001, 7.81134963e-001, -2.08956271e-001,
          7.93943524e-001, -1.34436250e-001, -1.41450707e-002,
          -6.03233203e-002, -1.92919448e-001, -4.17910695e-001,
          4.33523893e-001, 1.74266353e-001, -1.75275549e-001,
          -2.26534083e-001 ]
      - [ 2.95367509e-001, 8.66786540e-001, 3.06046581e+000,
          -3.52382839e-001, 9.14184526e-002, -2.78098166e-001,
          2.01606297e+000, -5.72313488e-001, -9.91981253e-002,
          3.33635926e-001, 3.03334177e-001, 3.24485749e-001,
          -1.53033525e-001, -6.61079288e-001, -1.12821072e-001,
          6.62708759e-001, 3.04752946e-001, -6.26713336e-001,
          1.28809065e-001, -5.75719476e-002, 2.26149768e-001,
          2.98016876e-001, -3.27791482e-001, -1.82977915e-001,
          -6.22015744e-002 ]
      - [ -5.92018008e-001, 1.54496825e+000, 2.59462142e+000,
          1.00946891e+000, 8.98202896e-001, 8.29246733e-003,
          7.60432780e-001, -6.50326014e-001, 3.04778665e-001,
          -1.87491298e-001, -5.69797337e-001, -3.49114299e-001,
          1.23386465e-001, -4.32714790e-001, -3.15281987e-001,
          -1.89867854e-001, 3.25310141e-001, -5.60483575e-001,
          -5.39306045e-001, -8.36489946e-002, 2.04476357e-001,
          -1.34959444e-001, -2.90613085e-001, 1.23811826e-001,
          -2.11312566e-002 ]
      - [ -1.84060916e-001, 1.36086261e+000, 2.38306212e+000,
          1.55952322e+000, -1.39202845e+000, -1.20007586e+000,
          1.14123344e+000, -2.44795156e+000, 3.11241597e-001,
          -4.75410134e-001, -7.29493618e-001, 3.58512491e-001,
          1.14804792e+000, -5.45525968e-001, -3.78404975e-001,
          7.61024892e-001, -3.65693927e-001, -3.64111125e-001,
          7.87717775e-002, 2.44922012e-001, 1.08925113e-002,
          -3.87618452e-001, -3.50039154e-001, 4.71841007e-001,
          -1.74245819e-001 ]
      - [ -1.30811453e+000, 1.47882473e+000, -1.39301851e-001,
          -6.66862249e-001, -1.48824140e-001, 4.35953856e-001,
          2.07381964e+000, -1.57303095e+000, 8.21159899e-001,
          9.16974768e-002, -4.76884604e-001, 5.61329648e-002,
          1.20859168e-001, -6.57688558e-001, -4.86151367e-001,
          2.49059886e-001, 1.83237702e-001, -4.47367072e-001,
          -7.42254704e-002, 7.78135583e-002, 2.31366366e-001,
          -2.25597352e-001, 2.95614228e-002, -1.28558859e-001,
          -2.75496125e-001 ]
      - [ -2.73154712e+000, -3.88451926e-002, 1.99934554e+000,
          4.66245681e-001, 1.64522678e-001, -2.56356914e-002,
          1.44647503e+000, -1.85404491e+000, 3.65229547e-001,
          5.58457553e-001, 5.53609014e-001, 6.45878315e-001,
          3.81188810e-001, 2.53848791e-001, -3.52421939e-001,
          3.73449951e-001, -1.22462176e-001, -6.18172169e-001,
          6.31643087e-002, -3.18471551e-001, -3.49696755e-001,
          -2.97653794e-001, -2.74682045e-001, 7.43773058e-002,
          -2.63550490e-001 ]
      - [ -7.94821262e-001, 9.65386331e-001, 2.51770401e+000,
          5.26247025e-001, 5.87553382e-001, -1.00658703e+000,
          9.94883299e-001, -8.58810425e-001, -1.26725781e+000,
          2.38240218e+000, 1.25957882e+000, 4.96714473e-001,
          1.21053803e+000, -1.00537646e+000, -8.44318330e-001,
          8.36848736e-001, 5.10671914e-001, -1.22329557e+000,
          -1.14683025e-001, -3.95435095e-001, 1.91969767e-001,
          -4.37097996e-001, -1.30745038e-001, 1.42326936e-001,
          -2.75091797e-001 ]
      - [ -1.91461635e+000, 2.52158701e-001, 2.15558505e+000,
          -3.23983073e-001, -4.19202447e-001, -4.48883802e-001,
          1.10225439e+000, -1.28567195e+000, 2.27194861e-001,
          3.70572031e-001, -5.09981299e-003, -1.00291654e-001,
          3.30346860e-002, -4.66977149e-001, -1.61179170e-001,
          5.81850350e-001, -5.21539092e-001, -6.82510555e-001,
          -2.59173006e-001, 2.51297176e-001, 2.36324891e-001,
          -1.96206629e-001, -1.94838151e-001, 1.30916238e-001,
          -8.59168693e-002 ]
      - [ -1.85146368e+000, 7.08190426e-002, 1.16380239e+000,
          1.16127181e+000, -9.88419712e-001, 1.56899953e+000,
          2.21193099e+000, -1.17703235e+000, -3.36536765e-001,
          1.02042711e+000, -9.07070100e-001, 4.05701250e-001,
          2.36655265e-001, 6.34851038e-001, 2.16166735e-001,
          4.86663431e-001, 1.31889001e-001, -2.19835974e-002,
          -3.10643226e-001, -6.44990802e-002, -1.22297585e-001,
          2.16617540e-001, -3.39170635e-001, -6.15774617e-002,
          -2.74397433e-001 ]
      - [ -1.81502628e+000, 1.98046207e+000, 2.85905004e-001,
          1.75065577e+000, 2.14589977e+000, 1.65656018e+000,
          -2.51318812e+000, 2.93205470e-001, 1.61279583e+000,
          -1.19130945e+000, -2.27198339e+000, -1.24964857e+000,
          2.44952813e-001, -2.92205572e-001, -7.48938203e-001,
          -1.31748104e+000, 6.56973124e-001, -7.53592551e-001,
          -8.96098733e-001, 3.15743625e-001, 8.44058335e-001,
          -5.43137193e-001, 8.05907100e-002, 1.29858887e+000,
          2.09520757e-001 ]
      - [ -5.22531211e-001, -6.65824294e-001, -1.61685872e+000,
          3.10980844e+000, -1.75901091e+000, -5.22906423e-001,
          -2.28679657e+000, -1.35431755e+000, 1.43845594e+000,
          -1.61706889e+000, -5.49027860e-001, -5.51540077e-001,
          2.60452271e+000, 6.02287054e-001, -4.58482802e-001,
          -2.63519585e-001, -8.90534341e-001, 8.40626419e-001,
          -4.82074052e-001, 3.30909908e-001, 8.68980408e-001,
          -6.18997216e-001, 1.05970047e-001, 8.20131421e-001,
          9.84724909e-002 ]
      - [ -1.06530440e+000, 9.42533672e-001, -2.43734479e+000,
          -5.76878011e-001, 4.52247113e-001, 4.58608866e-001,
          2.54400462e-001, -9.16293740e-001, 6.16429627e-001,
          -2.02327967e-001, -3.04953545e-001, -3.15471739e-001,
          3.67350906e-001, -1.10629678e-001, -1.56063825e-001,
          -1.83868498e-001, 1.87871486e-001, 1.32286668e-001,
          -4.35067356e-001, 1.45893022e-001, -2.73859352e-001,
          4.07234579e-003, -5.33409975e-003, 1.91232160e-001,
          1.77878410e-001 ]
      - [ -3.07188964e+000, -1.02195942e+000, -1.25504994e+000,
          4.98963296e-001, 4.25838977e-001, 1.25541463e-001,
          -1.01194751e+000, -4.09514308e-001, 6.15529954e-001,
          -6.15195274e-001, 8.36735740e-002, -1.34059176e-001,
          5.14522374e-001, 9.93300304e-002, -2.97442615e-001,
          -2.18962878e-001, -3.21853995e-001, -1.80936188e-001,
          6.13813885e-002, 3.33826244e-001, -6.16396785e-001,
          1.40401363e-001, -6.31952807e-002, 3.11451107e-001,
          -4.14337337e-001 ]
      - [ -1.37873614e+000, -1.13284719e+000, -1.89883745e+000,
          5.56527436e-001, 2.61937827e-001, -1.57776207e-001,
          -2.52543592e+000, 2.49184534e-001, -8.91571522e-001,
          2.50037670e+000, 1.50771379e+000, -1.21203974e-001,
          1.51820982e+000, 5.71422815e-001, -8.99977744e-001,
          -1.27668008e-001, 8.46997261e-001, -4.43762451e-001,
          -5.93520522e-001, -2.46408388e-001, 2.49968156e-001,
          9.83211249e-002, -1.97530031e-001, 2.47718364e-001,
          3.73439521e-001 ]
      - [ -3.44530320e+000, -6.00357711e-001, -1.43934682e-001,
          -3.71251345e-001, -1.96413979e-001, -2.43087113e-001,
          -1.44227993e+000, -4.25589234e-001, 8.76574755e-001,
          -3.97618800e-001, -3.31028521e-001, -1.15473390e+000,
          1.84984073e-001, -8.50276425e-002, -1.20229706e-001,
          1.46781445e-001, -5.44030309e-001, -2.55557895e-001,
          -3.51688266e-002, 7.08249807e-001, -6.88040316e-001,
          8.69663432e-002, -2.96027869e-001, 7.00073600e-001,
          4.27643985e-001 ]
      - [ -1.55172133e+000, -9.15585518e-001, -2.26018500e+000,
          1.99514604e+000, -1.04148924e-001, 1.38766837e+000,
          -5.60114205e-001, -1.11971632e-001, -3.44133437e-001,
          2.81566024e-001, -8.44826341e-001, -2.18434840e-001,
          4.92213219e-002, 2.10887581e-001, 3.05479635e-002,
          4.34658587e-001, -2.21486777e-001, 3.30062620e-002,
          -1.49293810e-001, 1.20778024e-001, -4.34181541e-001,
          3.83551508e-001, -1.35041922e-001, 2.91895270e-001,
          1.93986833e-001 ]
      - [ 1.39183700e+000, -2.13394380e+000, -2.10177135e+000,
          5.31573951e-001, -2.76965141e+000, -9.50146616e-001,
          -4.91176069e-001, -1.07279503e+000, -5.00837564e-001,
          -6.33843660e-001, 1.40707111e+000, 6.19005799e-001,
          2.50836372e+000, 3.23986471e-001, 4.55709219e-001,
          7.10250974e-001, -7.54499435e-001, 2.65655905e-001,
          -6.07971884e-002, 1.65517643e-001, 6.11753464e-001,
          5.02041101e-001, 1.29263356e-001, 1.89637437e-001,
          9.36484989e-003 ]
      - [ -6.14310145e-001, 3.43705982e-001, -2.45745754e+000,
          -1.28352976e+000, -3.96282881e-001, -9.44981650e-002,
          8.50718558e-001, -5.88119566e-001, 9.62544233e-002,
          2.70611256e-001, 2.54101872e-001, 1.32248998e-001,
          2.29958057e-001, -1.65830284e-001, 2.53427088e-001,
          3.44675303e-001, 5.32072112e-002, -6.49416745e-002,
          -8.58089030e-002, 1.81101590e-001, 1.56638527e-003,
          -9.06005949e-002, -1.38359383e-001, 1.09708197e-002,
          -5.24142347e-002 ]
      - [ -2.23063827e+000, -2.70960832e+000, -1.38677466e+000,
          -5.69444537e-001, -1.14784026e+000, -2.91336656e-001,
          4.70104516e-001, -5.97785413e-001, -3.95353585e-001,
          -2.23738477e-002, 1.08112907e+000, 5.64277768e-001,
          3.18515092e-001, 4.53453124e-001, 1.30382344e-001,
          4.91395593e-001, -3.74228805e-001, 8.68750885e-002,
          6.50047958e-001, 1.38612866e-001, 2.29141325e-001,
          2.89204955e-001, -1.87132731e-001, 2.40607504e-002,
          -4.70517099e-001 ]
      - [ -1.46791851e-002, -1.50195980e+000, -1.73607492e+000,
          -1.05654013e+000, -8.88556898e-001, -6.94545746e-001,
          -2.94129997e-001, 1.53914467e-001, -1.48086417e+000,
          2.20955348e+000, 2.09359980e+000, 5.80043197e-001,
          5.71111977e-001, 1.82882547e-002, -5.93655229e-001,
          5.28106153e-001, -6.41043335e-002, -7.31784329e-002,
          -2.26334199e-001, 7.00818077e-002, 1.27425864e-001,
          1.10456981e-001, 2.44652063e-001, -2.08436519e-001,
          -3.85038674e-001 ]
      - [ -2.70767498e+000, -1.77923405e+000, -2.24262953e-001,
          -1.98884058e+000, -1.71000135e+000, -8.16092193e-001,
          2.54072160e-001, -5.02583921e-001, 2.81953812e-001,
          8.36391807e-001, 5.11176884e-001, -6.63412809e-001,
          -1.70456454e-001, 2.05491498e-001, 2.14650646e-001,
          8.98875058e-001, -4.17667568e-001, -2.40470886e-001,
          6.65397167e-001, 5.06418288e-001, -1.47281200e-001,
          3.54217261e-001, -4.79784198e-002, -1.18792430e-002,
          1.09862603e-001 ]
      - [ -1.03874159e+000, -2.24533510e+000, -1.69747305e+000,
          4.23992455e-001, -1.42564690e+000, 1.16790724e+000,
          1.05765522e+000, 2.61414400e-003, -1.01971364e+000,
          9.06061471e-001, 7.79936388e-002, 2.91867226e-001,
          4.44576405e-002, -3.24323952e-001, 5.57383478e-001,
          6.80198669e-001, -1.97942957e-001, -1.98590577e-001,
          2.21326411e-001, 5.75094223e-002, 8.10105056e-002,
          1.03850558e-001, -8.06173608e-002, -9.29628313e-002,
          9.38213319e-002 ]
      - [ -9.09595430e-001, 1.21885812e+000, -1.42401469e+000,
          -1.83037138e+000, 8.00721645e-001, 6.87015712e-001,
          1.61249852e+000, -7.29857832e-002, 4.83772397e-001,
          4.03974742e-001, -1.25024870e-001, -2.05869898e-001,
          3.33038941e-002, -4.40526009e-001, 2.80852824e-001,
          -9.36535522e-002, 2.41501883e-001, -2.87084915e-002,
          -4.03852999e-001, -3.60501818e-002, 2.43946522e-001,
          4.07750875e-001, 2.59410916e-003, -1.36135474e-001,
          1.01830088e-001 ]
      - [ -3.44005919e+000, -1.69053888e+000, 2.09804744e-001,
          -7.91335762e-001, 1.48839676e+000, 9.42979932e-001,
          8.25679481e-001, 2.87971467e-001, 2.53141701e-001,
          6.19727612e-001, 1.27704525e+000, 5.30747831e-001,
          -7.58858025e-001, 8.10053349e-002, 1.07647702e-001,
          -1.54855072e-001, 1.99365363e-001, -7.50317395e-001,
          2.00454980e-001, -3.86503726e-001, -2.15141982e-001,
          3.14518884e-002, 2.97123879e-001, -5.16080596e-002,
          -2.92337954e-001 ]
      - [ -7.81149447e-001, -6.78020418e-001, 3.22607756e-001,
          -1.31769657e+000, 1.18709695e+000, 1.67043969e-001,
          -2.30974145e-002, 1.63329387e+000, -1.32549381e+000,
          3.25399494e+000, 1.73542893e+000, 1.98186442e-001,
          -2.02118251e-002, 1.61873817e-001, -9.09744203e-001,
          -2.28815362e-001, 7.77435422e-001, -7.82048464e-001,
          -2.17220679e-001, -5.71219623e-001, 2.25010335e-001,
          1.99812770e-001, 3.45754564e-001, -1.83124483e-001,
          4.09315735e-001 ]
      - [ -3.01208591e+000, -1.05428362e+000, 1.27900314e+000,
          -1.66082919e+000, 7.09257901e-001, 1.37363568e-001,
          9.71890152e-001, 1.79214478e-001, 4.09420222e-001,
          8.56261671e-001, 4.29209709e-001, -3.75989139e-001,
          -7.10015774e-001, 9.16874185e-002, 3.67537886e-001,
          6.42863065e-002, 1.05254337e-001, -3.48112315e-001,
          -4.55271304e-002, 2.17483997e-001, 1.39992684e-001,
          2.58906990e-001, 2.28276655e-001, -3.22729200e-002,
          1.79347321e-001 ]
      - [ -2.20870066e+000, -1.19846296e+000, -4.46339488e-001,
          5.24080634e-001, 4.00434196e-001, 2.43810081e+000,
          1.68520272e+000, 1.02963829e+000, -7.39323497e-001,
          1.34922135e+000, 2.58937597e-001, 1.89431712e-001,
          -1.00712180e+000, 3.19115162e-001, 6.09513164e-001,
          2.11502444e-002, 4.28390682e-001, -9.83031318e-002,
          -9.49305296e-002, -2.91512966e-001, -5.71647435e-002,
          3.09300363e-001, 1.48918986e-001, -5.25387824e-001,
          -1.02775827e-001 ]
      - [ -9.57197130e-001, -2.39552331e+000, 1.95398939e+000,
          1.36335826e+000, -4.17621911e-001, -3.03674847e-001,
          -5.86576641e-001, 8.27083662e-002, -5.03598332e-001,
          -2.90939778e-001, 5.26799619e-001, 8.56544733e-001,
          -3.66656065e-001, 2.19881505e-001, -1.05598845e-001,
          5.38182497e-001, -5.21415532e-001, -4.34193820e-001,
          4.60797966e-001, -2.03925923e-001, -3.22672039e-001,
          -6.98754191e-002, 2.82264978e-001, -1.46391109e-001,
          -1.69937178e-001 ]
      - [ 8.30063403e-001, -1.43737984e+000, 1.47341251e+000,
          1.10883641e+000, 1.16492771e-002, -3.99941981e-001,
          -1.23531437e+000, 6.43754363e-001, -7.46573925e-001,
          7.24039376e-001, 7.69118965e-001, 1.70998260e-001,
          1.41021594e-001, 3.10571462e-001, -2.56461233e-001,
          1.01686511e-002, -1.26959234e-001, -1.76495299e-001,
          3.69786143e-001, -3.46204519e-001, 3.78089361e-002,
          -2.08926618e-001, 2.14389816e-001, 1.81703523e-001,
          2.93050632e-002 ]
      - [ -9.93084848e-001, -1.70082259e+000, 2.53186774e+000,
          9.05741990e-001, -4.89426643e-001, -4.49176282e-001,
          -6.02175415e-001, -1.30324299e-002, -3.98192585e-001,
          -2.60046721e-002, 3.71545374e-001, 1.63810089e-001,
          -2.42137998e-001, 1.23910375e-001, -5.17631806e-002,
          2.97683030e-001, -4.59817380e-001, -1.16989188e-001,
          2.77664036e-001, 2.69149542e-002, -1.79882064e-001,
          -1.41241983e-001, 2.55873322e-001, -1.68081343e-001,
          1.36606336e-001 ]
      - [ -1.49439052e-001, -1.74085438e+000, 1.04384279e+000,
          1.85685730e+000, -5.97172141e-001, 9.17266846e-001,
          -4.74315941e-001, 3.76300395e-001, -7.93525338e-001,
          1.61318675e-001, -1.88025963e-002, 2.51330048e-001,
          -2.96391070e-001, 5.25104403e-001, 1.55475065e-001,
          1.13877840e-001, -1.59647316e-001, 1.83458641e-001,
          3.67351115e-001, -1.18206136e-001, -1.95233375e-001,
          -7.57006258e-002, 1.92137423e-003, 1.40466238e-003,
          -3.32784578e-002 ]
      - [ 2.35273051e+000, 1.26294112e+000, 1.07100986e-001,
          -2.83946842e-001, -1.48699716e-001, -1.01181448e+000,
          -9.90620852e-001, 1.33702445e+000, -1.41302276e+000,
          2.19775796e+000, 8.10594976e-001, -8.17658380e-002,
          4.02719975e-001, -4.86634225e-001, -7.99349487e-001,
          1.84997544e-001, 8.98529112e-001, -1.22082502e-001,
          -6.60543382e-001, -4.12777871e-001, 9.45134342e-001,
          2.53497303e-001, 1.48806065e-001, 8.98363814e-002,
          3.42956960e-001 ]
      - [ -3.95359904e-001, 1.16883612e+000, 2.43981457e+000,
          -3.47315121e+000, -2.17507672e+000, -1.53405145e-001,
          -1.26209056e+000, 6.89077139e-001, 7.65984774e-001,
          1.55857742e+000, -1.87537268e-001, -2.59907007e+000,
          -5.21852493e-001, -8.06716859e-001, -1.34459257e-001,
          1.05677009e+000, -6.55459939e-003, 1.99553624e-001,
          -9.84163880e-001, 3.36634964e-001, -1.30863726e-001,
          3.96128654e-001, 2.62419134e-001, 5.35440028e-001,
          4.84377384e-001 ]
      - [ 1.69833136e+000, 9.63495314e-001, -1.21109033e+000,
          2.10834527e+000, -8.45158756e-001, 2.68231559e+000,
          8.44062150e-001, 1.59180558e+000, -1.29959524e+000,
          1.85863817e+000, -1.91922569e+000, -1.95919478e+000,
          4.70848829e-001, -5.14689863e-001, 1.22165549e+000,
          7.11811006e-001, 6.07118666e-001, 2.60365933e-001,
          -5.79162575e-002, 1.85314167e+000, 5.81498146e-001,
          4.17467326e-001, 6.51593506e-001, -3.29162419e-001,
          -5.10678768e-001 ]
      - [ -2.14870286e+000, -1.78133994e-001, 9.37180698e-001,
          -9.91383076e-001, -8.63612652e-001, 3.51454258e-001,
          8.02783430e-001, -6.77088380e-001, 1.37904739e+000,
          -1.49347615e+000, -1.09786034e+000, -7.84657478e-001,
          -8.18685591e-001, -1.23849430e-003, 1.00257206e+000,
          2.61438280e-001, -1.06237566e+000, -8.66960585e-002,
          1.60705641e-001, 6.95856452e-001, -5.82518399e-001,
          5.67077063e-002, -1.27552927e-001, 2.69119233e-001,
          1.68664455e-001 ]
      - [ -1.12626624e+000, -7.68582046e-001, -8.12644303e-001,
          1.46708298e+000, -5.43341696e-001, 2.33814311e+000,
          1.34801030e+000, -4.63982999e-001, 8.30376744e-002,
          -1.06497383e+000, -1.36790490e+000, -1.98113561e-001,
          -6.54225230e-001, 4.10349131e-001, 9.15066540e-001,
          2.29317889e-001, -5.20291448e-001, 2.68838167e-001,
          -9.26940739e-002, 6.05991364e-001, -7.62819588e-001,
          2.42931217e-001, -7.84161910e-002, -2.75441945e-001,
          -3.63300592e-001 ]
      - [ 7.90406466e-001, -3.10252935e-001, -1.72330821e+000,
          2.78660369e+000, 1.62124746e-002, 1.81283152e+000,
          4.54698026e-001, 1.11995792e+000, -1.28478408e+000,
          1.41297594e-001, -8.24790001e-001, 2.33520582e-001,
          2.53045946e-001, -4.08049896e-002, 1.18996143e+000,
          2.04827972e-002, 3.87930453e-001, 2.90227354e-001,
          4.87946756e-002, 7.88975209e-002, 1.34701863e-001,
          -2.44835094e-001, 1.80432335e-001, -2.62288064e-001,
          -2.20593959e-002 ]
   decision_functions:
      -
         sv_count: 1
         rho: -4.5702427267054766e+000
         alpha: [ 1. ]
         index: [ 0 ]
      -
         sv_count: 1
         rho: -4.5297286031382464e+000
         alpha: [ 1. ]
         index: [ 1 ]
      -
         sv_count: 1
         rho: -6.2014377033716670e+000
         alpha: [ 1. ]
         index: [ 2 ]
      -
         sv_count: 1
         rho: -2.6728566384712404e-001
         alpha: [ 1. ]
         index: [ 3 ]
      -
         sv_count: 1
         rho: -4.1943918612383762e+000
         alpha: [ 1. ]
         index: [ 4 ]
      -
         sv_count: 1
         rho: -2.4630747825214003e+000
         alpha: [ 1. ]
         index: [ 5 ]
      -
         sv_count: 1
         rho: -5.3238276674581222e+000
         alpha: [ 1. ]
         index: [ 6 ]
      -
         sv_count: 1
         rho: -4.0433449241597685e+000
         alpha: [ 1. ]
         index: [ 7 ]
      -
         sv_count: 1
         rho: -4.0817425146723402e-001
         alpha: [ 1. ]
         index: [ 8 ]
      -
         sv_count: 1
         rho: -1.5581636045104177e+000
         alpha: [ 1. ]
         index: [ 9 ]
      -
         sv_count: 1
         rho: -4.3410621801271203e+000
         alpha: [ 1. ]
         index: [ 10 ]
      -
         sv_count: 1
         rho: -2.8216214930277550e+000
         alpha: [ 1. ]
         index: [ 11 ]
      -
         sv_count: 1
         rho: -4.3722053691930682e+000
         alpha: [ 1. ]
         index: [ 12 ]
      -
         sv_count: 1
         rho: -2.0898225875224599e+000
         alpha: [ 1. ]
         index: [ 13 ]
      -
         sv_count: 1
         rho: -3.4788911766869424e+000
         alpha: [ 1. ]
         index: [ 14 ]
      -
         sv_count: 1
         rho: -3.9301340117590549e+000
         alpha: [ 1. ]
         index: [ 15 ]
      -
         sv_count: 1
         rho: 7.2246772918548155e-002
         alpha: [ 1. ]
         index: [ 16 ]
      -
         sv_count: 1
         rho: 1.9124304824890981e+000
         alpha: [ 1. ]
         index: [ 17 ]
      -
         sv_count: 1
         rho: 3.0213942511048897e+000
         alpha: [ 1. ]
         index: [ 18 ]
      -
         sv_count: 1
         rho: 2.7208898178281831e+000
         alpha: [ 1. ]
         index: [ 19 ]
      -
         sv_count: 1
         rho: 3.2114878891452343e+000
         alpha: [ 1. ]
         index: [ 20 ]
      -
         sv_count: 1
         rho: -1.1201668599859495e-001
         alpha: [ 1. ]
         index: [ 21 ]
      -
         sv_count: 1
         rho: -3.7519865921516604e-001
         alpha: [ 1. ]
         index: [ 22 ]
      -
         sv_count: 1
         rho: 3.4147508349490230e+000
         alpha: [ 1. ]
         index: [ 23 ]
      -
         sv_count: 1
         rho: 2.3988051497499785e+000
         alpha: [ 1. ]
         index: [ 24 ]
      -
         sv_count: 1
         rho: 1.1121870278445043e+000
         alpha: [ 1. ]
         index: [ 25 ]
      -
         sv_count: 1
         rho: -2.7919756957705411e-001
         alpha: [ 1. ]
         index: [ 26 ]
      -
         sv_count: 1
         rho: -7.9737703225605006e-001
         alpha: [ 1. ]
         index: [ 27 ]
      -
         sv_count: 1
         rho: 1.7590226898495340e+000
         alpha: [ 1. ]
         index: [ 28 ]
      -
         sv_count: 1
         rho: -6.4958920541994136e-001
         alpha: [ 1. ]
         index: [ 29 ]
      -
         sv_count: 1
         rho: 8.8679004450355059e-001
         alpha: [ 1. ]
         index: [ 30 ]
      -
         sv_count: 1
         rho: 1.6593015876940040e+000
         alpha: [ 1. ]
         index: [ 31 ]
      -
         sv_count: 1
         rho: 1.9629557762243117e+000
         alpha: [ 1. ]
         index: [ 32 ]
      -
         sv_count: 1
         rho: 4.8723514017637557e+000
         alpha: [ 1. ]
         index: [ 33 ]
      -
         sv_count: 1
         rho: 1.0845105568991442e+000
         alpha: [ 1. ]
         index: [ 34 ]
      -
         sv_count: 1
         rho: 5.1596749127406083e-001
         alpha: [ 1. ]
         index: [ 35 ]
      -
         sv_count: 1
         rho: -1.2511191316374410e+000
         alpha: [ 1. ]
         index: [ 36 ]
      -
         sv_count: 1
         rho: 3.6830483827713385e+000
         alpha: [ 1. ]
         index: [ 37 ]
      -
         sv_count: 1
         rho: 1.7831608719950554e+000
         alpha: [ 1. ]
         index: [ 38 ]
      -
         sv_count: 1
         rho: 1.3609228839823984e+000
         alpha: [ 1. ]
         index: [ 39 ]
      -
         sv_count: 1
         rho: -7.3892769016268356e-001
         alpha: [ 1. ]
         index: [ 40 ]
      -
         sv_count: 1
         rho: -4.6097157058908395e-001
         alpha: [ 1. ]
         index: [ 41 ]
      -
         sv_count: 1
         rho: 1.4756382434116666e+000
         alpha: [ 1. ]
         index: [ 42 ]
      -
         sv_count: 1
         rho: -4.3101010336053341e-001
         alpha: [ 1. ]
         index: [ 43 ]
      -
         sv_count: 1
         rho: 7.0581949104344810e-001
         alpha: [ 1. ]
         index: [ 44 ]
      -
         sv_count: 1
         rho: 4.2452855613246898e+000
         alpha: [ 1. ]
         index: [ 45 ]
      -
         sv_count: 1
         rho: 1.1869924163942283e+000
         alpha: [ 1. ]
         index: [ 46 ]
      -
         sv_count: 1
         rho: 1.3013196129006770e+000
         alpha: [ 1. ]
         index: [ 47 ]
      -
         sv_count: 1
         rho: -1.7958291579308414e+000
         alpha: [ 1. ]
         index: [ 48 ]
      -
         sv_count: 1
         rho: -3.1754560802425758e+000
         alpha: [ 1. ]
         index: [ 49 ]
      -
         sv_count: 1
         rho: 1.9627114386834310e+000
         alpha: [ 1. ]
         index: [ 50 ]
      -
         sv_count: 1
         rho: 2.9181255154073980e+000
         alpha: [ 1. ]
         index: [ 51 ]
      -
         sv_count: 1
         rho: 1.3697306503879241e+000
         alpha: [ 1. ]
         index: [ 52 ]
      -
         sv_count: 1
         rho: -1.9525610664670776e+000
         alpha: [ 1. ]
         index: [ 53 ]
      -
         sv_count: 1
         rho: -2.4250992955048711e+000
         alpha: [ 1. ]
         index: [ 54 ]
      -
         sv_count: 1
         rho: 2.0865827551703191e+000
         alpha: [ 1. ]
         index: [ 55 ]
      -
         sv_count: 1
         rho: -2.2099707033618401e+000
         alpha: [ 1. ]
         index: [ 56 ]
      -
         sv_count: 1
         rho: 2.1679851076587582e+000
         alpha: [ 1. ]
         index: [ 57 ]
      -
         sv_count: 1
         rho: -2.5789386638289198e+000
         alpha: [ 1. ]
         index: [ 58 ]
      -
         sv_count: 1
         rho: -9.1175145609323172e-001
         alpha: [ 1. ]
         index: [ 59 ]
      -
         sv_count: 1
         rho: -2.7162943562722686e+000
         alpha: [ 1. ]
         index: [ 60 ]
      -
         sv_count: 1
         rho: -2.5700869208672943e+000
         alpha: [ 1. ]
         index: [ 61 ]
      -
         sv_count: 1
         rho: -8.4880451579160809e-001
         alpha: [ 1. ]
         index: [ 62 ]
      -
         sv_count: 1
         rho: -1.9126447941977129e+000
         alpha: [ 1. ]
         index: [ 63 ]
      -
         sv_count: 1
         rho: -2.3441941807698892e+000
         alpha: [ 1. ]
         index: [ 64 ]
      -
         sv_count: 1
         rho: -2.7730360774680989e+000
         alpha: [ 1. ]
         index: [ 65 ]
      -
         sv_count: 1
         rho: -3.7309316932780479e+000
         alpha: [ 1. ]
         index: [ 66 ]
      -
         sv_count: 1
         rho: -2.1930331980956606e+000
         alpha: [ 1. ]
         index: [ 67 ]
      -
         sv_count: 1
         rho: -3.2733646965906078e+000
         alpha: [ 1. ]
         index: [ 68 ]
      -
         sv_count: 1
         rho: -1.6331084652626362e+000
         alpha: [ 1. ]
         index: [ 69 ]
      -
         sv_count: 1
         rho: 4.7030919559017009e-001
         alpha: [ 1. ]
         index: [ 70 ]
      -
         sv_count: 1
         rho: -3.0092899058969804e+000
         alpha: [ 1. ]
         index: [ 71 ]
      -
         sv_count: 1
         rho: -2.4202819198667771e+000
         alpha: [ 1. ]
         index: [ 72 ]
      -
         sv_count: 1
         rho: 1.5958823235133031e+000
         alpha: [ 1. ]
         index: [ 73 ]
      -
         sv_count: 1
         rho: 6.6851655816770117e-001
         alpha: [ 1. ]
         index: [ 74 ]
      -
         sv_count: 1
         rho: 2.9561300301158300e-001
         alpha: [ 1. ]
         index: [ 75 ]
      -
         sv_count: 1
         rho: -8.9669772212192533e-001
         alpha: [ 1. ]
         index: [ 76 ]
      -
         sv_count: 1
         rho: -1.9996888262570389e+000
         alpha: [ 1. ]
         index: [ 77 ]
      -
         sv_count: 1
         rho: 6.4512779942884757e-001
         alpha: [ 1. ]
         index: [ 78 ]
      -
         sv_count: 1
         rho: -2.7404965214312216e+000
         alpha: [ 1. ]
         index: [ 79 ]
      -
         sv_count: 1
         rho: 1.2192214917411300e-001
         alpha: [ 1. ]
         index: [ 80 ]
      -
         sv_count: 1
         rho: -3.1739531765563265e+000
         alpha: [ 1. ]
         index: [ 81 ]
      -
         sv_count: 1
         rho: -2.1036094597798671e+000
         alpha: [ 1. ]
         index: [ 82 ]
      -
         sv_count: 1
         rho: 7.1151118427637983e-001
         alpha: [ 1. ]
         index: [ 83 ]
      -
         sv_count: 1
         rho: 7.0700432301870930e-001
         alpha: [ 1. ]
         index: [ 84 ]
      -
         sv_count: 1
         rho: -1.1654460496255141e+000
         alpha: [ 1. ]
         index: [ 85 ]
      -
         sv_count: 1
         rho: -1.9847802149101057e+000
         alpha: [ 1. ]
         index: [ 86 ]
      -
         sv_count: 1
         rho: -3.0985635989903684e+000
         alpha: [ 1. ]
         index: [ 87 ]
      -
         sv_count: 1
         rho: -5.2459210844767301e-001
         alpha: [ 1. ]
         index: [ 88 ]
      -
         sv_count: 1
         rho: -2.9263950667438250e+000
         alpha: [ 1. ]
         index: [ 89 ]
      -
         sv_count: 1
         rho: -1.2775085504284873e+000
         alpha: [ 1. ]
         index: [ 90 ]
      -
         sv_count: 1
         rho: -4.6105739380548655e-001
         alpha: [ 1. ]
         index: [ 91 ]
      -
         sv_count: 1
         rho: 3.2325698237473355e+000
         alpha: [ 1. ]
         index: [ 92 ]
      -
         sv_count: 1
         rho: 2.6993501133331472e+000
         alpha: [ 1. ]
         index: [ 93 ]
      -
         sv_count: 1
         rho: 1.1038843144445503e+000
         alpha: [ 1. ]
         index: [ 94 ]
      -
         sv_count: 1
         rho: -5.8517079506274217e-001
         alpha: [ 1. ]
         index: [ 95 ]
      -
         sv_count: 1
         rho: -7.3341766367342209e-001
         alpha: [ 1. ]
         index: [ 96 ]
      -
         sv_count: 1
         rho: 1.9954371617915068e+000
         alpha: [ 1. ]
         index: [ 97 ]
      -
         sv_count: 1
         rho: -1.2316373795663860e-001
         alpha: [ 1. ]
         index: [ 98 ]
      -
         sv_count: 1
         rho: 1.5547454035034549e+000
         alpha: [ 1. ]
         index: [ 99 ]
      -
         sv_count: 1
         rho: 2.7409364979754351e+000
         alpha: [ 1. ]
         index: [ 100 ]
      -
         sv_count: 1
         rho: 1.4613025020888752e+000
         alpha: [ 1. ]
         index: [ 101 ]
      -
         sv_count: 1
         rho: 8.3032446845826147e-001
         alpha: [ 1. ]
         index: [ 102 ]
      -
         sv_count: 1
         rho: -5.5845377236534832e-001
         alpha: [ 1. ]
         index: [ 103 ]
      -
         sv_count: 1
         rho: 2.1773854825492117e-001
         alpha: [ 1. ]
         index: [ 104 ]
      -
         sv_count: 1
         rho: 2.1229392079608931e+000
         alpha: [ 1. ]
         index: [ 105 ]
      -
         sv_count: 1
         rho: -7.8617099634216936e-001
         alpha: [ 1. ]
         index: [ 106 ]
      -
         sv_count: 1
         rho: 1.5177577158663036e+000
         alpha: [ 1. ]
         index: [ 107 ]
      -
         sv_count: 1
         rho: -3.0111832530757826e-001
         alpha: [ 1. ]
         index: [ 108 ]
      -
         sv_count: 1
         rho: -1.4432658949431909e+000
         alpha: [ 1. ]
         index: [ 109 ]
      -
         sv_count: 1
         rho: -1.8356934748866824e+000
         alpha: [ 1. ]
         index: [ 110 ]
      -
         sv_count: 1
         rho: -3.1153875989056692e+000
         alpha: [ 1. ]
         index: [ 111 ]
      -
         sv_count: 1
         rho: -9.1677799458252340e-001
         alpha: [ 1. ]
         index: [ 112 ]
      -
         sv_count: 1
         rho: -3.8429036165442714e+000
         alpha: [ 1. ]
         index: [ 113 ]
      -
         sv_count: 1
         rho: -1.1649167050531493e+000
         alpha: [ 1. ]
         index: [ 114 ]
      -
         sv_count: 1
         rho: -3.2127268172627860e-001
         alpha: [ 1. ]
         index: [ 115 ]
      -
         sv_count: 1
         rho: -1.7708481303917869e+000
         alpha: [ 1. ]
         index: [ 116 ]
      -
         sv_count: 1
         rho: -2.5860612594571104e+000
         alpha: [ 1. ]
         index: [ 117 ]
      -
         sv_count: 1
         rho: -1.1235363394495477e+000
         alpha: [ 1. ]
         index: [ 118 ]
      -
         sv_count: 1
         rho: -3.4042389855596547e+000
         alpha: [ 1. ]
         index: [ 119 ]
      -
         sv_count: 1
         rho: -1.2579073658879039e+000
         alpha: [ 1. ]
         index: [ 120 ]
      -
         sv_count: 1
         rho: -1.7694152946992256e-001
         alpha: [ 1. ]
         index: [ 121 ]
      -
         sv_count: 1
         rho: -7.9800392176095780e-001
         alpha: [ 1. ]
         index: [ 122 ]
      -
         sv_count: 1
         rho: 1.2881605798717348e+000
         alpha: [ 1. ]
         index: [ 123 ]
      -
         sv_count: 1
         rho: -7.1430264866683968e-001
         alpha: [ 1. ]
         index: [ 124 ]
      -
         sv_count: 1
         rho: 1.0690319355580673e+000
         alpha: [ 1. ]
         index: [ 125 ]
      -
         sv_count: 1
         rho: -2.3591338864243208e-001
         alpha: [ 1. ]
         index: [ 126 ]
      -
         sv_count: 1
         rho: 1.4289169634587691e+000
         alpha: [ 1. ]
         index: [ 127 ]
      -
         sv_count: 1
         rho: -4.5794087778080632e-002
         alpha: [ 1. ]
         index: [ 128 ]
      -
         sv_count: 1
         rho: 9.4051271314681084e-001
         alpha: [ 1. ]
         index: [ 129 ]
      -
         sv_count: 1
         rho: 2.2837567097580167e+000
         alpha: [ 1. ]
         index: [ 130 ]
      -
         sv_count: 1
         rho: -1.8492103101170618e+000
         alpha: [ 1. ]
         index: [ 131 ]
      -
         sv_count: 1
         rho: 4.6972908509013349e+000
         alpha: [ 1. ]
         index: [ 132 ]
      -
         sv_count: 1
         rho: -2.3832390000836177e+000
         alpha: [ 1. ]
         index: [ 133 ]
      -
         sv_count: 1
         rho: -5.8116527409825980e-001
         alpha: [ 1. ]
         index: [ 134 ]
      -
         sv_count: 1
         rho: 2.5052860757397908e+000
         alpha: [ 1. ]
         index: [ 135 ]
