%YAML:1.0
opencv_ml_svm:
   format: 3
   svmType: C_SVC
   kernel:
      type: LINEAR
   C: 2.5000000000000000e-001
   term_criteria: { epsilon:1.1920928955078125e-007, iterations:1000 }
   var_count: 25
   class_count: 17
   class_labels: !!opencv-matrix
      rows: 17
      cols: 1
      dt: i
      data: [ 0, 1, 2, 3, 4, 5, 6, 7, 8, 9, 10, 11, 12, 13, 14, 15, 16 ]
   sv_total: 136
   support_vectors:
      - [ 2.97899866e+000, 4.98499125e-001, 1.52041107e-001,
          1.49861991e+000, 5.48738018e-002, 2.52028131e+000,
          8.28233719e-001, 1.22967672e+000, -1.59597158e+000,
          5.33407152e-001, -5.23957312e-001, -6.60792232e-001,
          -4.94421661e-001, -2.74377465e-001, -9.80533361e-002,
          4.09840755e-002, -4.45344821e-002, -3.63764375e-001,
          6.39885783e-001, -3.40667278e-001, 2.93544978e-001,
          -1.05934046e-001, -2.38877032e-002, 4.44864452e-001,
          -1.48260489e-001 ]
      - [ 2.15189481e+000, -6.84471369e-001, -1.13560736e+000,
          1.62554324e+000, 2.37689018e+000, -7.47913778e-001,
          -5.04212797e-001, -2.64354050e-002, -1.82001400e+000,
          6.26905859e-002, 5.12791157e-001, -2.28170305e-001,
          2.84675837e-001, -6.36241019e-001, 9.45190191e-002,
          -1.09003127e-001, 7.60420412e-002, 3.21689576e-001,
          3.29335481e-001, 1.50466144e-001, 5.52188158e-001,
          -3.09771210e-001, -9.95356739e-002, 1.89267650e-001,
          -1.73894316e-001 ]
      - [ 3.85119438e+000, 4.85479563e-001, -2.04292202e+000,
          1.08507288e+000, 8.44101369e-001, 7.69018292e-001,
          -7.31054402e-004, 6.73594832e-001, -1.52948809e+000,
          1.58794209e-001, 5.01843393e-001, -3.33207250e-001,
          -6.66615516e-002, 1.22744054e-001, -8.42084270e-003,
          6.22509897e-001, -4.90347832e-001, -5.08567214e-001,
          -1.21130936e-001, -6.55355752e-001, -4.77190726e-002,
          3.49107504e-001, 1.64688498e-001, -1.51529314e-003,
          1.07853664e-002 ]
      - [ 2.79313135e+000, 1.00877738e+000, 8.39462161e-001,
          -4.94650662e-001, 1.88432410e-001, 8.87083858e-002,
          1.09189667e-001, -8.45666975e-002, -1.02558005e+000,
          4.32846755e-001, 9.61627346e-003, 4.85588145e-003,
          -2.44480491e-001, 4.93144952e-002, -3.64980966e-001,
          -2.29867771e-001, -3.26006949e-001, -9.19074640e-002,
          -1.66366711e-001, -1.24388160e-002, 9.51735675e-002,
          -1.97641224e-001, -4.11838852e-002, 9.08327326e-002,
          1.30137980e-001 ]
      - [ 1.94889593e+000, 5.70931315e-001, -1.61942482e+000,
          2.93133283e+000, 2.68466902e+000, 2.23710036e+000,
          9.72634792e-001, -1.27918017e+000, -1.50264704e+000,
          3.15650135e-001, 1.27084374e+000, -7.50495255e-001,
          -8.41438890e-001, 1.58469290e-001, -8.85030985e-001,
          -8.74607980e-001, 2.96953440e-001, -8.33287239e-001,
          4.68005806e-001, -9.58606780e-001, 4.63115364e-001,
          -3.93323392e-001, -6.37468517e-001, -5.63781679e-001,
          5.44271469e-001 ]
      - [ -5.39832234e-001, 2.15165687e+000, 1.29467738e+000,
          1.64446664e+000, -3.97901267e-001, -1.12679458e+000,
          3.61912042e-001, 1.96286297e+000, -2.23707771e+000,
          1.70505553e-001, 1.20621753e+000, -4.37751889e-001,
          -7.85409868e-001, 2.83126920e-001, -3.34192008e-001,
          1.93906218e-001, 3.63365233e-001, -3.28066051e-001,
          5.29625833e-001, 1.60459295e-001, -7.35391006e-002,
          1.38904512e-001, -1.09613352e-001, 1.21157348e-001,
          1.39039755e-001 ]
      - [ 3.29264307e+000, 2.76318192e-001, -7.63606191e-001,
          2.16189504e+000, 1.62967420e+000, -4.20760304e-001,
          1.03358209e+000, 1.42339408e+000, -1.34142077e+000,
          1.40072572e+000, 6.09783888e-001, -9.55706686e-002,
          -4.05769013e-002, -8.65125716e-001, 6.69975042e-001,
          -9.34946358e-001, -1.74566433e-001, -5.26099026e-001,
          -1.71141133e-001, 1.34716123e-001, 3.93827975e-001,
          2.32503667e-001, -4.72427726e-001, 4.04377103e-001,
          -4.39739704e-001 ]
      - [ 2.28016162e+000, -1.81428277e+000, 5.96426487e-001,
          1.83430552e+000, -3.76280159e-001, -3.78346354e-001,
          6.85107887e-001, -3.26744556e-001, -1.95047724e+000,
          -3.95035982e-001, -9.22682405e-001, 1.90712169e-001,
          -5.60363352e-001, -1.11082800e-001, 2.33268932e-001,
          9.69518647e-002, 8.75775293e-002, 3.70953232e-001,
          -2.64606606e-002, -2.88168460e-001, 4.92987603e-001,
          -1.39197960e-001, 3.76745462e-002, 7.01025277e-002,
          2.60185242e-001 ]
      - [ 8.30934942e-001, 2.53995347e+000, -2.07513291e-002,
          2.31966734e+000, 1.42811978e+000, 2.42807746e+000,
          -3.76037359e-001, -6.69084668e-001, -2.16531777e+000,
          -1.04269433e+000, -4.44184422e-001, -5.65722525e-001,
          -1.83815777e-001, -2.98645675e-001, -1.02494292e-001,
          -4.41249192e-001, -6.26787096e-002, 1.04333013e-001,
          -2.47320533e-001, 9.01798189e-001, -6.66031122e-001,
          2.00470299e-001, -3.38740110e-001, -1.75874680e-001,
          -5.58804870e-001 ]
      - [ 2.10126805e+000, 2.72750449e+000, 1.15059400e+000,
          -3.36431444e-001, -1.40631542e-001, 8.71388137e-001,
          -4.11969811e-001, -1.45903856e-001, -2.03936434e+000,
          2.43484184e-001, -2.56260008e-001, 3.82526278e-001,
          5.34679770e-001, 2.94170707e-001, 2.09466070e-001,
          -4.81043346e-002, -3.15331846e-001, -1.62892323e-002,
          1.45383731e-001, 2.56912023e-001, 8.24571326e-002,
          1.76164269e-001, -2.37134714e-002, 4.97113205e-002,
          3.05070877e-001 ]
      - [ 2.67665696e+000, 1.83567381e+000, -7.80891478e-001,
          2.22364736e+000, 8.95845830e-001, 1.45744932e+000,
          2.01181221e+000, 1.97204125e+000, -1.82137597e+000,
          7.37619102e-001, 8.20294619e-002, 1.76906073e+000,
          1.70448348e-002, 1.33744538e-001, 1.79557979e-001,
          6.39331639e-001, -1.36236489e-001, -5.45301676e-001,
          3.04453105e-001, 6.12356424e-001, -2.34896019e-001,
          3.54131967e-001, -3.59415919e-001, 2.22166955e-001,
          -6.69967353e-001 ]
      - [ 3.24492908e+000, -1.09382439e+000, -1.22625530e+000,
          1.15869868e+000, -9.20752525e-001, 4.90066141e-001,
          6.54786170e-001, 8.61399248e-002, -1.00199437e+000,
          -2.53663808e-001, 1.39928257e+000, 2.12273985e-001,
          -5.81894279e-001, -3.09370518e-001, 3.01742584e-001,
          -6.42335534e-001, -9.91008759e-001, -3.01835030e-001,
          3.65329385e-001, -7.58941829e-001, -2.08982036e-001,
          1.40107078e-002, 4.96101111e-001, -2.90038049e-001,
          1.39935464e-001 ]
      - [ 3.02100992e+000, 6.53375983e-001, -1.06113303e+000,
          1.08770180e+000, -1.60495728e-001, -1.68786317e-001,
          3.13683212e-001, 3.89848560e-001, -4.26702976e-001,
          -5.50823689e-001, -3.08769681e-002, -1.43873081e-001,
          4.05797660e-001, 3.63101177e-002, -3.61088991e-001,
          -1.60246804e-001, -2.71498770e-001, -3.86765674e-002,
          1.10784732e-001, 4.93766665e-002, -9.79943797e-002,
          -3.27382416e-001, -1.01886550e-002, 1.52396306e-001,
          3.20535898e-002 ]
      - [ 5.14331818e-001, 1.68450618e+000, 9.02540982e-001,
          2.62433410e+000, 3.10279161e-001, 7.03951120e-001,
          -8.30404162e-002, 8.37180793e-001, -1.28549099e+000,
          -2.77673602e-001, 5.58814555e-002, -4.40271825e-001,
          -1.19859374e+000, -2.14075729e-001, 5.01308441e-002,
          -2.05765814e-001, -9.22577232e-002, -1.12441726e-001,
          -4.91340458e-001, 2.73202330e-001, -6.03945076e-001,
          1.28371879e-001, 2.34898493e-001, 2.41603091e-001,
          1.43996313e-001 ]
      - [ 2.43451238e+000, 1.54451311e+000, -2.41380900e-001,
          1.41654456e+000, -2.31759474e-001, 2.92950183e-001,
          9.11289528e-002, 1.11815445e-001, -5.93551397e-001,
          2.82552004e-001, 1.51227936e-001, -2.54541069e-001,
          4.00470138e-001, 1.02374017e-001, -1.83216214e-001,
          -9.55549777e-002, -3.10091116e-002, -4.52983938e-002,
          5.96612785e-003, 1.70247853e-001, 8.15213076e-004,
          -7.64934942e-002, 2.69495964e-001, -4.51669060e-002,
          2.85377093e-002 ]
      - [ 3.44499946e+000, -1.08215712e-001, -1.51577103e+000,
          1.36313486e+000, 4.61675793e-001, -4.76152040e-002,
          -1.68128654e-001, 1.91560292e+000, -7.83402026e-001,
          -3.98787051e-001, -5.87552726e-001, 4.82283682e-001,
          -1.13517798e-001, -5.31094849e-001, -1.61007734e-003,
          2.51042068e-001, -5.99248409e-001, -3.15257788e-001,
          2.60799587e-001, -4.34291810e-001, -3.81220162e-001,
          -2.36342683e-001, -2.27220967e-001, 1.46296591e-001,
          -2.25282475e-001 ]
      - [ 4.68740016e-001, -1.06029689e+000, -1.51261079e+000,
          7.67822802e-001, 2.74607635e+000, -2.38730693e+000,
          -9.96548295e-001, -5.16494930e-001, -1.36358678e+000,
          -3.25909615e-001, 9.43376839e-001, 4.59552556e-001,
          4.81643260e-001, -8.09647679e-001, 2.42670644e-002,
          -6.20157383e-002, -3.21919262e-001, 6.64810538e-001,
          8.75423625e-002, 6.09580338e-001, 1.80438817e-001,
          -3.70578289e-001, 2.33051211e-001, -2.88333744e-001,
          7.34608769e-002 ]
      - [ 2.49308205e+000, 2.35067680e-001, -3.48120952e+000,
          -8.47521305e-001, 1.98830867e+000, -2.49381995e+000,
          -1.74238181e+000, -7.06256181e-002, -8.51807058e-001,
          -2.27574989e-001, 1.56579661e+000, 1.36056259e-001,
          -9.81590375e-002, -2.68986762e-001, -1.00017154e+000,
          2.95760423e-001, -7.79519379e-001, -1.10333733e-001,
          -5.86240768e-001, -5.01277089e-001, -1.16597831e+000,
          1.34582853e+000, 1.86401874e-001, -1.00146019e+000,
          8.68748128e-001 ]
      - [ 2.06357908e+000, 1.38156211e+000, 3.49391192e-001,
          -2.18742824e+000, 1.65944681e-001, -1.80198395e+000,
          -5.00886738e-001, -9.65311527e-001, -1.06884146e+000,
          4.03732568e-001, 8.42437029e-001, 6.24804974e-001,
          -8.09123278e-001, 3.56931329e-001, -4.76635605e-001,
          4.35957946e-002, 1.02197006e-001, 2.80546486e-001,
          -3.13480854e-001, 1.08634688e-001, -5.96049011e-001,
          -1.84331521e-001, 6.97562322e-002, 8.47690739e-003,
          -6.50875270e-002 ]
      - [ -2.43621135e+000, -9.76632163e-003, -1.26404238e+000,
          9.12540019e-001, 3.05171394e+000, -1.29881239e+000,
          -2.90722046e-002, -2.98143268e+000, 8.07052970e-001,
          -9.43027735e-001, 2.74390697e+000, 9.62987661e-001,
          -1.71166509e-001, 3.46612424e-001, -7.23641336e-001,
          3.83774489e-002, -7.71520436e-001, -3.39791954e-001,
          -5.32151103e-001, -5.13654649e-001, -8.29761922e-002,
          -8.13922808e-002, -3.33368808e-001, -1.44726813e+000,
          4.16686326e-001 ]
      - [ -1.91728187e+000, 1.89685202e+000, 8.03677619e-001,
          3.09177667e-001, -3.58425289e-001, -2.16824937e+000,
          -9.02433395e-002, 9.45175350e-001, -6.39325619e-001,
          -3.73579890e-001, 1.13981783e+000, 2.82725841e-001,
          -2.15221107e-001, 4.50960957e-002, -2.47761197e-002,
          -1.15981467e-001, 3.44891012e-001, 1.89103439e-001,
          -2.15474069e-001, 1.79782391e-001, 2.19154298e-001,
          6.45155683e-002, 2.66058445e-002, -2.46117115e-001,
          1.41418889e-001 ]
      - [ 7.39753917e-002, -4.49054480e-001, -1.78534138e+000,
          6.83744848e-001, 2.70809984e+000, -4.25291824e+000,
          2.36874208e-001, 8.59247506e-001, -4.60502386e-001,
          1.38317227e+000, 1.38413870e+000, 5.28019190e-001,
          4.67652857e-001, -1.43520749e+000, 2.61522681e-002,
          -1.10017073e+000, -3.85900795e-001, 5.62907517e-001,
          -1.43820488e+000, 7.41432011e-001, -1.45674884e-001,
          3.72201502e-001, -1.31864458e-001, -1.24864531e+000,
          4.26954702e-002 ]
      - [ -2.03998670e-001, -2.82969141e+000, 5.03215373e-001,
          1.77691495e+000, -2.15598986e-001, -2.44749308e+000,
          6.82693243e-001, -1.38055742e+000, -1.41110039e+000,
          -6.52288496e-001, -5.46285272e-001, 6.38697922e-001,
          -1.82411596e-001, 4.12558019e-002, 3.32045913e-001,
          6.28410757e-001, 5.25925569e-002, 7.77831972e-001,
          -4.26452160e-001, -2.32183427e-001, 2.04675689e-001,
          -2.19320476e-001, -7.65719041e-002, -3.19478601e-001,
          3.41752321e-002 ]
      - [ -2.60653210e+000, 2.64337087e+000, 4.45096456e-002,
          8.74808133e-001, 1.39655042e+000, 3.43114704e-001,
          -1.25752461e+000, -1.78370202e+000, -5.98677456e-001,
          -2.03935599e+000, 3.47573936e-001, 1.23294449e+000,
          -1.77881256e-001, -2.35594258e-001, -2.35911638e-001,
          -5.35967410e-001, -5.28759181e-001, 3.47527236e-001,
          -9.89951313e-001, 1.20650709e+000, -2.99828202e-001,
          6.00444317e-001, 4.34042700e-002, -8.77479464e-002,
          -2.65836924e-001 ]
      - [ -2.32014135e-001, 3.47700620e+000, 9.69757617e-001,
          -1.84781420e+000, -4.69222367e-001, -1.32810807e+000,
          -1.08933020e+000, -7.77284026e-001, -1.54415166e+000,
          -1.30981535e-001, 2.35013425e-001, 1.69633639e+000,
          4.12603706e-001, 2.33428240e-001, 2.77055025e-001,
          8.67549926e-002, 1.83487013e-002, 2.23439246e-001,
          8.06818530e-003, 4.04304832e-001, 1.42642204e-002,
          1.69584990e-001, 1.86397925e-001, 1.28136903e-001,
          4.65371847e-001 ]
      - [ -1.92989182e+000, 1.61326301e+000, -5.99157393e-001,
          -2.27039322e-001, 1.74853182e+000, -3.03409386e+000,
          1.57366657e+000, 1.03413749e+000, 1.27962935e+000,
          5.57242483e-002, 1.20884609e+000, 3.79866648e+000,
          1.25650394e+000, -2.23853827e-001, -7.36055374e-001,
          1.63570333e+000, -3.62818152e-001, 4.13281113e-001,
          -1.81720114e+000, 1.18132508e+000, -8.26384008e-001,
          9.63675141e-001, -1.52439058e-001, -4.78299290e-001,
          -5.05296350e-001 ]
      - [ 1.61271107e+000, -2.20363545e+000, -1.43596733e+000,
          6.53839469e-001, -2.12044644e+000, -1.41694665e+000,
          1.13492988e-001, -1.17304683e+000, -5.94822280e-002,
          -9.69215095e-001, 2.71128225e+000, 1.39493752e+000,
          -5.24004817e-001, -1.30021846e+000, 8.25661600e-001,
          -1.27950266e-001, -6.08026385e-001, 3.92725408e-001,
          -3.94530565e-001, -2.60670371e-002, 1.55754149e-001,
          6.14985287e-001, 2.47005761e-001, -1.36911714e+000,
          -1.17436506e-001 ]
      - [ 2.62590122e+000, 1.12094676e+000, -2.31607342e+000,
          7.95397699e-001, -2.80245662e-001, -2.09358335e+000,
          -8.01478922e-001, -1.26041248e-001, 3.55754495e-002,
          -8.64595175e-001, 4.68425483e-001, 4.92561489e-001,
          1.66248590e-001, -3.31952542e-001, -9.13269520e-001,
          -3.07301342e-001, -7.60636404e-002, 2.70751536e-001,
          -1.26520157e-001, 2.27115110e-001, -1.89697310e-001,
          1.05786793e-001, -2.31147334e-002, 9.18521434e-002,
          6.06801324e-002 ]
      - [ -1.56221962e+000, 2.52901196e+000, 6.85444415e-001,
          2.32854819e+000, 1.46431416e-001, -5.63592851e-001,
          -5.45635641e-001, 3.71641040e-001, -5.93877912e-001,
          -5.44214070e-001, 4.44130182e-001, 1.89199418e-001,
          -1.90351653e+000, 1.30298296e-002, -1.04394346e-001,
          -3.03345829e-001, -6.18078530e-001, 6.04966521e-001,
          -1.06106079e+000, 2.40658715e-001, -6.31975755e-002,
          3.27621609e-001, 5.91459513e-001, -1.74816027e-001,
          1.73547015e-001 ]
      - [ 1.63611174e+000, 2.92931175e+000, -1.21957648e+000,
          1.53183353e+000, -4.35136467e-001, -1.41554976e+000,
          -6.46162510e-001, -6.82354808e-001, -4.51424420e-001,
          6.92840874e-001, 6.50897801e-001, 3.63784879e-001,
          8.41253474e-002, -6.16536215e-002, -3.23842376e-001,
          -4.41374630e-002, -2.28460416e-001, 7.69697577e-002,
          -2.28585377e-001, 2.83260018e-001, -1.24692500e-001,
          -1.13603860e-001, 2.84566760e-001, -1.82327956e-001,
          4.05405499e-002 ]
      - [ 1.92108262e+000, -4.99923229e-001, -2.68056417e+000,
          -3.55862156e-002, 1.57794684e-001, -2.63756728e+000,
          -2.14844108e+000, 1.93424881e+000, 5.02606034e-001,
          -8.40939522e-001, -6.61285758e-001, 1.21573400e+000,
          -4.30159420e-001, -1.63165331e+000, -6.16698503e-001,
          -7.71289542e-002, -5.15058113e-004, 9.01600659e-001,
          -3.52313221e-001, 2.01530512e-002, -6.31371379e-001,
          -3.34251791e-001, -5.68273105e-003, -6.55381382e-002,
          -2.05650225e-001 ]
      - [ 1.09973729e+000, 2.15978765e+000, 5.76243363e-002,
          -2.50627542e+000, -3.15733695e+000, 2.41489983e+000,
          1.89099118e-001, 7.72711456e-001, 2.10766649e+000,
          -1.30713388e-001, -1.78937152e-001, -6.72665417e-001,
          -1.04086661e+000, 1.19323647e+000, -3.78860712e-001,
          3.13003600e-001, -3.04786772e-001, -1.11617196e+000,
          -9.17070091e-001, -1.52117479e+000, -1.18726778e+000,
          1.22972810e+000, -1.89767256e-001, -1.99545518e-001,
          6.43302381e-001 ]
      - [ 1.26087248e+000, 1.47354078e+000, 1.41880488e+000,
          -1.85473835e+000, -1.30057204e+000, -1.26292473e-002,
          3.59050214e-001, -4.12777662e-001, 4.27977622e-001,
          5.17488539e-001, -1.25845969e-001, 3.88193429e-002,
          -5.23462713e-001, 7.24147379e-001, -2.55996048e-001,
          -3.19438308e-001, 5.18307686e-002, -1.82696551e-001,
          -4.47341591e-001, -2.38595933e-001, -4.57594618e-002,
          -8.08306858e-002, -2.19709635e-001, 6.58358261e-002,
          -2.64875740e-002 ]
      - [ -2.14391327e+000, 1.61743808e+000, 8.71688366e-001,
          -1.01551831e+000, -2.35557365e+000, 2.77189350e+000,
          1.46731496e+000, -7.34860837e-001, 1.96964920e+000,
          3.76087129e-002, 2.33578816e-001, -2.85979748e-001,
          -9.79021668e-001, 1.35346079e+000, -8.33884895e-001,
          -1.95043206e-001, -1.59408763e-001, -1.04445803e+000,
          -6.47387385e-001, -1.23622882e+000, -4.82832074e-001,
          3.39291871e-001, -4.84774083e-001, -6.40360117e-001,
          3.47660094e-001 ]
      - [ -1.54406881e+000, 1.63584888e+000, 1.44953811e+000,
          -2.00836524e-001, -1.61293888e+000, -3.64569724e-001,
          5.94387233e-001, 1.09799111e+000, 3.35571356e-002,
          6.68306425e-002, 4.44620162e-001, -1.60422355e-001,
          -5.45461416e-001, 4.59473759e-001, -8.04883838e-002,
          -1.91902707e-003, -1.78422667e-002, -3.19824040e-001,
          -1.62586391e-001, -1.75822020e-001, 1.65428370e-002,
          2.44159460e-001, 3.98668796e-002, -2.40522958e-002,
          9.84156728e-002 ]
      - [ -3.33088487e-001, 1.64648998e+000, 2.23243427e+000,
          -1.32952130e+000, -3.28432584e+000, 8.40630710e-001,
          2.08385921e+000, 2.16327119e+000, 2.20312858e+000,
          1.75400078e+000, -2.16725901e-001, -2.98510641e-001,
          -2.34382063e-001, 3.27930272e-001, 3.02564085e-001,
          -1.08102608e+000, -5.56306481e-001, -8.01485062e-001,
          -1.64082646e+000, -3.90681952e-001, -7.66871631e-001,
          9.88670528e-001, -6.39522552e-001, -4.52605784e-001,
          -2.31656656e-001 ]
      - [ -8.21697786e-002, -1.57327688e+000, 1.94166625e+000,
          7.10349262e-001, -2.98230958e+000, -5.43764867e-002,
          9.66793954e-001, -3.16072166e-001, -1.96903840e-001,
          1.59391969e-001, -1.42148399e+000, -7.28344545e-002,
          1.56448469e-001, 9.30537045e-001, -1.24778589e-002,
          6.52012289e-001, 7.65320063e-002, -1.05444029e-001,
          -7.30286658e-001, -2.78901339e-001, -2.61527389e-001,
          1.95013076e-001, -3.95612031e-001, 4.15193439e-002,
          1.44032001e-001 ]
      - [ -2.00777197e+000, 2.51670098e+000, 1.00421453e+000,
          -4.24284995e-001, -1.92756772e+000, 2.02403235e+000,
          4.01813656e-001, -7.17992127e-001, 6.54766440e-001,
          -7.58218467e-001, -6.41904593e-001, 9.35943276e-002,
          -3.62204701e-001, 2.18894258e-001, -2.05314621e-001,
          -3.49350870e-001, -1.49529576e-001, -2.58725047e-001,
          -6.33930564e-001, -2.07732677e-001, -5.94238162e-001,
          4.29302096e-001, -2.34099880e-001, -1.08066440e-001,
          -1.23320237e-001 ]
      - [ 1.54531049e-002, 2.47501159e+000, 1.28172231e+000,
          -1.70978260e+000, -1.40712929e+000, 4.38084751e-001,
          1.75010934e-001, -3.60789359e-001, 3.18294056e-002,
          7.74799511e-002, -3.96224618e-001, 4.84382272e-001,
          -8.52634013e-003, 5.82550764e-001, 3.48246783e-001,
          -1.32939085e-001, -2.34512478e-001, -1.05336986e-001,
          -2.63624519e-001, -6.16324484e-001, 3.07159219e-002,
          2.24392503e-001, -1.81492031e-001, -2.79316586e-002,
          1.38375774e-001 ]
      - [ -1.48470807e+000, 1.70707476e+000, 1.36646736e+000,
          -1.28568494e+000, -2.65804815e+000, 1.36543202e+000,
          1.75049531e+000, 8.98763001e-001, 1.89638543e+000,
          2.23478317e-001, -3.72928619e-001, 9.88569498e-001,
          -2.41356492e-001, 7.12494612e-001, -2.15146869e-001,
          5.27168334e-001, -4.07975316e-002, -5.56176841e-001,
          -6.98431849e-001, -1.64416596e-001, -5.19221067e-001,
          6.89829946e-001, -2.11313471e-001, -7.09219500e-002,
          -2.76725262e-001 ]
      - [ 5.96744716e-001, -5.40512145e-001, 1.91680357e-001,
          -7.47641742e-001, -3.76663280e+000, 1.28092337e+000,
          6.27953112e-001, -7.22184554e-002, 9.35132802e-001,
          -1.74636453e-001, 1.03162897e+000, 4.47331876e-001,
          -6.92943275e-001, 1.72519192e-001, 3.25046927e-001,
          -6.94896281e-001, -5.92714310e-001, -5.42991102e-001,
          -2.60324925e-001, -8.19552124e-001, -6.75180674e-001,
          3.21435273e-001, 1.60071373e-001, -3.84406745e-001,
          5.20613380e-002 ]
      - [ 2.39235353e+000, 1.87198496e+000, 5.28913327e-002,
          -3.62096250e-001, -2.85670042e+000, 3.71146739e-001,
          2.23931402e-001, 2.61011004e-001, 1.38256788e+000,
          -8.53188634e-001, -3.41998070e-001, 9.65968370e-002,
          -7.64862299e-002, 2.05308169e-001, -6.05030119e-001,
          -8.41697931e-001, -2.14228719e-001, -3.82990390e-002,
          -3.31348449e-001, -6.88818693e-001, -2.66512424e-001,
          -9.12746862e-002, -4.97983582e-002, 1.93952098e-001,
          7.99231529e-002 ]
      - [ -1.25288129e+000, 1.88179982e+000, 1.41846085e+000,
          1.02130783e+000, -1.68211806e+000, 7.35220969e-001,
          3.17870915e-001, 5.58464944e-001, 3.32082570e-001,
          -7.44286254e-002, -2.55842209e-001, -3.25904727e-001,
          -1.08054674e+000, 5.31380177e-001, -9.83798876e-002,
          -2.42218614e-001, -2.26606041e-001, -3.82209629e-001,
          -7.69353092e-001, -1.08866677e-001, -3.56915832e-001,
          4.91427600e-001, 1.41497687e-001, 3.18761393e-002,
          2.18246505e-001 ]
      - [ 1.24874973e+000, 2.58845663e+000, 9.33082998e-001,
          4.24477369e-001, -2.06868577e+000, 6.21583521e-001,
          1.43538252e-001, -2.81397671e-001, 8.79553556e-001,
          5.47767878e-001, -1.09304667e-001, -1.41693041e-001,
          2.30264869e-002, 3.88599157e-001, -1.89330280e-001,
          -5.55104792e-001, -1.48892090e-001, -1.41729206e-001,
          -4.04977381e-001, -6.41630471e-001, -1.12604953e-001,
          5.50279543e-002, 3.84131134e-001, -2.48855189e-003,
          5.99781983e-002 ]
      - [ 1.16952503e+000, 4.53727633e-001, -1.52742848e-001,
          -1.28464162e+000, -3.31408787e+000, 4.54292804e-001,
          -1.02904685e-001, 2.25636625e+000, 2.34149194e+000,
          -7.81906426e-001, -1.54355657e+000, 6.59681797e-001,
          -1.17105067e+000, -4.97791231e-001, 5.88983372e-002,
          -3.23408604e-001, -3.10210943e-001, -3.32720399e-001,
          -2.28598878e-001, -7.64865696e-001, -7.79038310e-001,
          2.76569799e-002, -4.93926138e-001, 8.58384222e-002,
          -5.69569357e-002 ]
      - [ 1.42205131e+000, 1.68503356e+000, 2.45823026e+000,
          -1.96393955e+000, -8.58642995e-001, -1.05557799e+000,
          8.87293458e-001, -1.24071074e+000, -4.61707294e-001,
          5.89655995e-001, 1.75085187e-001, 9.14584756e-001,
          -8.65071952e-001, 6.44745946e-001, 1.78085893e-001,
          -4.96848226e-001, -7.01404316e-003, 1.70257464e-001,
          -3.91072035e-001, 2.31452763e-001, 2.54730552e-001,
          -1.23730779e+000, -8.84066708e-003, 1.88772336e-001,
          -4.82992291e-001 ]
      - [ -4.67788410e+000, -1.78266950e-002, 2.13515568e+000,
          1.16330671e+000, 1.58231401e+000, 9.29505527e-001,
          1.63883317e+000, -2.66246843e+000, 1.07983470e+000,
          -1.46976486e-001, 8.59774470e-001, -9.73122045e-002,
          -2.49566704e-001, 3.84601712e-001, -2.78404742e-001,
          -1.44640326e+000, 6.10548317e-001, -3.72989401e-002,
          1.08555555e-001, -1.55977279e-001, 9.26407754e-001,
          -1.27501047e+000, -7.94633687e-001, -4.02160853e-001,
          -2.72988454e-002 ]
      - [ -2.19945049e+000, 1.21266365e+000, 1.82784808e+000,
          4.27193731e-001, -8.14882934e-001, -1.21519339e+000,
          5.95731974e-001, 9.27643418e-001, -5.67360342e-001,
          -2.46882644e-002, 6.40584648e-001, -1.72393382e-001,
          -2.42825568e-001, 1.30945832e-001, -3.91745754e-003,
          -2.45635018e-001, 2.10594207e-001, 3.65654454e-002,
          2.23668050e-002, 2.53036618e-001, 1.90006331e-001,
          -1.21991433e-001, 3.06700151e-002, 2.74295621e-002,
          -1.61291845e-002 ]
      - [ -2.32535768e+000, -5.85661054e-001, 2.05840349e+000,
          1.38326609e+000, 5.13691247e-001, -2.43973041e+000,
          2.71130824e+000, 1.71003604e+000, 3.52347851e-001,
          2.42293739e+000, 6.80139884e-002, 4.62093025e-001,
          8.49026561e-001, -9.57189441e-001, 1.46862280e+000,
          -2.00118995e+000, -1.26391828e-001, 3.95047277e-001,
          -1.35554504e+000, 1.18240476e+000, 4.07493889e-001,
          -5.07140160e-001, -7.73208857e-001, -1.21696129e-001,
          -1.12853479e+000 ]
      - [ -8.36459577e-001, -2.11450744e+000, 1.72523367e+000,
          1.57688797e+000, -1.02197349e+000, -1.19214904e+000,
          9.21544552e-001, -9.56797123e-001, -7.88218260e-001,
          -1.62137210e-001, -1.01877904e+000, 1.00533754e-001,
          1.47730723e-001, 2.08786026e-001, 6.37385428e-001,
          2.97508687e-001, 1.80650994e-001, 5.57945728e-001,
          -3.48723531e-001, 2.76999295e-001, 2.37754121e-001,
          -5.41241765e-001, -2.37793311e-001, 3.07121933e-001,
          -5.30714840e-002 ]
      - [ -3.41200209e+000, 1.80326807e+000, 2.04372501e+000,
          8.83879006e-001, 2.34254584e-001, 1.37207913e+000,
          2.57927060e-001, -1.48819864e+000, -2.98754901e-001,
          -1.10821235e+000, -6.97073996e-001, 3.20410252e-001,
          -2.16710791e-002, -5.34704030e-001, 1.55875459e-001,
          -9.54414904e-001, -1.02498606e-001, 6.16539538e-001,
          -3.87803823e-001, 7.81338692e-001, -5.37690781e-002,
          -4.34055954e-001, -1.87644348e-001, 2.55467653e-001,
          -7.11487532e-001 ]
      - [ -7.44199514e-001, 3.16933370e+000, 2.32426167e+000,
          -1.53150427e+000, -1.01450765e+000, -4.13074553e-001,
          6.15183532e-001, -1.07507932e+000, -1.13234580e+000,
          1.71969026e-001, -3.99989963e-001, 1.39063227e+000,
          4.55939204e-001, 4.22502682e-002, 8.62656295e-001,
          -2.77344257e-001, -1.75131515e-001, 4.50062066e-001,
          -7.47713633e-003, 1.08951852e-001, 3.24521154e-001,
          -5.86154521e-001, 3.34099159e-002, 1.43298898e-002,
          -1.23927101e-001 ]
      - [ -3.77789426e+000, 1.20688546e+000, 2.95074344e+000,
          -4.14644666e-002, -8.29598665e-001, 6.09847941e-002,
          2.95675898e+000, 9.89340127e-001, 8.63617897e-001,
          6.08761549e-001, -5.59094012e-001, 2.42270875e+000,
          8.40515971e-001, -2.85359412e-001, 2.81754553e-001,
          3.63677442e-001, 5.68477094e-001, 7.91092455e-001,
          -2.75714606e-001, 1.43974924e+000, 3.28833193e-001,
          -2.34044567e-001, -7.17006683e-001, 3.86452168e-001,
          -1.14276791e+000 ]
      - [ -6.80787042e-002, -2.80939603e+000, 1.13874221e+000,
          6.15232646e-001, -3.36552930e+000, -2.44672686e-001,
          8.33012283e-001, -9.84039664e-001, 3.73513639e-001,
          -7.10283279e-001, 2.00935555e+000, 6.62080824e-001,
          -3.85071188e-001, -1.01278603e+000, 1.17046833e+000,
          -2.17003608e+000, -5.22444963e-001, 2.54895270e-001,
          7.23492026e-001, -2.19182789e-001, -1.93914920e-001,
          -6.77797735e-001, 1.98523477e-001, -2.04607949e-001,
          -6.14326559e-002 ]
      - [ 3.60323381e+000, 1.74624503e+000, -4.73961204e-001,
          2.15943909e+000, -2.42313313e+000, -1.62170553e+000,
          5.85583270e-001, -1.61833167e-001, 7.96596646e-001,
          -1.23867714e+000, -4.78460073e-001, 8.75262976e-001,
          8.55993748e-001, -8.70836616e-001, -1.04664588e+000,
          -1.62000573e+000, 1.52013406e-001, 7.40444005e-001,
          4.80923921e-001, 4.69076455e-001, 4.24655229e-001,
          -9.08948660e-001, -1.58679873e-001, 5.86560190e-001,
          -4.33488697e-001 ]
      - [ -1.85731184e+000, 1.43879664e+000, 1.95043004e+000,
          1.98627090e+000, -6.18424237e-001, 2.85626084e-001,
          2.01732218e-001, 4.62517500e-001, -1.94011137e-001,
          -2.28701696e-001, -5.63547798e-002, -2.70101517e-001,
          -1.29690564e+000, 6.38741404e-002, 1.55187547e-001,
          -4.42393929e-001, -2.37295315e-001, 3.75731349e-001,
          -7.75024712e-001, 4.04116333e-001, -8.38053972e-002,
          -3.91678885e-002, 5.02518296e-001, 8.04057494e-002,
          -9.73465592e-002 ]
      - [ 1.28955412e+000, 3.17052984e+000, 1.08529627e+000,
          2.40130210e+000, -1.50462782e+000, -4.40555841e-001,
          3.14671159e-001, -8.95515978e-001, 3.28893036e-001,
          9.79805768e-001, 8.11893940e-002, 2.85112351e-001,
          4.74695414e-001, -2.98037231e-001, 7.50089958e-002,
          -6.12975955e-001, 3.06026768e-002, 2.89464533e-001,
          9.97159556e-002, 2.93820769e-001, 2.26785779e-001,
          -5.51140010e-001, 5.38027585e-001, -8.90410319e-002,
          -2.20040888e-001 ]
      - [ 9.30011392e-001, -1.27506411e+000, -5.42978011e-002,
          1.42971635e+000, -1.88460565e+000, -2.21382022e+000,
          -9.79301929e-001, 3.89909673e+000, 1.59588373e+000,
          -1.42523837e+000, -2.80281758e+000, 2.27981901e+000,
          -5.49646974e-001, -2.62864280e+000, 4.30470318e-001,
          -1.14572585e+000, -3.18150610e-001, 6.12029076e-001,
          5.54844499e-001, 5.83228946e-001, -4.40809697e-001,
          -1.89298344e+000, -1.27120328e+000, 7.52387166e-001,
          -6.88404679e-001 ]
      - [ -2.46047926e+000, -8.72204065e-001, -1.11474204e+000,
          1.70436299e+000, 9.48224723e-001, 9.37772334e-001,
          3.69013309e-001, -8.77860188e-002, 8.69927108e-001,
          -6.01252317e-001, 4.45554018e-001, -1.10795513e-001,
          3.45365137e-001, -1.43114805e-001, 1.73436597e-001,
          3.01909596e-001, -3.06605548e-001, -1.63887635e-001,
          8.97626728e-002, -2.47487172e-001, 1.93657577e-001,
          6.73686340e-002, -9.80920717e-002, -3.23819935e-001,
          1.60895333e-001 ]
      - [ -2.37260818e+000, 5.42629659e-001, -5.62220328e-002,
          1.44722188e+000, -4.88379449e-001, -4.33344096e-001,
          1.28045186e-001, 1.09042823e+000, -1.77732959e-001,
          -1.89758182e-001, 2.99361438e-001, -3.10200065e-001,
          -9.97652709e-002, -3.96135300e-002, 2.01615453e-001,
          -4.11508372e-003, 2.02344075e-001, -4.88985553e-002,
          1.79550461e-002, 7.99168125e-002, 2.58413792e-001,
          2.45189713e-003, 1.01169974e-001, -1.28793642e-001,
          -5.82062528e-002 ]
      - [ -1.99629307e+000, -1.38941503e+000, -1.55921280e+000,
          2.08612013e+000, 7.83248544e-001, 7.26235360e-002,
          5.89336812e-001, 1.37725902e+000, 5.13269484e-001,
          1.87603846e-001, -8.56943056e-002, -5.14605165e-001,
          7.45420456e-001, -8.77172053e-001, 3.75122488e-001,
          -1.53625771e-001, 7.21158683e-002, -1.52619352e-004,
          -1.83858112e-001, 1.38961032e-001, 1.30393595e-001,
          1.86653867e-001, 1.74809754e-001, -1.71932206e-001,
          -6.84361607e-002 ]
      - [ -1.39388824e+000, -2.12971354e+000, -2.04748049e-001,
          2.01271033e+000, -3.50055367e-001, -1.54762387e-001,
          4.16063964e-001, 3.51757146e-002, -1.24239348e-001,
          -3.64324987e-001, -4.58844662e-001, -1.53107747e-001,
          3.10334802e-001, -9.61993337e-002, 3.97795588e-001,
          4.50157136e-001, 1.05415292e-001, 1.16732471e-001,
          -5.78153431e-002, -6.07290082e-002, 6.79632351e-002,
          2.16852218e-001, 5.07711694e-002, -1.07065469e-001,
          1.50684103e-001 ]
      - [ -2.60448670e+000, 2.72519141e-001, -6.62548542e-001,
          1.64648461e+000, 4.95862931e-001, 1.27440000e+000,
          -2.96322078e-001, 1.10410981e-001, 3.90210390e-001,
          -8.99002552e-001, -3.54160726e-001, 3.11819732e-001,
          3.45505536e-001, -9.22926292e-002, 2.52899587e-001,
          -4.95921215e-003, -4.14943159e-001, 1.19579047e-001,
          -1.87948674e-001, 1.87949449e-001, 1.38215974e-001,
          3.41055363e-001, 1.09932765e-001, -5.96891902e-002,
          -2.04458162e-001 ]
      - [ -3.07060742e+000, 2.95206285e+000, -4.89144087e-001,
          5.83941162e-001, -6.09456122e-001, 7.53507793e-001,
          -3.70334119e-001, 9.96916771e-001, -6.37185872e-001,
          -8.23718667e-001, -1.12502861e+000, 1.89601040e+000,
          1.51972294e+000, -1.38544530e-001, 8.70144129e-001,
          8.28352928e-001, 3.25686991e-001, 1.14216119e-001,
          5.04987299e-001, 3.07667434e-001, 7.45221555e-001,
          4.90373373e-001, 2.15124398e-001, -1.82176568e-002,
          3.34260017e-001 ]
      - [ -2.56129360e+000, -6.20184839e-001, -1.16357911e+000,
          1.59870315e+000, 1.73529014e-001, 7.60200024e-001,
          1.01349103e+000, 1.25436068e+000, 9.71586645e-001,
          -3.62804919e-001, -3.78569543e-001, 3.92521471e-001,
          6.99144363e-001, -4.25977886e-001, 1.31555080e-001,
          7.27986753e-001, 1.47820145e-001, 6.47694319e-002,
          -5.99906668e-002, 2.08438024e-001, 1.64719924e-001,
          4.52319294e-001, -1.30004942e-001, -1.30064785e-001,
          -2.59284765e-001 ]
      - [ -1.08546293e+000, -2.21744990e+000, -1.03765845e+000,
          1.78427827e+000, -1.14408112e+000, 6.36639595e-001,
          2.43471265e-001, 3.35837692e-001, 6.38415515e-001,
          -6.70966208e-001, 7.19199717e-001, 4.38478217e-002,
          1.88288897e-001, -7.15284586e-001, 7.15796828e-001,
          1.28801391e-001, -1.24812745e-001, -1.41067669e-001,
          2.13790715e-001, 1.45781823e-002, 1.18571311e-001,
          4.74322975e-001, 1.23177797e-001, -5.69001555e-001,
          2.77537759e-002 ]
      - [ 4.84592915e-001, -2.69813687e-001, -2.55281496e+000,
          2.68369341e+000, -1.15363888e-001, -2.13511005e-001,
          -7.26011574e-001, 5.57859123e-001, 9.58978057e-001,
          -7.30027795e-001, -4.45185810e-001, 6.89381957e-002,
          7.75265634e-001, -1.05425763e+000, -4.51533616e-001,
          -1.37948170e-001, 3.54739428e-001, 4.19369012e-001,
          4.50168580e-001, -2.15274319e-001, 2.55406052e-001,
          7.72828281e-001, 4.11461405e-002, 3.21290821e-001,
          -2.89899170e-001 ]
      - [ -1.83095133e+000, 4.42427009e-001, -7.63620958e-002,
          2.23097563e+000, 1.18727170e-001, 5.56569338e-001,
          -1.16541848e-001, 8.19490135e-001, 2.38044024e-001,
          -2.44387105e-001, -1.27196208e-001, -3.09881687e-001,
          -4.82811362e-001, -4.94780466e-002, 1.14819564e-001,
          -1.31341875e-001, -3.33320707e-001, 1.18837215e-001,
          -3.43590498e-001, 9.00286883e-002, 1.10925689e-001,
          2.93309748e-001, 3.20475727e-001, -1.89595565e-001,
          8.35861415e-002 ]
      - [ -1.69482723e-001, 1.51803100e+000, -1.51572621e+000,
          3.28013730e+000, 1.55555531e-001, 1.67230107e-002,
          -5.41456878e-001, 3.06973636e-001, 5.30695617e-001,
          1.15528536e+000, -2.12139055e-001, 2.52826363e-002,
          4.86671716e-001, -5.44987738e-001, 1.59954131e-001,
          9.58784670e-002, 5.00962920e-002, 1.63091674e-001,
          3.84698659e-002, -8.34711120e-002, 1.37906060e-001,
          1.73573837e-001, -4.20912467e-002, 3.78271937e-002,
          -9.35935676e-002 ]
      - [ -7.92242765e-001, -1.29585719e+000, -1.96379471e+000,
          1.71224856e+000, -2.19144672e-003, 5.78631833e-002,
          -8.58948410e-001, 1.74935246e+000, 9.27622020e-001,
          -8.69193792e-001, -9.46349978e-001, -1.58508256e-001,
          2.88894266e-001, -1.00882268e+000, 5.14177158e-002,
          1.64181158e-001, 3.44876826e-001, 2.73968011e-001,
          1.62516341e-001, -1.32788464e-001, -1.55377276e-002,
          1.73043892e-001, -5.56725711e-002, -1.23309670e-002,
          -8.98936670e-003 ]
      - [ -1.07544339e+000, 1.78777814e+000, 1.60417914e+000,
          6.58163503e-002, -1.43204772e+000, -1.88225806e+000,
          2.92968787e-002, 2.24444246e+000, -1.03499103e+000,
          -5.34700789e-002, 5.29862404e-001, -5.04671410e-002,
          -3.75162929e-001, -4.54726741e-002, -8.19400977e-003,
          2.60302961e-001, 7.76333362e-002, 1.00434773e-001,
          2.73716807e-001, 3.46369505e-001, 2.32583404e-001,
          1.63924545e-001, 3.15533817e-001, 2.60391235e-001,
          -1.16400249e-001 ]
      - [ 2.60395837e+000, -5.49419582e-001, 2.24203259e-001,
          1.66125931e-002, -3.63240898e-001, -3.36018801e+000,
          2.35013321e-001, 3.37687325e+000, -6.18687570e-001,
          2.00630641e+000, -7.30900228e-001, 9.80857015e-002,
          1.03193820e+000, -1.40338397e+000, 1.33627939e+000,
          -7.58114219e-001, -1.80337608e-001, 2.33031079e-001,
          -1.06910646e+000, 1.22183812e+000, -1.29996642e-001,
          9.33553159e-001, -1.20889097e-001, 6.37059331e-001,
          -8.38430882e-001 ]
      - [ 1.39320564e+000, -2.23279262e+000, 1.18111134e+000,
          8.71778131e-001, -1.48187470e+000, -1.69788718e+000,
          3.83662581e-001, 1.15641281e-001, -1.23814011e+000,
          -2.53254145e-001, -1.54271281e+000, -7.19419643e-002,
          -3.59640196e-002, 2.97469527e-001, 5.77701926e-001,
          5.52106261e-001, 4.87905383e-001, 8.77566397e-001,
          -3.59876394e-001, 2.30484307e-001, -1.14379220e-001,
          -5.36741829e-003, 1.86137199e-001, 2.36916497e-001,
          1.19626466e-002 ]
      - [ -1.07996774e+000, 3.04643512e+000, 1.12890935e+000,
          4.58977968e-001, -1.45335317e+000, 1.24780774e+000,
          -1.58558118e+000, 1.05123408e-002, -2.45428920e+000,
          -2.07940912e+000, -2.46048903e+000, 1.09623921e+000,
          2.91943878e-001, -1.55158412e+000, 4.49423075e-001,
          -8.20722282e-001, -6.07250810e-001, 1.03776693e+000,
          -3.64396691e-001, 2.28523779e+000, -1.36052883e+000,
          1.21550119e+000, 3.42081368e-001, 1.07362986e+000,
          -1.32334423e+000 ]
      - [ 1.06053805e+000, 2.48121691e+000, 1.37581420e+000,
          -1.88166463e+000, -1.63974071e+000, -5.91998458e-001,
          -7.74170458e-001, 3.41016889e-001, -1.66458786e+000,
          4.04055506e-001, -1.00891960e+000, 1.12879360e+000,
          5.82579672e-001, -6.75349981e-002, 4.94822115e-001,
          8.08950588e-002, -1.21694431e-001, 2.37946868e-001,
          3.14729959e-001, 2.35655695e-001, -1.01068586e-001,
          4.05640334e-001, 3.47248316e-001, 2.22277761e-001,
          2.38873996e-002 ]
      - [ 7.75537133e-001, 1.37004602e+000, 8.49049211e-001,
          -9.03800428e-001, -2.33613825e+000, -1.53218699e+000,
          1.28025711e+000, 4.02479744e+000, -2.00030714e-001,
          6.44017458e-001, -1.78043628e+000, 3.08286572e+000,
          1.05493927e+000, -4.32884932e-001, 5.33615649e-001,
          1.98299825e+000, 2.34749243e-001, 5.25196373e-001,
          -6.07550085e-001, 1.50939238e+000, -4.17902142e-001,
          1.30799830e+000, 2.84660369e-001, 8.16753626e-001,
          -1.63399506e+000 ]
      - [ 2.81174374e+000, -1.71698213e+000, -8.89031172e-001,
          -5.22962034e-001, -3.27596116e+000, -6.54333532e-001,
          -5.18725693e-001, 8.98313642e-001, -2.60272861e-001,
          -4.79625046e-001, 8.97262394e-001, 5.97862244e-001,
          -4.86806631e-001, -8.14296901e-001, 1.22476995e+000,
          -5.66210985e-001, -5.91932654e-001, 3.59571815e-001,
          1.58025667e-001, 1.25628084e-001, -4.66682613e-001,
          8.63413736e-002, 7.43728697e-001, 6.60720319e-002,
          -2.34654397e-001 ]
      - [ 3.30447459e+000, 5.86153209e-001, -1.13790298e+000,
          3.17546815e-001, -1.61377895e+000, -1.19500804e+000,
          -6.51570439e-001, 1.05541372e+000, -6.70854896e-002,
          -7.46914864e-001, -5.93055427e-001, 1.74434692e-001,
          4.67059910e-001, -4.40086395e-001, -3.78854543e-001,
          -3.65569234e-001, -2.62578100e-001, 2.03758582e-001,
          2.00824544e-001, 4.24492478e-001, -1.74112231e-001,
          -1.57606572e-001, 1.42278731e-001, 3.17791700e-001,
          -3.44936430e-001 ]
      - [ -3.17601532e-001, 1.99705303e+000, 1.59714389e+000,
          1.94057333e+000, -1.33405852e+000, -4.23015207e-001,
          -5.22184134e-001, 1.86016262e+000, -1.17165554e+000,
          -4.32334244e-001, -9.15535450e-001, -2.25237474e-001,
          -1.56696725e+000, -2.90370077e-001, 2.46465892e-001,
          -3.31382573e-001, -2.44689330e-001, 4.22370493e-001,
          -7.55981803e-001, 5.67136943e-001, -7.55092382e-001,
          8.08919609e-001, 1.00522459e+000, 5.22833228e-001,
          -2.63089035e-002 ]
      - [ 2.78972435e+000, 1.90851891e+000, -1.43562391e-001,
          1.08606136e+000, -1.71354473e+000, -7.80922234e-001,
          -7.66626000e-001, 5.85203290e-001, -4.46866542e-001,
          7.03680992e-001, -4.45879847e-001, -4.85177943e-003,
          5.18987834e-001, -1.82605356e-001, -1.48441181e-001,
          -1.95824534e-001, -4.43791524e-002, 6.90834373e-002,
          1.20982192e-001, 3.94130677e-001, -1.58360094e-001,
          3.40678692e-001, 5.48124373e-001, 6.80285972e-003,
          -3.10482562e-001 ]
      - [ 2.67051172e+000, -3.17293793e-001, -1.16066027e+000,
          -1.49505094e-001, -1.15093815e+000, -1.50047338e+000,
          -1.27914608e+000, 2.53735089e+000, 3.61124516e-001,
          -6.93850935e-001, -1.48941040e+000, 9.25320745e-001,
          -2.76767313e-001, -1.20039999e+000, 4.89215970e-001,
          1.54481158e-001, -3.12135369e-001, 2.28089049e-001,
          1.35450497e-001, 2.10594788e-001, -5.33792496e-001,
          -1.36068285e-001, -1.07974939e-001, 5.27496099e-001,
          -4.51697022e-001 ]
      - [ 2.25908303e+000, -2.07220650e+000, -1.74578977e+000,
          -5.29779792e-002, 1.32631183e+000, 9.90972340e-001,
          -3.62100974e-002, -1.05035186e+000, 8.37929547e-001,
          9.50458825e-001, -7.37613916e-001, 3.04190093e-003,
          8.46119046e-001, -2.76596040e-001, 3.60755801e-001,
          -2.88712651e-001, -4.51752841e-001, -8.12360644e-003,
          -2.90040612e-001, 8.27194750e-002, -3.80486310e-001,
          2.92711884e-001, -5.50591886e-001, 1.53622478e-001,
          -3.61768484e-001 ]
      - [ 1.47837281e+000, -2.27634621e+000, 1.10540107e-001,
          6.08951926e-001, 1.22482747e-001, 2.82128543e-001,
          3.62382591e-001, -1.22683251e+000, 3.30001079e-002,
          2.82353498e-002, -7.13951290e-001, -5.63027486e-002,
          2.04374596e-001, -1.43111125e-001, 1.73443243e-001,
          1.85958594e-001, -1.54146329e-001, 2.89213538e-001,
          -3.38281125e-001, -2.28864044e-001, -1.50488913e-001,
          -7.87801668e-002, 2.48153936e-002, 4.12126407e-002,
          1.58411175e-001 ]
      - [ 8.29135060e-001, -6.69053197e-001, -1.22757709e+000,
          -6.34529069e-002, 1.19961965e+000, 2.70207357e+000,
          -7.72953570e-001, -2.51184678e+000, 4.60746139e-001,
          -6.61856890e-001, -1.50693488e+000, 3.34642410e-001,
          4.31822330e-001, -2.82980919e-001, 1.36301622e-001,
          -5.76808870e-001, -3.98240119e-001, 1.46982238e-001,
          -5.71177423e-001, 5.65047741e-001, -6.28466606e-001,
          1.76719829e-001, -7.35627562e-002, -1.14797100e-001,
          -3.75868291e-001 ]
      - [ 2.15686131e+000, 4.05761778e-001, 1.90551132e-001,
          -2.04743290e+000, 5.51637471e-001, 1.65640688e+000,
          -8.05550873e-001, -1.89099586e+000, 1.00149520e-001,
          -1.50334224e-001, -1.13416791e+000, 1.09813321e+000,
          1.08892417e+000, 3.90971415e-002, 2.48892948e-001,
          1.90162078e-001, -3.66242617e-001, 6.17522039e-002,
          9.04325396e-002, 1.21753216e-001, -7.11129680e-002,
          4.00144696e-001, 8.96534249e-002, 2.66242661e-002,
          2.47763470e-001 ]
      - [ 1.80648148e+000, -1.51645184e+000, -1.72501528e+000,
          -9.14510250e-001, 9.87001657e-001, 1.94282949e+000,
          7.27160513e-001, -1.53874505e+000, 1.42025924e+000,
          1.33846611e-001, -1.16587806e+000, 1.53309608e+000,
          9.17552531e-001, -2.35070392e-001, 1.42388314e-001,
          5.41713655e-001, -5.34071922e-002, 1.27340734e-001,
          -1.68150440e-001, 1.82324782e-001, -3.13883543e-001,
          1.11460380e-001, -1.61899254e-001, 2.21802279e-001,
          -2.96240330e-001 ]
      - [ 1.71803856e+000, -1.78770697e+000, -1.07350075e+000,
          -2.23858893e-001, -3.29752117e-001, 8.69415164e-001,
          1.64510850e-002, -1.04498899e+000, 5.56944788e-001,
          -1.68085486e-001, 8.35361183e-002, 2.41167620e-001,
          6.47897422e-002, -3.08012694e-001, 1.52063042e-001,
          -9.63021591e-002, -5.24483502e-001, 1.11396559e-001,
          9.14565474e-002, -3.38163346e-001, -2.21549377e-001,
          -5.61831966e-002, 1.24072857e-001, -1.33391723e-001,
          3.84183638e-002 ]
      - [ 2.29520798e+000, -7.61177480e-001, -1.59119296e+000,
          2.24458929e-002, -4.73131016e-002, 4.09290701e-001,
          -1.84654623e-001, -7.12335408e-001, 6.17099404e-001,
          -6.15486264e-001, -5.80209136e-001, 3.68541956e-001,
          3.85183483e-001, -2.53528595e-001, -1.77175403e-001,
          -1.24934532e-001, -9.22507644e-002, 8.42818469e-002,
          1.43762559e-001, 1.01625234e-001, -2.37853110e-001,
          -1.45912215e-001, -6.11206852e-002, 1.84126824e-001,
          9.52224731e-002 ]
      - [ 1.22724009e+000, -6.51717782e-001, -8.42846751e-001,
          1.93800139e+000, 1.00345743e+000, 2.76909399e+000,
          -7.30367124e-001, -1.63278246e+000, -9.83750895e-002,
          -3.74169350e-001, -1.84186637e+000, -3.75552684e-001,
          -1.14115918e+000, -4.74200279e-001, 3.09615195e-001,
          -8.29093516e-001, -1.10697711e+000, -2.42735267e-001,
          -1.31623197e+000, 3.55245501e-001, -1.15102971e+000,
          6.66009367e-001, 3.48239094e-001, 2.70816356e-001,
          5.97589724e-002 ]
      - [ 2.82746267e+000, -1.85019579e-002, -1.21271574e+000,
          6.85733080e-001, -2.61780441e-001, 1.13847733e+000,
          -6.26236081e-001, -1.20556378e+000, 3.28276515e-001,
          4.46533322e-001, -5.93997359e-001, 3.18253249e-001,
          5.29551744e-001, -7.32221827e-002, -7.05510527e-002,
          -1.42459869e-001, -1.34265691e-001, -8.51904899e-002,
          1.21458814e-001, 1.41383156e-001, -3.44850272e-001,
          1.14029832e-001, 1.69359028e-001, -1.15877707e-002,
          4.66949819e-003 ]
      - [ 2.06039286e+000, -1.30455947e+000, -1.68472171e+000,
          -2.60114282e-001, 3.26685280e-001, 6.62858069e-001,
          -8.17750990e-001, -3.20709735e-001, 8.29734206e-001,
          -2.48203188e-001, -9.66837883e-001, 6.07201517e-001,
          1.52039111e-001, -5.93218803e-001, 3.73167954e-002,
          1.98412001e-001, -3.35865200e-001, 9.06020030e-002,
          4.83504906e-002, -3.89273204e-002, -2.75765985e-001,
          -1.93199873e-001, -2.03566134e-001, 1.20872319e-001,
          -6.96842298e-002 ]
      - [ 2.87878513e-001, -2.26732135e+000, 1.10355353e+000,
          1.27866542e+000, -2.00691509e+000, -3.75098825e-001,
          1.08165234e-001, -1.48278558e+000, -1.62425256e+000,
          -1.03474677e+000, -1.48361194e+000, -8.66470188e-002,
          -2.63506442e-001, 1.18313968e+000, 3.70431066e-001,
          1.20705009e+000, 1.07728802e-001, 3.34630609e-001,
          -6.80937469e-002, -4.03466493e-001, -2.59429067e-001,
          -1.81064248e-001, -5.64286560e-002, 3.80418450e-001,
          2.28695497e-001 ]
      - [ -1.94512701e+000, 2.24079275e+000, 4.45569843e-001,
          -4.09878511e-003, -3.15615296e-001, 2.42860842e+000,
          -6.46591067e-001, -1.92471218e+000, -4.24721837e-001,
          -2.20600510e+000, -7.52522528e-001, 5.07745981e-001,
          -4.73511279e-001, 2.84471475e-002, -6.18741333e-001,
          6.63428977e-002, -1.14331104e-001, 4.98229265e-001,
          1.00679763e-001, 2.25741908e-001, -3.58722687e-001,
          -3.99877541e-002, 6.04709864e-001, 2.33121976e-001,
          -3.12810391e-002 ]
      - [ 3.59067291e-001, 2.70639920e+000, 1.48727250e+000,
          -1.66051340e+000, -9.80447769e-001, 7.07842410e-001,
          -7.19058931e-001, -1.38144505e+000, -8.89533997e-001,
          -8.63626122e-001, -4.73142952e-001, 9.93647039e-001,
          8.27230699e-003, 4.48085189e-001, 1.79431979e-002,
          3.99750918e-001, -8.75717476e-002, 1.89653128e-001,
          4.70587581e-001, -2.66231954e-001, 3.19973469e-001,
          -9.76463258e-002, 2.81260520e-001, 1.36511534e-001,
          4.43334520e-001 ]
      - [ -2.32265902e+000, 2.39987683e+000, 1.04449427e+000,
          -1.20206010e+000, -2.04297209e+000, 3.17620754e+000,
          8.08011413e-001, 2.50887405e-002, 9.26583171e-001,
          -1.83136356e+000, -8.93695235e-001, 3.01865339e+000,
          -3.15934300e-001, 9.81593072e-001, -1.65804684e+000,
          3.08281183e+000, 7.52406955e-001, 1.62197083e-001,
          1.25846529e+000, 6.45778596e-001, -3.98557484e-002,
          -1.51561424e-001, 1.86130270e-001, -7.85147399e-002,
          -3.80465746e-001 ]
      - [ 1.36126363e+000, -1.86948049e+000, -5.40700912e-001,
          -3.02310258e-001, -3.48137283e+000, 1.35738909e+000,
          -4.91984904e-001, -1.49037564e+000, -1.42272756e-001,
          -1.82150841e+000, 1.42534447e+000, 4.73704875e-001,
          -7.51020610e-001, -7.40079880e-002, 2.75159687e-001,
          2.71413624e-001, -5.88639200e-001, 3.78846116e-002,
          4.63670671e-001, -6.60561860e-001, -2.85221934e-001,
          -1.67859644e-001, 6.67784154e-001, -4.33464795e-001,
          5.42558968e-001 ]
      - [ 3.15976954e+000, 1.30792129e+000, -1.25932121e+000,
          6.78679466e-001, -1.68790233e+000, -1.24614231e-001,
          -1.14895940e+000, -8.69705975e-001, 4.50918257e-001,
          -1.96713901e+000, -2.55016863e-001, 4.64337438e-001,
          -7.68063739e-002, -2.57405713e-002, -1.21515787e+000,
          7.43325353e-002, -1.44361183e-002, 2.56556839e-001,
          8.42701316e-001, 4.16238122e-002, 1.40905395e-001,
          -2.32437864e-001, 3.10959637e-001, 3.19340587e-001,
          3.86367172e-001 ]
      - [ -1.28642237e+000, 2.30281544e+000, 1.28773665e+000,
          1.78827035e+000, -9.62256193e-001, 1.06809819e+000,
          -3.21083069e-001, -2.29423884e-002, -3.55531424e-001,
          -1.18960130e+000, -3.05405408e-001, -1.03600405e-001,
          -1.77149630e+000, 3.61034244e-001, -2.18113154e-001,
          4.98102643e-002, -2.98399270e-001, 3.49423498e-001,
          -4.71771598e-001, -6.00602403e-002, -3.30762625e-001,
          1.12885244e-001, 8.45126092e-001, 5.28763115e-001,
          3.73222739e-001 ]
      - [ 2.18616104e+000, 2.95544004e+000, 1.73828632e-001,
          1.29220188e+000, -1.35281157e+000, 3.24659824e-001,
          -7.98408985e-001, -1.24881637e+000, 4.13014963e-002,
          7.98890814e-002, 1.93157103e-002, 3.57108682e-001,
          4.97884396e-003, 2.10264429e-001, -5.57393312e-001,
          1.55529678e-001, -1.35344239e-002, 1.63733307e-002,
          4.81946588e-001, -6.04798310e-002, -3.66320238e-002,
          -3.05266052e-001, 6.44369364e-001, 7.88950324e-002,
          2.37309411e-001 ]
      - [ 2.15240335e+000, -6.70677722e-001, -1.96923041e+000,
          -2.39194527e-001, -1.82822716e+000, -1.07782833e-001,
          -2.55179405e+000, 1.12327754e+000, 1.46906710e+000,
          -2.59836888e+000, -2.12448740e+000, 1.19180334e+000,
          -1.41205168e+000, -1.14173210e+000, -7.69190848e-001,
          6.26569569e-001, -7.83186853e-002, 3.38801056e-001,
          1.16291595e+000, -4.27212059e-001, -4.13212359e-001,
          -9.30520177e-001, 1.51956782e-001, 7.29062557e-001,
          3.00308496e-001 ]
      - [ -1.23013973e+000, 2.62511539e+000, -7.97297478e-001,
          -5.72673976e-001, 8.21989417e-001, 1.44472003e+000,
          -8.08468938e-001, 1.21857047e-001, 4.65344787e-001,
          -4.06786352e-001, 3.59979868e-001, 2.42903203e-001,
          -1.17116660e-001, -1.49884060e-001, -2.86896974e-001,
          -4.90154296e-001, -1.19773604e-001, -2.08341271e-001,
          1.53242737e-001, 3.43514919e-001, 3.87162864e-002,
          1.14725344e-001, 9.74764675e-002, 1.47805944e-001,
          -3.74304831e-001 ]
      - [ -2.70142686e-002, 2.72150397e+000, 1.31459177e-001,
          -1.45380628e+000, 8.04242492e-002, 4.81252939e-001,
          -5.11175513e-001, 1.66919485e-001, 4.22107838e-002,
          8.17849189e-002, 9.39915329e-002, 5.47506452e-001,
          1.31388739e-001, -5.24966372e-003, -1.34547623e-002,
          -2.42038175e-001, 1.28379408e-002, -1.21632308e-001,
          2.67626137e-001, 1.99630335e-001, 2.00031802e-001,
          9.14400369e-002, 5.57726175e-002, 2.10040659e-001,
          1.12634362e-003 ]
      - [ -8.23119462e-001, 2.63338470e+000, -8.60332966e-001,
          -1.09624505e+000, 8.52545917e-001, 1.10094714e+000,
          1.85179740e-001, 1.57338381e+000, 1.64690316e+000,
          4.66062039e-001, 5.95838964e-001, 7.92884886e-001,
          2.54691035e-001, -1.97814509e-001, -6.58435404e-001,
          1.88079067e-002, -1.06883928e-001, -5.57282567e-001,
          2.80442536e-001, 5.48533678e-001, -3.71332280e-002,
          2.15598747e-001, -3.67218517e-002, 1.54347718e-001,
          -4.30612057e-001 ]
      - [ 1.66795075e+000, 1.09333420e+000, -1.43760490e+000,
          -1.27303731e+000, -1.47835553e+000, 1.66501462e+000,
          -3.35473508e-001, 3.05093646e-001, 1.22479367e+000,
          -1.56056359e-001, 2.79422998e+000, 4.01778936e-001,
          -1.95134267e-001, -1.29357016e+000, 6.18102133e-001,
          -7.65675366e-001, -1.12723857e-001, -3.10569197e-001,
          9.31021571e-002, 2.38164291e-001, 1.83843389e-001,
          5.22257268e-001, -1.33971825e-001, -6.56754792e-001,
          -8.48451778e-002 ]
      - [ 1.55216932e+000, 2.32161689e+000, -1.57549870e+000,
          -4.90474015e-001, 2.29677379e-001, 7.20851347e-002,
          -5.84431648e-001, 5.56978643e-001, 7.90531635e-001,
          -4.33151156e-001, 3.78318280e-001, 1.74876869e-001,
          -1.16963852e-002, -3.41181040e-001, -5.40457606e-001,
          -5.81431389e-001, 1.66370813e-002, -1.65462613e-001,
          3.67414415e-001, -2.83650383e-002, 1.85616225e-001,
          -1.54669598e-001, 1.02302037e-001, 1.08093701e-001,
          -4.39466275e-002 ]
      - [ -1.29108310e+000, 2.88101411e+000, -5.65770149e-001,
          2.95276493e-001, 2.51236916e-001, 9.53609765e-001,
          -5.39403915e-001, 9.79736090e-001, 2.01814562e-001,
          -5.78404404e-002, 3.56388956e-001, -3.96456569e-002,
          -7.86756039e-001, -1.79547355e-001, -2.16219425e-001,
          -3.34361404e-001, -1.67654663e-001, -2.54512042e-001,
          6.70927092e-002, 3.50475818e-001, -2.22792372e-001,
          2.99170524e-001, 1.71790138e-001, 1.61914736e-001,
          4.40558083e-002 ]
      - [ 8.43978226e-001, 2.76915431e+000, -8.77150953e-001,
          -1.07926086e-001, 5.17323427e-002, 3.52248162e-001,
          -5.70264339e-001, 2.01434463e-001, 3.91819209e-001,
          3.43978137e-001, 3.86259735e-001, -2.98083620e-003,
          1.60578877e-001, -1.18454568e-001, -2.25433156e-001,
          -4.55320239e-001, -7.69569399e-003, -2.33641654e-001,
          2.90384442e-001, 6.08766824e-002, 1.57728910e-001,
          -4.76775318e-002, 1.40126392e-001, 4.06903354e-003,
          -1.21755995e-001 ]
      - [ 8.93724918e-001, 1.78891432e+000, -1.79410207e+000,
          -1.06374931e+000, 5.81557333e-001, 3.22879046e-001,
          -1.12494206e+000, 1.82929695e+000, 1.36564314e+000,
          -8.78323689e-002, -3.38120610e-002, 4.05337036e-001,
          -3.55705410e-001, -8.97601247e-001, -6.58003807e-001,
          -6.16330981e-001, 1.99058667e-001, -6.89548925e-002,
          5.06967247e-001, 3.64702642e-002, -1.90161958e-001,
          -6.85942918e-002, 2.14857310e-001, 3.44244875e-002,
          -4.77938920e-001 ]
      - [ 2.11928535e+000, 1.48347175e+000, 1.11403155e+000,
          -2.80624366e+000, -2.07800579e+000, -1.60422647e+000,
          -9.90016852e-003, 3.71288955e-001, -1.43132627e+000,
          1.74101710e+000, -2.50699550e-001, 7.06795335e-001,
          7.81277120e-001, 3.93324852e-001, 6.02990687e-001,
          7.87884235e-001, 3.84987742e-001, 1.09722000e-002,
          1.10838854e+000, -7.48729587e-001, 5.36001384e-001,
          -8.38843957e-002, 2.45668605e-001, 6.56055883e-002,
          1.00327516e+000 ]
      - [ 1.18100405e+000, -1.71172702e+000, -7.72625089e-001,
          -1.26337624e+000, -1.11521852e+000, -2.03711605e+000,
          2.24987841e+000, 3.07811141e+000, 1.43156385e+000,
          2.36458135e+000, 4.59988981e-001, 1.60093832e+000,
          7.67061174e-001, 8.31416011e-001, 3.37920815e-001,
          2.26666760e+000, 6.61181748e-001, -4.57611859e-001,
          2.40495756e-001, -3.16875488e-001, 5.00059545e-001,
          1.66085824e-001, -1.33517817e-001, -4.06821191e-001,
          -3.05804521e-001 ]
      - [ 1.99189258e+000, -2.35178828e+000, -7.80887723e-001,
          -3.74609798e-001, -1.76982737e+000, -8.80254030e-001,
          4.44785565e-001, 1.32921234e-001, 3.20191383e-001,
          3.46437782e-001, 1.18851554e+000, 1.22497305e-001,
          -3.26955467e-001, -1.71097949e-001, 4.26576018e-001,
          -9.11691636e-002, -2.08950803e-001, -1.34055614e-001,
          2.99925953e-001, -5.14365256e-001, -3.96258831e-002,
          -1.08950272e-001, 2.50361979e-001, -3.37186158e-001,
          3.20125639e-001 ]
      - [ 3.11616087e+000, -5.10835111e-001, -1.39148676e+000,
          2.58204043e-001, -1.18769538e+000, -1.44780850e+000,
          -1.13890782e-001, 7.88661778e-001, 4.69151974e-001,
          -1.39904261e-001, 1.00604415e-001, -3.05532594e-004,
          3.02926034e-001, 2.66289059e-002, -5.35804272e-001,
          -4.20952626e-002, 3.94851938e-002, -5.52509688e-002,
          4.38638836e-001, -1.23863108e-001, 1.62376314e-001,
          -3.44058722e-001, -3.44484001e-002, 6.48696870e-002,
          1.85298517e-001 ]
      - [ 4.14032459e-001, 1.12384439e+000, 1.36613488e+000,
          3.43372893e+000, -1.09624362e+000, -2.05744147e+000,
          3.09337020e-001, 2.52137208e+000, -7.31894851e-001,
          8.61258864e-001, 4.08596009e-001, -1.25165761e+000,
          -2.14454389e+000, 4.16528225e-001, 3.48362178e-001,
          3.75895649e-001, -2.31904328e-001, 1.55170858e-001,
          -7.93843210e-001, -9.38333392e-001, -7.22989082e-001,
          2.01995254e-001, 8.21007371e-001, 1.60349160e-002,
          1.11688328e+000 ]
      - [ 3.13212347e+000, 1.14358962e+000, -6.17452145e-001,
          1.35514057e+000, -1.53639603e+000, -1.10430455e+000,
          -1.69788137e-001, 4.26355392e-001, 4.55893874e-002,
          1.25801218e+000, 2.82913715e-001, -3.21377188e-001,
          4.23858464e-001, 2.44730726e-001, -3.14829469e-001,
          1.18744686e-001, 1.77118212e-001, -3.70630920e-001,
          3.64089459e-001, -1.28249988e-001, 1.96712226e-001,
          -8.89149234e-002, 3.33276957e-001, -2.61475176e-001,
          2.58179277e-001 ]
      - [ 2.36531734e+000, -1.54047120e+000, -1.52543223e+000,
          -2.32169196e-001, -6.72771931e-001, -1.58524573e+000,
          -6.24356389e-001, 2.16005397e+000, 7.41479993e-001,
          2.24342450e-001, -4.78394747e-001, 5.22795856e-001,
          -2.96880186e-001, -5.46614408e-001, 2.05826730e-001,
          5.15417874e-001, 1.88956544e-001, -2.25651368e-001,
          2.92590261e-001, -3.46773446e-001, -9.00578797e-002,
          -4.52533245e-001, -2.32955456e-001, 1.86861232e-002,
          2.52282053e-001 ]
      - [ -1.40747929e+000, -2.75770283e+000, -2.09391832e+000,
          1.80921412e+000, 6.80973172e-001, 2.38244161e-001,
          1.79563820e+000, 1.81209362e+000, 1.87339616e+000,
          2.29439273e-001, 5.93748808e-001, 7.35613331e-002,
          -4.32638854e-001, -1.68439075e-001, -2.20615372e-001,
          9.52098131e-001, 4.77155298e-001, -1.24878950e-001,
          -4.65647846e-001, 5.08351862e-001, -2.28276759e-001,
          2.11149499e-001, -3.32688272e-001, -1.51714787e-001,
          -9.04159188e-001 ]
      - [ 4.53751057e-001, -2.83161497e+000, -9.39424813e-001,
          1.19655287e+000, -6.40266061e-001, 8.72684941e-002,
          3.99225414e-001, 1.18962087e-001, 7.24839151e-001,
          -2.09395602e-001, 9.53479230e-001, -4.13431376e-001,
          -4.64527965e-001, -3.16775978e-001, 7.55162984e-002,
          -9.73540694e-002, -2.32393175e-001, -2.16508925e-001,
          5.91081716e-002, -4.51648757e-002, -2.20597640e-001,
          1.27627492e-001, 9.98451114e-002, -6.08706653e-001,
          -9.09255669e-002 ]
      - [ 1.86442935e+000, -1.77069426e+000, -2.06143498e+000,
          2.18644404e+000, -2.87615150e-001, -3.45146328e-001,
          -3.69963944e-001, 4.40368503e-001, 1.04621243e+000,
          -3.76792699e-001, 1.37205437e-001, -6.17621481e-001,
          -5.66479005e-002, -4.75196123e-001, -8.62322927e-001,
          -4.20056283e-001, 1.52522162e-001, 1.42949805e-001,
          1.27258077e-001, 1.02376625e-001, -8.42257664e-002,
          -5.69124557e-002, -5.39670102e-002, 3.09266269e-001,
          -3.21303129e-001 ]
      - [ -9.28576648e-001, -4.84549761e-001, -3.04836690e-001,
          3.09055829e+000, 3.75351220e-001, 2.50914782e-001,
          2.66437829e-001, 1.01326299e+000, 3.88573945e-001,
          -3.10085922e-001, 1.50435090e-001, -1.14450765e+000,
          -1.72816539e+000, -1.50798792e-002, -2.17132688e-001,
          -3.42659533e-001, -1.96370974e-001, 1.90324932e-001,
          -8.98619115e-001, 9.41578448e-002, -5.13840854e-001,
          1.74947530e-001, 1.72567278e-001, 3.52822468e-002,
          -6.91656247e-002 ]
      - [ 1.99697697e+000, -6.49043247e-002, -1.43210840e+000,
          3.80172515e+000, -4.62645680e-001, -7.77373910e-002,
          -2.78267384e-001, -1.00903148e-002, 1.08679247e+000,
          1.43650389e+000, 3.81819606e-001, -9.78794038e-001,
          -2.97146767e-001, -2.22949132e-001, -4.67710048e-001,
          -3.18883181e-001, 2.84954786e-001, -1.47494152e-001,
          -5.96517660e-002, 3.02248120e-001, -2.51078635e-001,
          -2.14460015e-001, 1.57841425e-002, -2.50658832e-005,
          -5.30248582e-001 ]
      - [ 5.40163875e-001, -2.37150526e+000, -1.97969913e+000,
          1.45527303e+000, 7.59432763e-002, -1.55983567e-001,
          -7.68879592e-001, 1.64767694e+000, 1.19399571e+000,
          -4.68805730e-001, -4.05397475e-001, -4.30110037e-001,
          -4.74309474e-001, -7.08168328e-001, -2.56381571e-001,
          -1.00286484e-001, 9.78617668e-002, 1.74092818e-002,
          -8.86046737e-002, -4.05186638e-002, -2.58802772e-001,
          -1.49794027e-001, -3.26508343e-001, 1.13254458e-001,
          -7.34841079e-002 ]
      - [ 2.14499331e+000, -2.62699866e+000, -5.15797853e-001,
          2.70296894e-002, -1.89673853e+000, 1.66815430e-001,
          -8.53969634e-001, -1.19544601e+000, -3.39788914e-001,
          -7.78236628e-001, 1.69382596e+000, -9.30937111e-001,
          -7.43050516e-001, -5.58340371e-001, 6.22782469e-001,
          -1.02110350e+000, -9.15852845e-001, -1.26863306e-003,
          2.16054603e-001, -8.02684963e-001, 6.35429239e-003,
          -3.24688137e-001, 5.16525149e-001, -6.37305379e-001,
          5.58642745e-001 ]
      - [ 3.56055379e+000, 3.35615098e-001, -1.65915775e+000,
          9.72482979e-001, -9.48772013e-001, -8.29231858e-001,
          -1.59845865e+000, -4.21076417e-001, -1.32895246e-001,
          -1.04800487e+000, -7.58135542e-002, -7.43566453e-001,
          6.40462935e-002, 2.40682140e-002, -5.07703662e-001,
          -9.68036652e-001, -3.05924386e-001, 1.53387031e-002,
          2.08221748e-001, -6.12928830e-002, 9.59667284e-003,
          -6.52504981e-001, 2.52574205e-001, 1.22553825e-001,
          2.68089414e-001 ]
      - [ -7.14607000e-001, 1.57660282e+000, 1.16817808e+000,
          2.59232807e+000, -3.79053980e-001, 1.13892164e-002,
          -1.05528021e+000, 5.23812547e-002, -1.23173356e+000,
          -6.06209874e-001, -1.37313753e-002, -1.49095476e+000,
          -2.20408726e+000, 1.38797564e-002, 5.78079447e-002,
          -1.11964154e+000, -3.86285067e-001, 3.37256819e-001,
          -6.22627318e-001, -7.30230361e-002, -3.85933489e-001,
          8.62680525e-002, 5.04149556e-001, 8.72076899e-002,
          5.64521372e-001 ]
      - [ 2.72434855e+000, 2.12443495e+000, -3.90884757e-001,
          1.71295416e+000, -9.31671798e-001, -3.83907527e-001,
          -1.32586133e+000, -9.24403787e-001, -5.73806524e-001,
          5.26989877e-001, 3.45375314e-002, -1.10030186e+000,
          2.77931392e-001, 2.19874844e-001, -8.33406374e-002,
          -9.58401620e-001, -2.07437828e-001, -2.23831162e-001,
          1.69964954e-001, -5.90116456e-002, 2.50491090e-002,
          -4.68180865e-001, 5.39331138e-001, -1.84811890e-001,
          2.72308141e-001 ]
      - [ 2.91871858e+000, -1.49556410e+000, -2.20610738e+000,
          4.52953190e-001, -3.36147755e-001, -1.17349422e+000,
          -2.95298457e+000, 1.39744318e+000, 2.74597108e-001,
          -1.08149016e+000, -1.27758956e+000, -4.85067517e-001,
          -1.11268067e+000, -1.26136589e+000, 1.27945095e-001,
          -7.37016857e-001, -3.26291829e-001, -1.03869058e-001,
          3.17225307e-001, -6.56440079e-001, -3.60770732e-001,
          -1.05138171e+000, -1.79739520e-001, 4.83180881e-002,
          2.97203839e-001 ]
      - [ 1.87527943e+000, 3.14657569e+000, -1.29017067e+000,
          8.59251738e-001, 1.21490300e+000, -7.71069586e-001,
          -8.68278369e-002, 7.08535612e-001, 3.68776172e-002,
          -4.45512861e-001, -1.18578696e+000, 1.44611567e-001,
          1.04049170e+000, 1.94330454e-001, -1.39274013e+000,
          2.36123189e-001, 3.26492965e-001, 2.31137425e-001,
          -4.66249930e-003, 5.37136674e-001, 2.20582545e-001,
          -4.30915087e-001, -2.43413255e-001, 6.64521217e-001,
          -9.60365590e-003 ]
      - [ -1.48574936e+000, 2.14507699e+000, 9.82856274e-001,
          1.24088776e+000, 8.69789600e-001, 1.45602316e-001,
          -3.26795727e-001, 8.39669466e-001, -3.45527142e-001,
          9.63008180e-002, -6.46226466e-001, -4.13456947e-001,
          -5.89084506e-001, 3.29206139e-001, -4.40621942e-001,
          -5.72296232e-002, 1.07599035e-001, 5.40533997e-002,
          -4.79652733e-001, 3.79459560e-001, -1.12513326e-001,
          1.22036621e-001, 2.10972354e-001, 2.34892055e-001,
          -3.38906050e-002 ]
      - [ 5.45310795e-001, 3.25432563e+000, -1.69783443e-001,
          1.10700917e+000, 7.22582698e-001, -2.18965411e-001,
          -1.09744951e-001, 1.54958755e-001, -2.38349900e-001,
          5.12685835e-001, -6.60274267e-001, -2.97819465e-001,
          6.64310336e-001, 3.25523078e-001, -5.76405466e-001,
          1.11793969e-002, 1.78553894e-001, 4.25302014e-002,
          6.22990262e-003, 2.72824794e-001, 4.99325059e-002,
          -1.60356238e-001, 2.30835572e-001, 2.72022963e-001,
          -5.94696477e-002 ]
      - [ 6.47961617e-001, 1.84862363e+000, -1.12227511e+000,
          3.32071483e-001, 1.65211439e+000, -1.04002988e+000,
          -1.39111805e+000, 2.75656986e+000, 2.49932021e-001,
          1.56161457e-001, -2.89035869e+000, 6.09357536e-001,
          2.79217929e-001, -5.59967518e-001, -5.82970679e-001,
          9.19484138e-001, 4.75421906e-001, 2.51953453e-002,
          -2.36864701e-001, 7.13826835e-001, 8.03130195e-002,
          -4.96061236e-001, -1.03398728e+000, 8.84102821e-001,
          -4.58834410e-001 ]
      - [ -2.37014604e+000, 7.03992605e-001, 1.71165800e+000,
          8.49674463e-001, 3.41532230e-001, 7.57068753e-001,
          4.22231369e-002, 3.25958490e-001, -5.34406662e-001,
          4.94030654e-001, -1.91796012e-002, -4.23793703e-001,
          -1.01916134e+000, 2.56193936e-001, 3.48269910e-001,
          -6.41505234e-003, -3.26146960e-001, -1.08970962e-002,
          -6.04866624e-001, 1.90253660e-001, -2.35488787e-001,
          2.54875332e-001, 3.49908292e-001, -1.39483631e-001,
          1.78492457e-001 ]
      - [ -1.68863153e+000, 3.83131242e+000, 1.94753051e+000,
          1.86982107e+000, 5.00017814e-002, 8.39760780e-001,
          4.02663291e-001, -9.72810924e-001, -2.00083941e-001,
          2.76113343e+000, 9.63361189e-002, -4.71997172e-001,
          8.56003642e-001, 1.01379621e+000, 1.21421707e+000,
          -1.60575449e-001, -6.49630427e-002, -3.38977188e-001,
          -4.29201335e-001, 2.54601210e-001, -1.34529516e-001,
          -7.72474408e-001, 9.14192021e-001, -5.98552942e-001,
          2.35433448e-002 ]
      - [ -2.93998861e+000, -2.73449755e+000, 1.09285936e-001,
          -1.71927524e+000, 8.59082043e-001, 1.52543575e-001,
          -1.24002898e+000, 2.73890948e+000, 8.57521296e-002,
          1.01949537e+000, -1.55078244e+000, 4.89730358e-001,
          -1.77121282e+000, -1.40424085e+000, 1.51914024e+000,
          9.39672947e-001, -1.80541188e-001, -1.60906926e-001,
          -2.32794419e-001, -3.64965528e-001, -5.56150854e-001,
          -4.19238329e-001, -7.45829761e-001, -1.57055184e-001,
          -1.64817095e-001 ]
      - [ 3.08334327e+000, 7.83613026e-001, -1.45852005e+000,
          -2.12394401e-001, -1.06159627e+000, -4.78783101e-001,
          -5.64807773e-001, -9.78390157e-001, 1.17809646e-001,
          1.07775700e+000, 3.48630667e-001, 3.93694192e-001,
          1.52546096e+000, 1.44216195e-001, -3.30491871e-001,
          4.03660744e-001, 2.35654905e-001, -3.27160984e-001,
          1.13910782e+000, -4.63765524e-002, 2.65476316e-001,
          -2.88878024e-001, -3.30703169e-001, -1.83544293e-001,
          -9.99434888e-002 ]
      - [ 1.73935735e+000, -1.51099515e+000, -1.80496228e+000,
          -1.44489610e+000, 1.37841016e-001, -5.92192471e-001,
          -4.94618893e-001, 4.41481113e-001, 7.82822251e-001,
          -2.35718891e-001, -6.07978404e-001, 8.65685344e-001,
          8.37461948e-001, -6.64824665e-001, -8.80828053e-002,
          4.63558912e-001, 8.82487297e-002, -1.56795740e-001,
          4.85492349e-001, -2.99033940e-001, 3.17916013e-002,
          -5.11152506e-001, -5.42770445e-001, 1.56692304e-002,
          -1.69836849e-001 ]
      - [ -8.59715044e-001, -2.85687780e+000, -8.85654807e-001,
          -1.47215998e+000, 3.93983066e-001, -2.06507310e-001,
          -8.12316239e-001, 1.83005595e+000, 3.83476883e-001,
          -1.09212887e+000, -9.71168518e-001, 4.90867138e-001,
          -7.46327400e-001, -8.03717911e-001, 2.51129687e-001,
          3.42208236e-001, -1.48941725e-002, 6.75287768e-002,
          -7.26391897e-002, -2.54397243e-001, -2.32283935e-001,
          -5.28239273e-002, -5.85277379e-001, 1.61451846e-001,
          -7.27427155e-002 ]
   decision_functions:
      -
         sv_count: 1
         rho: 3.8388868782166008e+000
         alpha: [ 1. ]
         index: [ 0 ]
      -
         sv_count: 1
         rho: 1.0498004022807361e+000
         alpha: [ 1. ]
         index: [ 1 ]
      -
         sv_count: 1
         rho: 2.3064641058680060e+000
         alpha: [ 1. ]
         index: [ 2 ]
      -
         sv_count: 1
         rho: 1.0414816308497019e+000
         alpha: [ 1. ]
         index: [ 3 ]
      -
         sv_count: 1
         rho: 2.3782081709614524e+000
         alpha: [ 1. ]
         index: [ 4 ]
      -
         sv_count: 1
         rho: 1.5890676779662554e+000
         alpha: [ 1. ]
         index: [ 5 ]
      -
         sv_count: 1
         rho: 4.1783915788365018e+000
         alpha: [ 1. ]
         index: [ 6 ]
      -
         sv_count: 1
         rho: -2.6378293055693991e-001
         alpha: [ 1. ]
         index: [ 7 ]
      -
         sv_count: 1
         rho: 1.3214838233171244e+000
         alpha: [ 1. ]
         index: [ 8 ]
      -
         sv_count: 1
         rho: 2.7207899488192049e+000
         alpha: [ 1. ]
         index: [ 9 ]
      -
         sv_count: 1
         rho: 7.4161309078777906e+000
         alpha: [ 1. ]
         index: [ 10 ]
      -
         sv_count: 1
         rho: -3.4904328310335832e-002
         alpha: [ 1. ]
         index: [ 11 ]
      -
         sv_count: 1
         rho: 1.1541519778840095e+000
         alpha: [ 1. ]
         index: [ 12 ]
      -
         sv_count: 1
         rho: 1.5712071439057114e+000
         alpha: [ 1. ]
         index: [ 13 ]
      -
         sv_count: 1
         rho: 2.6148427325071291e+000
         alpha: [ 1. ]
         index: [ 14 ]
      -
         sv_count: 1
         rho: 9.9752326929952084e-001
         alpha: [ 1. ]
         index: [ 15 ]
      -
         sv_count: 1
         rho: -1.4239039393783781e+000
         alpha: [ 1. ]
         index: [ 16 ]
      -
         sv_count: 1
         rho: -2.8912721565972932e+000
         alpha: [ 1. ]
         index: [ 17 ]
      -
         sv_count: 1
         rho: -1.6385646934853380e+000
         alpha: [ 1. ]
         index: [ 18 ]
      -
         sv_count: 1
         rho: -2.2986232386826289e+000
         alpha: [ 1. ]
         index: [ 19 ]
      -
         sv_count: 1
         rho: -4.6391527190823240e-001
         alpha: [ 1. ]
         index: [ 20 ]
      -
         sv_count: 1
         rho: -1.2183016027793310e+000
         alpha: [ 1. ]
         index: [ 21 ]
      -
         sv_count: 1
         rho: -3.4147446517653042e+000
         alpha: [ 1. ]
         index: [ 22 ]
      -
         sv_count: 1
         rho: -1.6774528056607956e+000
         alpha: [ 1. ]
         index: [ 23 ]
      -
         sv_count: 1
         rho: 2.5629677876622281e-001
         alpha: [ 1. ]
         index: [ 24 ]
      -
         sv_count: 1
         rho: 3.5545835347813131e+000
         alpha: [ 1. ]
         index: [ 25 ]
      -
         sv_count: 1
         rho: -3.0327828227753448e+000
         alpha: [ 1. ]
         index: [ 26 ]
      -
         sv_count: 1
         rho: -1.3158634926599480e+000
         alpha: [ 1. ]
         index: [ 27 ]
      -
         sv_count: 1
         rho: -3.6691516180941086e-001
         alpha: [ 1. ]
         index: [ 28 ]
      -
         sv_count: 1
         rho: 7.5549906356611307e-001
         alpha: [ 1. ]
         index: [ 29 ]
      -
         sv_count: 1
         rho: -3.8235030613027403e+000
         alpha: [ 1. ]
         index: [ 30 ]
      -
         sv_count: 1
         rho: 1.2268186670408247e-001
         alpha: [ 1. ]
         index: [ 31 ]
      -
         sv_count: 1
         rho: -9.1658051877441693e-002
         alpha: [ 1. ]
         index: [ 32 ]
      -
         sv_count: 1
         rho: -6.1636950067396579e-001
         alpha: [ 1. ]
         index: [ 33 ]
      -
         sv_count: 1
         rho: 2.1589855044517184e-001
         alpha: [ 1. ]
         index: [ 34 ]
      -
         sv_count: 1
         rho: 1.9962485759624879e+000
         alpha: [ 1. ]
         index: [ 35 ]
      -
         sv_count: 1
         rho: -1.5772338410103715e+000
         alpha: [ 1. ]
         index: [ 36 ]
      -
         sv_count: 1
         rho: -1.0365616966211608e+000
         alpha: [ 1. ]
         index: [ 37 ]
      -
         sv_count: 1
         rho: 3.2530105131598830e-001
         alpha: [ 1. ]
         index: [ 38 ]
      -
         sv_count: 1
         rho: 2.1022828096599744e+000
         alpha: [ 1. ]
         index: [ 39 ]
      -
         sv_count: 1
         rho: -1.9455759553530747e+000
         alpha: [ 1. ]
         index: [ 40 ]
      -
         sv_count: 1
         rho: -2.3519234013811313e-001
         alpha: [ 1. ]
         index: [ 41 ]
      -
         sv_count: 1
         rho: 2.2182166895190106e-001
         alpha: [ 1. ]
         index: [ 42 ]
      -
         sv_count: 1
         rho: 1.6312083796638321e+000
         alpha: [ 1. ]
         index: [ 43 ]
      -
         sv_count: 1
         rho: -2.0612691329385093e+000
         alpha: [ 1. ]
         index: [ 44 ]
      -
         sv_count: 1
         rho: -4.3260334774403358e-001
         alpha: [ 1. ]
         index: [ 45 ]
      -
         sv_count: 1
         rho: -6.1270837819509050e-001
         alpha: [ 1. ]
         index: [ 46 ]
      -
         sv_count: 1
         rho: -8.1947990363724757e-002
         alpha: [ 1. ]
         index: [ 47 ]
      -
         sv_count: 1
         rho: 1.7492883215289468e+000
         alpha: [ 1. ]
         index: [ 48 ]
      -
         sv_count: 1
         rho: -1.6185726723127920e+000
         alpha: [ 1. ]
         index: [ 49 ]
      -
         sv_count: 1
         rho: -1.1480171638889753e+000
         alpha: [ 1. ]
         index: [ 50 ]
      -
         sv_count: 1
         rho: 6.8716848963715660e-001
         alpha: [ 1. ]
         index: [ 51 ]
      -
         sv_count: 1
         rho: 4.5380582557275737e+000
         alpha: [ 1. ]
         index: [ 52 ]
      -
         sv_count: 1
         rho: -3.4637526452089045e+000
         alpha: [ 1. ]
         index: [ 53 ]
      -
         sv_count: 1
         rho: 1.2087114794319105e-001
         alpha: [ 1. ]
         index: [ 54 ]
      -
         sv_count: 1
         rho: 3.2098277172741907e-001
         alpha: [ 1. ]
         index: [ 55 ]
      -
         sv_count: 1
         rho: 2.9535882051223208e+000
         alpha: [ 1. ]
         index: [ 56 ]
      -
         sv_count: 1
         rho: -3.8255683383610237e+000
         alpha: [ 1. ]
         index: [ 57 ]
      -
         sv_count: 1
         rho: 4.8814864491805532e-001
         alpha: [ 1. ]
         index: [ 58 ]
      -
         sv_count: 1
         rho: -5.8801638784454401e-002
         alpha: [ 1. ]
         index: [ 59 ]
      -
         sv_count: 1
         rho: 8.6016558573788637e-001
         alpha: [ 1. ]
         index: [ 60 ]
      -
         sv_count: 1
         rho: -5.9872479099162335e-001
         alpha: [ 1. ]
         index: [ 61 ]
      -
         sv_count: 1
         rho: 4.4184321411676425e-001
         alpha: [ 1. ]
         index: [ 62 ]
      -
         sv_count: 1
         rho: 3.2948677478163400e+000
         alpha: [ 1. ]
         index: [ 63 ]
      -
         sv_count: 1
         rho: 1.9250045383112833e+000
         alpha: [ 1. ]
         index: [ 64 ]
      -
         sv_count: 1
         rho: -4.0700665423800858e-001
         alpha: [ 1. ]
         index: [ 65 ]
      -
         sv_count: 1
         rho: 6.8871656305245643e-001
         alpha: [ 1. ]
         index: [ 66 ]
      -
         sv_count: 1
         rho: 6.7375324473305365e-001
         alpha: [ 1. ]
         index: [ 67 ]
      -
         sv_count: 1
         rho: 2.5565921531468772e+000
         alpha: [ 1. ]
         index: [ 68 ]
      -
         sv_count: 1
         rho: -7.1612494384273462e-001
         alpha: [ 1. ]
         index: [ 69 ]
      -
         sv_count: 1
         rho: 4.3949856422603034e-001
         alpha: [ 1. ]
         index: [ 70 ]
      -
         sv_count: 1
         rho: 2.0946531388157505e+000
         alpha: [ 1. ]
         index: [ 71 ]
      -
         sv_count: 1
         rho: -1.3276834202589833e+000
         alpha: [ 1. ]
         index: [ 72 ]
      -
         sv_count: 1
         rho: -2.0573938262012716e+000
         alpha: [ 1. ]
         index: [ 73 ]
      -
         sv_count: 1
         rho: 5.5287237775194931e-001
         alpha: [ 1. ]
         index: [ 74 ]
      -
         sv_count: 1
         rho: 5.3665114655210768e+000
         alpha: [ 1. ]
         index: [ 75 ]
      -
         sv_count: 1
         rho: -2.0855874475847562e+000
         alpha: [ 1. ]
         index: [ 76 ]
      -
         sv_count: 1
         rho: -7.5442239498793751e-001
         alpha: [ 1. ]
         index: [ 77 ]
      -
         sv_count: 1
         rho: 2.2742912246182798e-001
         alpha: [ 1. ]
         index: [ 78 ]
      -
         sv_count: 1
         rho: 1.4915856195642592e+000
         alpha: [ 1. ]
         index: [ 79 ]
      -
         sv_count: 1
         rho: -1.3994383723289423e+000
         alpha: [ 1. ]
         index: [ 80 ]
      -
         sv_count: 1
         rho: 6.9002548452766499e-001
         alpha: [ 1. ]
         index: [ 81 ]
      -
         sv_count: 1
         rho: -5.7492007742403206e-001
         alpha: [ 1. ]
         index: [ 82 ]
      -
         sv_count: 1
         rho: -1.1297456224179354e+000
         alpha: [ 1. ]
         index: [ 83 ]
      -
         sv_count: 1
         rho: 1.3904941929870560e+000
         alpha: [ 1. ]
         index: [ 84 ]
      -
         sv_count: 1
         rho: 2.2000148131228436e+000
         alpha: [ 1. ]
         index: [ 85 ]
      -
         sv_count: 1
         rho: -8.7569307845069821e-001
         alpha: [ 1. ]
         index: [ 86 ]
      -
         sv_count: 1
         rho: -2.4556454181380133e-001
         alpha: [ 1. ]
         index: [ 87 ]
      -
         sv_count: 1
         rho: -1.4921126234295439e+000
         alpha: [ 1. ]
         index: [ 88 ]
      -
         sv_count: 1
         rho: 1.2602476460113947e+000
         alpha: [ 1. ]
         index: [ 89 ]
      -
         sv_count: 1
         rho: -7.0252624210709602e-001
         alpha: [ 1. ]
         index: [ 90 ]
      -
         sv_count: 1
         rho: -3.1989156528385498e+000
         alpha: [ 1. ]
         index: [ 91 ]
      -
         sv_count: 1
         rho: -1.5221156868411296e+000
         alpha: [ 1. ]
         index: [ 92 ]
      -
         sv_count: 1
         rho: 3.5000218967610408e-001
         alpha: [ 1. ]
         index: [ 93 ]
      -
         sv_count: 1
         rho: 3.6421799400803918e+000
         alpha: [ 1. ]
         index: [ 94 ]
      -
         sv_count: 1
         rho: -3.5928595452350001e+000
         alpha: [ 1. ]
         index: [ 95 ]
      -
         sv_count: 1
         rho: -7.4624943844717329e-001
         alpha: [ 1. ]
         index: [ 96 ]
      -
         sv_count: 1
         rho: 4.5544882241149283e-002
         alpha: [ 1. ]
         index: [ 97 ]
      -
         sv_count: 1
         rho: 1.8091856333663807e+000
         alpha: [ 1. ]
         index: [ 98 ]
      -
         sv_count: 1
         rho: -4.4229098740130643e+000
         alpha: [ 1. ]
         index: [ 99 ]
      -
         sv_count: 1
         rho: 9.9082899050058670e-001
         alpha: [ 1. ]
         index: [ 100 ]
      -
         sv_count: 1
         rho: 1.6330406272698086e+000
         alpha: [ 1. ]
         index: [ 101 ]
      -
         sv_count: 1
         rho: 3.7793701353768356e+000
         alpha: [ 1. ]
         index: [ 102 ]
      -
         sv_count: 1
         rho: 1.4726419406311533e+000
         alpha: [ 1. ]
         index: [ 103 ]
      -
         sv_count: 1
         rho: 1.1191737337200121e+000
         alpha: [ 1. ]
         index: [ 104 ]
      -
         sv_count: 1
         rho: 1.3049438435014489e+000
         alpha: [ 1. ]
         index: [ 105 ]
      -
         sv_count: 1
         rho: 1.7983777422326350e+000
         alpha: [ 1. ]
         index: [ 106 ]
      -
         sv_count: 1
         rho: 7.5561920778211777e-001
         alpha: [ 1. ]
         index: [ 107 ]
      -
         sv_count: 1
         rho: 1.9173498416829236e+000
         alpha: [ 1. ]
         index: [ 108 ]
      -
         sv_count: 1
         rho: 5.1835336994269134e+000
         alpha: [ 1. ]
         index: [ 109 ]
      -
         sv_count: 1
         rho: -1.2418460634119437e+000
         alpha: [ 1. ]
         index: [ 110 ]
      -
         sv_count: 1
         rho: -1.5297045907640466e-001
         alpha: [ 1. ]
         index: [ 111 ]
      -
         sv_count: 1
         rho: 1.3205141191637064e+000
         alpha: [ 1. ]
         index: [ 112 ]
      -
         sv_count: 1
         rho: 2.0611945143073966e+000
         alpha: [ 1. ]
         index: [ 113 ]
      -
         sv_count: 1
         rho: -6.9809397302390042e-001
         alpha: [ 1. ]
         index: [ 114 ]
      -
         sv_count: 1
         rho: 1.5454283355240028e+000
         alpha: [ 1. ]
         index: [ 115 ]
      -
         sv_count: 1
         rho: -1.4198046350339431e+000
         alpha: [ 1. ]
         index: [ 116 ]
      -
         sv_count: 1
         rho: -7.3018203166146134e-001
         alpha: [ 1. ]
         index: [ 117 ]
      -
         sv_count: 1
         rho: -5.5646838593086234e-001
         alpha: [ 1. ]
         index: [ 118 ]
      -
         sv_count: 1
         rho: 1.6153157657025419e+000
         alpha: [ 1. ]
         index: [ 119 ]
      -
         sv_count: 1
         rho: -1.7315426537694723e+000
         alpha: [ 1. ]
         index: [ 120 ]
      -
         sv_count: 1
         rho: -4.4947413269670573e+000
         alpha: [ 1. ]
         index: [ 121 ]
      -
         sv_count: 1
         rho: -2.4765938905789282e+000
         alpha: [ 1. ]
         index: [ 122 ]
      -
         sv_count: 1
         rho: -2.2558595113040423e+000
         alpha: [ 1. ]
         index: [ 123 ]
      -
         sv_count: 1
         rho: -1.3820343825989642e-001
         alpha: [ 1. ]
         index: [ 124 ]
      -
         sv_count: 1
         rho: -5.7590459967832510e+000
         alpha: [ 1. ]
         index: [ 125 ]
      -
         sv_count: 1
         rho: 2.6934370972301944e+000
         alpha: [ 1. ]
         index: [ 126 ]
      -
         sv_count: 1
         rho: 1.2842983404435022e+000
         alpha: [ 1. ]
         index: [ 127 ]
      -
         sv_count: 1
         rho: 2.7662835314376686e+000
         alpha: [ 1. ]
         index: [ 128 ]
      -
         sv_count: 1
         rho: 1.1198666640674926e+000
         alpha: [ 1. ]
         index: [ 129 ]
      -
         sv_count: 1
         rho: 4.3646173729096566e-001
         alpha: [ 1. ]
         index: [ 130 ]
      -
         sv_count: 1
         rho: 4.6393936494599934e+000
         alpha: [ 1. ]
         index: [ 131 ]
      -
         sv_count: 1
         rho: -3.6634306465943274e+000
         alpha: [ 1. ]
         index: [ 132 ]
      -
         sv_count: 1
         rho: 1.5460512467843552e+000
         alpha: [ 1. ]
         index: [ 133 ]
      -
         sv_count: 1
         rho: -1.3272471636586693e+000
         alpha: [ 1. ]
         index: [ 134 ]
      -
         sv_count: 1
         rho: -3.6380143500647013e+000
         alpha: [ 1. ]
         index: [ 135 ]
