%YAML:1.0
opencv_ml_svm:
   format: 3
   svmType: C_SVC
   kernel:
      type: RBF
      gamma: 2.4414062500000000e-004
   C: 512.
   term_criteria: { epsilon:1.1920928955078125e-007, iterations:1000 }
   var_count: 25
   class_count: 17
   class_labels: !!opencv-matrix
      rows: 17
      cols: 1
      dt: i
      data: [ 0, 1, 2, 3, 4, 5, 6, 7, 8, 9, 10, 11, 12, 13, 14, 15, 16 ]
   sv_total: 3996
   support_vectors:
      - [ 7.70950794e-001, 6.11664891e-001, 5.52757382e-001,
          6.62693501e-001, 4.98687804e-001, 5.28030574e-001,
          3.81435812e-001, 5.79061389e-001, 3.68343413e-001,
          3.94330949e-001, 5.05530894e-001, 4.55540717e-001,
          4.90149438e-001, 4.83488292e-001, 5.26305854e-001,
          4.59156811e-001, 5.00211239e-001, 4.72335100e-001,
          5.00155449e-001, 5.11340022e-001, 4.98487264e-001,
          4.61531222e-001, 4.73497927e-001, 5.11323810e-001,
          4.63573813e-001 ]
      - [ 7.99561799e-001, 4.28847075e-001, 6.83149159e-001,
          6.95522666e-001, 5.65963507e-001, 6.55448556e-001,
          5.02238870e-001, 5.68267167e-001, 3.65117431e-001,
          5.21329045e-001, 4.94529814e-001, 4.00577635e-001,
          5.56168020e-001, 6.09358013e-001, 4.66271222e-001,
          4.62329030e-001, 5.23725510e-001, 4.33088034e-001,
          5.23353040e-001, 4.22715306e-001, 4.09988701e-001,
          4.57489550e-001, 4.34419721e-001, 4.88837034e-001,
          4.76890385e-001 ]
      - [ 8.06263864e-001, 5.78628957e-001, 4.81283069e-001,
          6.62980437e-001, 5.63707292e-001, 5.62570870e-001,
          3.75071585e-001, 5.97169340e-001, 3.98557156e-001,
          4.07603264e-001, 5.36406040e-001, 5.04386127e-001,
          4.19064403e-001, 5.36337495e-001, 5.14589429e-001,
          4.00515020e-001, 5.70116818e-001, 4.77902293e-001,
          4.68265325e-001, 5.28435707e-001, 5.47193289e-001,
          4.45152611e-001, 4.57926154e-001, 4.67150033e-001,
          4.81783926e-001 ]
      - [ 8.54436636e-001, 5.55831909e-001, 4.46792483e-001,
          6.22387409e-001, 4.94807065e-001, 5.04731357e-001,
          4.40316558e-001, 5.80453277e-001, 3.61186594e-001,
          5.02216399e-001, 5.16533613e-001, 5.19932330e-001,
          3.82946551e-001, 5.22070050e-001, 5.38872361e-001,
          4.16921586e-001, 5.26663363e-001, 5.08368015e-001,
          5.01816511e-001, 5.79787254e-001, 5.62712669e-001,
          4.70993042e-001, 4.26797122e-001, 4.86568630e-001,
          5.36017358e-001 ]
      - [ 8.34463239e-001, 2.85051316e-001, 4.79649156e-001,
          6.63031101e-001, 4.51938212e-001, 6.01606071e-001,
          6.05529904e-001, 6.49807274e-001, 3.45852256e-001,
          6.16867781e-001, 5.44446409e-001, 4.31313217e-001,
          4.09447014e-001, 6.19466186e-001, 4.87899274e-001,
          4.97893512e-001, 5.60362279e-001, 4.86889213e-001,
          5.18714607e-001, 5.33061147e-001, 4.34234738e-001,
          5.58198154e-001, 5.14146388e-001, 5.19799054e-001,
          4.72958744e-001 ]
      - [ 8.08120489e-001, 4.87926930e-001, 7.10488021e-001,
          6.49098516e-001, 6.44238532e-001, 5.78266978e-001,
          6.56086206e-001, 5.12249291e-001, 4.08283442e-001,
          4.58181918e-001, 5.57187021e-001, 3.98231268e-001,
          5.73868155e-001, 6.31175399e-001, 4.53221619e-001,
          5.49583197e-001, 5.32127440e-001, 4.95710552e-001,
          5.07453024e-001, 4.08455670e-001, 4.15093154e-001,
          4.94499058e-001, 4.89140809e-001, 5.52486598e-001,
          4.34378594e-001 ]
      - [ 7.70671368e-001, 6.06755972e-001, 4.01458740e-001,
          5.74681640e-001, 5.07751346e-001, 5.44436693e-001,
          3.82945001e-001, 5.58866620e-001, 4.03105289e-001,
          4.90160704e-001, 4.99187380e-001, 5.46622872e-001,
          3.04270804e-001, 4.88010585e-001, 4.97469306e-001,
          3.72732759e-001, 6.32975638e-001, 5.05399644e-001,
          4.83411431e-001, 5.49336851e-001, 6.03114009e-001,
          4.37553585e-001, 4.65379864e-001, 5.58783889e-001,
          5.66145003e-001 ]
      - [ 8.39364111e-001, 5.81143558e-001, 3.41638744e-001,
          4.96275753e-001, 4.86375839e-001, 4.92642820e-001,
          4.21587914e-001, 6.72694802e-001, 4.14705187e-001,
          5.21716475e-001, 4.96974826e-001, 5.04261315e-001,
          3.70027065e-001, 5.23069859e-001, 5.02115905e-001,
          4.64924723e-001, 5.70410430e-001, 5.41228235e-001,
          4.78821963e-001, 5.52055299e-001, 5.70554793e-001,
          4.46432561e-001, 4.72639114e-001, 4.97938335e-001,
          5.01871526e-001 ]
      - [ 7.54830122e-001, 6.07700706e-001, 6.43208802e-001,
          6.03065789e-001, 4.70323086e-001, 5.56069493e-001,
          6.05495214e-001, 5.58276296e-001, 3.51806998e-001,
          4.23543572e-001, 4.92801905e-001, 5.61655164e-001,
          5.77462733e-001, 4.98787403e-001, 5.39586306e-001,
          6.04130149e-001, 4.08712924e-001, 4.77278531e-001,
          4.82499272e-001, 5.09320974e-001, 4.46615040e-001,
          5.12839377e-001, 4.54479516e-001, 5.91588020e-001,
          3.61153722e-001 ]
      - [ 7.38527238e-001, 6.23419285e-001, 3.88765663e-001,
          5.67636609e-001, 4.93992597e-001, 5.22148848e-001,
          3.69848609e-001, 5.44717968e-001, 4.11611199e-001,
          4.74038482e-001, 4.98324513e-001, 5.33553839e-001,
          3.12866926e-001, 4.80831802e-001, 5.01760304e-001,
          3.94810885e-001, 6.39497519e-001, 5.02093673e-001,
          4.69251901e-001, 5.31461954e-001, 5.91275990e-001,
          4.19431031e-001, 4.75107461e-001, 5.46360731e-001,
          5.82969904e-001 ]
      - [ 7.94589639e-001, 5.75948775e-001, 4.21881467e-001,
          5.05226552e-001, 5.24085343e-001, 5.45597494e-001,
          3.09653819e-001, 7.34030008e-001, 4.11125869e-001,
          5.08243859e-001, 4.73460019e-001, 4.79914576e-001,
          4.00826812e-001, 5.59188724e-001, 5.42524636e-001,
          4.08870161e-001, 5.76063812e-001, 5.29830933e-001,
          4.03225034e-001, 4.98012602e-001, 5.51033616e-001,
          4.11893606e-001, 5.41283906e-001, 4.54647988e-001,
          4.23459172e-001 ]
      - [ 6.46828592e-001, 7.52099514e-001, 4.05808657e-001,
          6.12922072e-001, 4.92997527e-001, 4.55385327e-001,
          5.91473341e-001, 4.89469290e-001, 4.11514044e-001,
          4.12441701e-001, 4.46489632e-001, 5.25658548e-001,
          4.40886080e-001, 3.59538794e-001, 4.28667516e-001,
          5.27382374e-001, 4.40286785e-001, 5.15325248e-001,
          4.80749875e-001, 4.13908988e-001, 5.34437418e-001,
          4.44289625e-001, 5.32551706e-001, 5.15405178e-001,
          5.29751837e-001 ]
      - [ 7.33749747e-001, 6.84900582e-001, 5.60210347e-001,
          6.56840563e-001, 6.99523091e-001, 5.32375336e-001,
          6.57570899e-001, 5.72315753e-001, 3.51092935e-001,
          4.00385380e-001, 4.38319385e-001, 4.40925092e-001,
          5.53278685e-001, 4.37173456e-001, 4.56108838e-001,
          5.41900218e-001, 4.26769137e-001, 5.26578486e-001,
          5.25067091e-001, 3.31990868e-001, 5.04145265e-001,
          5.06318986e-001, 4.64663923e-001, 4.75053281e-001,
          4.41402078e-001 ]
      - [ 8.95822465e-001, 5.14865696e-001, 5.15701294e-001,
          6.73533499e-001, 6.70273304e-001, 5.95294118e-001,
          6.10450864e-001, 5.28191686e-001, 3.59315336e-001,
          3.41054618e-001, 5.70766509e-001, 5.19410133e-001,
          5.27494311e-001, 5.31770706e-001, 5.06134570e-001,
          4.66039658e-001, 5.36181808e-001, 4.97017354e-001,
          5.23896158e-001, 3.87624413e-001, 3.57649386e-001,
          4.79018927e-001, 4.37123895e-001, 4.14325774e-001,
          4.66481745e-001 ]
      - [ 7.33568728e-001, 6.18820429e-001, 3.70023161e-001,
          6.63391948e-001, 5.23822665e-001, 5.13648987e-001,
          4.61397588e-001, 5.06838799e-001, 3.46471608e-001,
          5.43231845e-001, 4.60433662e-001, 4.98545498e-001,
          4.19127077e-001, 3.94134641e-001, 4.41565037e-001,
          4.88308430e-001, 3.57505202e-001, 4.44250911e-001,
          4.97292191e-001, 5.13593018e-001, 5.94131708e-001,
          4.53610271e-001, 4.88898665e-001, 4.58092332e-001,
          4.98683870e-001 ]
      - [ 7.32248127e-001, 6.14399552e-001, 5.53198934e-001,
          6.56991303e-001, 6.01054311e-001, 4.20127481e-001,
          6.72485292e-001, 5.41156709e-001, 3.63956839e-001,
          5.56630611e-001, 5.04151464e-001, 5.40209115e-001,
          5.31965852e-001, 5.24320245e-001, 4.45269436e-001,
          5.03437579e-001, 3.65854532e-001, 4.66247737e-001,
          4.55920786e-001, 5.09803534e-001, 4.94891435e-001,
          5.30407667e-001, 3.94444525e-001, 5.50538301e-001,
          4.75688815e-001 ]
      - [ 8.25596809e-001, 6.83079720e-001, 3.62017721e-001,
          4.68974531e-001, 4.81267720e-001, 5.90101838e-001,
          5.12211204e-001, 5.43693483e-001, 3.40938747e-001,
          3.77440393e-001, 5.00662565e-001, 5.79701304e-001,
          4.36922491e-001, 3.92794520e-001, 5.50098300e-001,
          5.01223803e-001, 6.41574383e-001, 5.62604606e-001,
          5.17044663e-001, 4.87036943e-001, 4.41055596e-001,
          3.64312768e-001, 5.11911154e-001, 5.20587385e-001,
          5.25964797e-001 ]
      - [ 8.46906304e-001, 3.28174323e-001, 5.09180009e-001,
          7.05855191e-001, 4.85064149e-001, 6.65903449e-001,
          6.11030936e-001, 6.09455824e-001, 3.55644047e-001,
          6.22726619e-001, 5.54660380e-001, 4.19222891e-001,
          4.52987909e-001, 6.22136891e-001, 4.82695878e-001,
          5.04736245e-001, 6.01768553e-001, 4.71768081e-001,
          4.99343753e-001, 5.09212315e-001, 4.24034178e-001,
          5.23515224e-001, 5.07122993e-001, 5.43979168e-001,
          4.76929963e-001 ]
      - [ 7.67463207e-001, 5.52423477e-001, 6.62055314e-001,
          6.25238776e-001, 5.19883156e-001, 4.93012011e-001,
          4.85473841e-001, 5.61208963e-001, 3.98364782e-001,
          5.23944557e-001, 5.52811921e-001, 4.06042635e-001,
          5.66441774e-001, 4.97157156e-001, 4.86345112e-001,
          4.47633624e-001, 4.44398701e-001, 4.65464473e-001,
          4.96714950e-001, 4.05678391e-001, 4.73680943e-001,
          4.73337531e-001, 4.22638744e-001, 5.15924215e-001,
          4.20486540e-001 ]
      - [ 8.64380836e-001, 4.31222886e-001, 6.39245570e-001,
          6.29170537e-001, 5.34969211e-001, 6.06582761e-001,
          4.17358607e-001, 6.18037045e-001, 3.59658211e-001,
          4.09636378e-001, 5.16594470e-001, 3.70289952e-001,
          4.46103632e-001, 5.14089942e-001, 5.80239236e-001,
          4.46310282e-001, 4.59284037e-001, 4.45596576e-001,
          4.96279269e-001, 4.42249656e-001, 4.01091158e-001,
          4.74364698e-001, 4.70766336e-001, 4.08013880e-001,
          4.29782629e-001 ]
      - [ 8.05946290e-001, 3.68762970e-001, 3.83168936e-001,
          7.65637279e-001, 5.56946158e-001, 6.03858232e-001,
          5.18989086e-001, 5.75748682e-001, 3.51675749e-001,
          6.07001901e-001, 4.67548311e-001, 5.46348691e-001,
          3.50097299e-001, 5.65020025e-001, 5.45886338e-001,
          3.98479968e-001, 4.65608001e-001, 4.28429961e-001,
          4.70724136e-001, 5.67101061e-001, 4.35988128e-001,
          5.37448883e-001, 4.06453013e-001, 4.64633465e-001,
          5.26306629e-001 ]
      - [ 8.98323178e-001, 5.52810013e-001, 3.83338362e-001,
          6.06476247e-001, 5.37793696e-001, 6.17237806e-001,
          5.79051197e-001, 5.24234593e-001, 2.73930252e-001,
          4.08888072e-001, 5.05642951e-001, 5.25864363e-001,
          4.41410094e-001, 3.92378271e-001, 5.32021344e-001,
          5.20904422e-001, 4.79178518e-001, 5.03221571e-001,
          5.15589297e-001, 4.49099123e-001, 4.08190131e-001,
          4.17993784e-001, 4.48188663e-001, 4.83385354e-001,
          5.30457854e-001 ]
      - [ 7.35356927e-001, 6.02981746e-001, 4.79812056e-001,
          6.42014980e-001, 5.71536660e-001, 4.02426660e-001,
          5.22620797e-001, 5.04035354e-001, 4.17847157e-001,
          4.76382554e-001, 4.76327896e-001, 5.19648790e-001,
          4.75121707e-001, 4.46315646e-001, 4.55204844e-001,
          4.56223696e-001, 3.03671658e-001, 4.87655342e-001,
          4.85648334e-001, 4.27610785e-001, 5.41835785e-001,
          4.92982566e-001, 4.76631194e-001, 4.76526439e-001,
          4.81464446e-001 ]
      - [ 7.53844976e-001, 6.25662148e-001, 2.99117625e-001,
          4.70973879e-001, 4.79135484e-001, 5.29502571e-001,
          3.64746898e-001, 5.51930904e-001, 3.41578305e-001,
          5.09647012e-001, 4.57509547e-001, 5.44629455e-001,
          3.46106797e-001, 4.84315842e-001, 5.61200023e-001,
          4.18109417e-001, 5.95304430e-001, 5.32493889e-001,
          4.59386766e-001, 5.98679006e-001, 5.07263720e-001,
          4.43869591e-001, 5.10081470e-001, 4.37127352e-001,
          5.52943110e-001 ]
      - [ 9.01908159e-001, 5.63652396e-001, 5.36616743e-001,
          5.57850361e-001, 5.86078286e-001, 5.88100493e-001,
          4.69802111e-001, 6.59370065e-001, 3.56971085e-001,
          3.26576650e-001, 5.82311332e-001, 5.36352634e-001,
          4.67054039e-001, 4.62400228e-001, 5.83766341e-001,
          4.29500699e-001, 5.44387162e-001, 5.13948798e-001,
          5.36233246e-001, 4.04943883e-001, 4.20288682e-001,
          4.24061447e-001, 4.78079230e-001, 4.59535331e-001,
          4.15823281e-001 ]
      - [ 7.92168319e-001, 5.72289526e-001, 6.33410215e-001,
          6.90607190e-001, 5.64372003e-001, 5.20191967e-001,
          5.38486838e-001, 5.42601764e-001, 3.68586063e-001,
          4.21256423e-001, 5.96833944e-001, 4.12879407e-001,
          5.38242102e-001, 5.73368549e-001, 4.83862489e-001,
          4.71878469e-001, 5.06865859e-001, 4.82387811e-001,
          4.96860087e-001, 5.19004703e-001, 4.57348883e-001,
          4.93627697e-001, 4.22655106e-001, 4.48542595e-001,
          4.71536398e-001 ]
      - [ 7.40255594e-001, 5.55633605e-001, 5.04849851e-001,
          6.82447791e-001, 4.88385469e-001, 5.34982800e-001,
          4.39471811e-001, 4.79861856e-001, 3.29507589e-001,
          5.62435448e-001, 5.01816988e-001, 4.32759792e-001,
          4.94786024e-001, 4.50873613e-001, 4.88985717e-001,
          4.18555140e-001, 3.99106741e-001, 4.39095944e-001,
          4.86557513e-001, 5.46369672e-001, 5.20652533e-001,
          4.45066690e-001, 4.52456445e-001, 4.86075819e-001,
          5.36130607e-001 ]
      - [ 7.75448203e-001, 5.98851621e-001, 4.93376076e-001,
          5.33972383e-001, 4.95793998e-001, 4.99935955e-001,
          2.93203354e-001, 5.94209015e-001, 3.94480407e-001,
          3.98686558e-001, 4.99997228e-001, 4.73441720e-001,
          4.15195614e-001, 4.90651280e-001, 5.90009570e-001,
          4.86752719e-001, 5.19823074e-001, 5.33718169e-001,
          4.14402992e-001, 4.87367719e-001, 5.42748451e-001,
          4.68799919e-001, 4.68638271e-001, 4.10287052e-001,
          4.00292337e-001 ]
      - [ 7.47236013e-001, 6.58266068e-001, 5.66765010e-001,
          6.69493139e-001, 5.84051490e-001, 5.11084914e-001,
          5.34622014e-001, 5.30193329e-001, 3.56145442e-001,
          3.57456923e-001, 5.77121377e-001, 4.27929193e-001,
          5.13015449e-001, 4.22639847e-001, 4.61163163e-001,
          4.59489763e-001, 5.26428759e-001, 5.20694256e-001,
          4.75481272e-001, 4.42906171e-001, 4.75468874e-001,
          5.05283952e-001, 4.45602477e-001, 4.33497101e-001,
          4.61290061e-001 ]
      - [ 8.44843566e-001, 3.23045045e-001, 7.23362625e-001,
          6.23208284e-001, 5.94115973e-001, 6.59306407e-001,
          5.60639322e-001, 6.00267828e-001, 3.64370316e-001,
          4.61302161e-001, 5.44967413e-001, 4.68388081e-001,
          5.07377088e-001, 6.58018529e-001, 5.08464098e-001,
          5.22628188e-001, 5.33480227e-001, 4.37871516e-001,
          5.58470488e-001, 5.06240308e-001, 3.40104878e-001,
          5.03645182e-001, 5.51888704e-001, 4.82260704e-001,
          4.33115661e-001 ]
      - [ 7.72856355e-001, 4.40606982e-001, 7.67656147e-001,
          6.39066279e-001, 6.53928638e-001, 6.08331263e-001,
          6.40655100e-001, 5.87782443e-001, 3.90011519e-001,
          4.64052171e-001, 5.49504042e-001, 3.75169545e-001,
          5.68375170e-001, 6.34808183e-001, 4.31051970e-001,
          5.85489273e-001, 5.74380040e-001, 4.69946444e-001,
          4.75007176e-001, 4.86430466e-001, 3.87878478e-001,
          4.78209615e-001, 4.78960007e-001, 5.08410037e-001,
          4.57997143e-001 ]
      - [ 7.45642662e-001, 6.46349192e-001, 5.86706161e-001,
          5.84042072e-001, 6.11263871e-001, 5.19738317e-001,
          7.53918171e-001, 4.59882110e-001, 3.79805803e-001,
          4.65131640e-001, 4.98633921e-001, 4.49372321e-001,
          6.11514211e-001, 3.97085547e-001, 5.18551230e-001,
          5.65399766e-001, 3.78161877e-001, 5.19260764e-001,
          4.86121237e-001, 4.05388027e-001, 4.47277218e-001,
          5.24840057e-001, 4.29967642e-001, 5.07895410e-001,
          4.68082696e-001 ]
      - [ 8.12368095e-001, 4.47210521e-001, 4.79067922e-001,
          6.76456034e-001, 5.75320959e-001, 5.34522116e-001,
          4.57892686e-001, 6.09581232e-001, 4.11295712e-001,
          4.76297528e-001, 5.74042261e-001, 5.44108808e-001,
          3.41359645e-001, 5.44799387e-001, 4.66896355e-001,
          3.95830512e-001, 5.15792549e-001, 4.65035826e-001,
          4.72571582e-001, 5.81222892e-001, 5.77786148e-001,
          5.53533912e-001, 4.32207644e-001, 4.75192100e-001,
          5.50270140e-001 ]
      - [ 7.92951584e-001, 4.33490425e-001, 6.42791629e-001,
          7.32355356e-001, 5.64580142e-001, 5.84039271e-001,
          5.74676573e-001, 5.95047235e-001, 3.85544121e-001,
          4.93410349e-001, 5.52095830e-001, 4.77553755e-001,
          5.51974118e-001, 6.42195284e-001, 4.56370890e-001,
          4.82384801e-001, 5.32080054e-001, 4.33376461e-001,
          5.02336979e-001, 4.91359830e-001, 3.78282487e-001,
          4.73776996e-001, 4.09204513e-001, 4.38509822e-001,
          4.63384837e-001 ]
      - [ 7.54221857e-001, 5.32254577e-001, 6.16832376e-001,
          5.13088644e-001, 3.25998276e-001, 5.45597017e-001,
          5.72144151e-001, 5.08724153e-001, 2.70261824e-001,
          4.94186342e-001, 4.53761280e-001, 4.28825885e-001,
          6.02492094e-001, 3.50519776e-001, 5.22216976e-001,
          5.23111343e-001, 4.99311209e-001, 4.37973738e-001,
          5.32891750e-001, 4.81133372e-001, 4.45417941e-001,
          5.28041542e-001, 4.90121156e-001, 5.30720353e-001,
          4.50871110e-001 ]
      - [ 7.32627749e-001, 5.99936604e-001, 3.49958658e-001,
          6.80425644e-001, 4.71345901e-001, 5.23164392e-001,
          4.67285275e-001, 5.40441275e-001, 3.33612025e-001,
          4.61698383e-001, 4.62324023e-001, 4.94110107e-001,
          3.87934983e-001, 4.27104831e-001, 4.53468740e-001,
          5.59501708e-001, 4.77152526e-001, 4.59300220e-001,
          4.55387652e-001, 5.73769271e-001, 5.10713637e-001,
          4.80016023e-001, 4.84541863e-001, 4.27028984e-001,
          5.15367806e-001 ]
      - [ 8.01458120e-001, 5.44441700e-001, 3.69241774e-001,
          5.88509083e-001, 5.60382009e-001, 5.26797771e-001,
          4.10981834e-001, 6.15652621e-001, 4.38108176e-001,
          4.57585782e-001, 5.23570061e-001, 5.92263579e-001,
          3.40775877e-001, 5.07973194e-001, 4.43202466e-001,
          4.36776161e-001, 5.86785495e-001, 5.10309577e-001,
          4.73996907e-001, 6.10021353e-001, 5.45906544e-001,
          4.75241452e-001, 4.51478302e-001, 4.27725762e-001,
          5.54347575e-001 ]
      - [ 8.01279068e-001, 5.73328197e-001, 5.81494927e-001,
          6.37071848e-001, 4.77268547e-001, 5.38907528e-001,
          5.25086224e-001, 4.64309692e-001, 3.47891837e-001,
          4.53893363e-001, 5.06675303e-001, 3.94895226e-001,
          5.05573750e-001, 4.20187294e-001, 5.34734845e-001,
          4.92941111e-001, 3.91772330e-001, 4.59044397e-001,
          5.40245473e-001, 4.29380238e-001, 4.39796150e-001,
          5.00210226e-001, 4.29217160e-001, 5.33413351e-001,
          4.63287890e-001 ]
      - [ 7.18726337e-001, 7.03468502e-001, 3.74638081e-001,
          6.39117122e-001, 4.74804550e-001, 5.60189962e-001,
          5.01335979e-001, 5.06010056e-001, 2.90321410e-001,
          4.86234725e-001, 4.76046801e-001, 4.89538282e-001,
          3.82124573e-001, 3.61977667e-001, 4.37245160e-001,
          4.91586179e-001, 4.60367739e-001, 4.66087520e-001,
          4.86382991e-001, 4.90354121e-001, 5.45298874e-001,
          4.12857652e-001, 5.47029138e-001, 4.78872627e-001,
          5.11897087e-001 ]
      - [ 7.95400083e-001, 4.77578104e-001, 3.68302584e-001,
          5.40712595e-001, 5.71454167e-001, 5.54927230e-001,
          3.80337149e-001, 6.07897043e-001, 4.52203423e-001,
          4.70499843e-001, 5.61453581e-001, 6.49434090e-001,
          2.83623219e-001, 5.02734125e-001, 4.42325652e-001,
          4.36949939e-001, 6.25410080e-001, 5.28588712e-001,
          5.02819777e-001, 6.14331603e-001, 5.87668955e-001,
          4.89883929e-001, 4.52132225e-001, 4.33052868e-001,
          5.47468483e-001 ]
      - [ 8.06825638e-001, 4.28313226e-001, 6.93011999e-001,
          7.02405334e-001, 5.17156065e-001, 6.70438886e-001,
          4.83219087e-001, 5.90227008e-001, 3.59906554e-001,
          4.94129747e-001, 4.99401569e-001, 4.21213061e-001,
          5.70089579e-001, 5.94488740e-001, 5.01725495e-001,
          4.65973586e-001, 5.20741999e-001, 4.35172439e-001,
          5.26996434e-001, 4.48080987e-001, 4.14325476e-001,
          4.51335549e-001, 4.15743023e-001, 4.71740454e-001,
          4.26632285e-001 ]
      - [ 7.70407557e-001, 5.80914617e-001, 2.56846279e-001,
          4.98194903e-001, 5.53505301e-001, 5.84443688e-001,
          3.98184597e-001, 5.54214656e-001, 3.83113325e-001,
          4.60870773e-001, 4.95402575e-001, 6.38496876e-001,
          3.27598751e-001, 4.65077758e-001, 5.32827616e-001,
          4.93883163e-001, 6.16888762e-001, 4.80788112e-001,
          4.88527030e-001, 6.01234317e-001, 3.99435610e-001,
          4.23213333e-001, 5.16407669e-001, 4.28002685e-001,
          5.96648395e-001 ]
      - [ 7.77334332e-001, 5.22995114e-001, 6.65458977e-001,
          6.32164001e-001, 6.53860688e-001, 4.58467782e-001,
          6.77057981e-001, 5.34224093e-001, 4.13898408e-001,
          4.83954608e-001, 5.30512214e-001, 4.98763144e-001,
          5.95211267e-001, 6.24791622e-001, 4.70260739e-001,
          5.02579629e-001, 4.23442006e-001, 4.83317107e-001,
          4.49211538e-001, 4.57493633e-001, 4.19514775e-001,
          5.26245415e-001, 4.41140234e-001, 5.18247306e-001,
          4.69960451e-001 ]
      - [ 8.23662758e-001, 4.23134029e-001, 6.93883002e-001,
          6.99199438e-001, 5.40852904e-001, 6.66516960e-001,
          4.98282522e-001, 5.79435766e-001, 3.58945549e-001,
          4.93579388e-001, 5.21551728e-001, 4.04930353e-001,
          5.52766860e-001, 6.28123283e-001, 5.12623191e-001,
          4.74201292e-001, 5.30152261e-001, 4.36328202e-001,
          5.22196174e-001, 4.71094251e-001, 4.29445386e-001,
          4.66089576e-001, 4.48264509e-001, 4.99038219e-001,
          4.30722117e-001 ]
      - [ 7.52935708e-001, 5.96854746e-001, 4.92066145e-001,
          6.44184768e-001, 4.83805716e-001, 4.31011975e-001,
          4.82054591e-001, 5.64592063e-001, 4.21415627e-001,
          4.74325091e-001, 5.14379561e-001, 4.78181392e-001,
          4.88081485e-001, 4.63905364e-001, 4.48797584e-001,
          4.69635248e-001, 4.63821918e-001, 4.89910662e-001,
          4.99674618e-001, 5.79346657e-001, 5.33672869e-001,
          4.63498503e-001, 4.27845627e-001, 5.02985358e-001,
          5.24371982e-001 ]
      - [ 6.91837251e-001, 4.78879243e-001, 6.65673792e-001,
          6.95500612e-001, 6.57778084e-001, 5.15886128e-001,
          6.81215048e-001, 5.23682952e-001, 4.39205676e-001,
          5.24180591e-001, 4.49733973e-001, 4.24116611e-001,
          5.88095844e-001, 6.00258827e-001, 3.92346382e-001,
          5.55499613e-001, 3.83176744e-001, 4.27648395e-001,
          5.42833447e-001, 4.83930588e-001, 4.96231198e-001,
          5.60854733e-001, 5.07141769e-001, 4.75248486e-001,
          5.09377539e-001 ]
      - [ 8.05261374e-001, 5.82307577e-001, 5.66506982e-001,
          6.26071692e-001, 5.12773335e-001, 5.46748638e-001,
          5.17050326e-001, 4.70332742e-001, 3.15484285e-001,
          5.05359530e-001, 5.00763535e-001, 4.03251767e-001,
          4.83950764e-001, 4.20254260e-001, 5.36457241e-001,
          5.04552007e-001, 3.54805231e-001, 4.55949485e-001,
          4.98678058e-001, 4.66402709e-001, 4.89319295e-001,
          5.12244701e-001, 4.15047228e-001, 5.08966446e-001,
          4.67861652e-001 ]
      - [ 8.48475873e-001, 4.04343456e-001, 6.71103835e-001,
          6.72984123e-001, 5.29593468e-001, 6.44219160e-001,
          4.88869995e-001, 5.65293789e-001, 3.93219292e-001,
          4.59667802e-001, 5.56672335e-001, 3.80147547e-001,
          4.70842034e-001, 5.96527755e-001, 5.06698072e-001,
          5.02228498e-001, 4.89047766e-001, 4.36258048e-001,
          5.53959250e-001, 5.01111805e-001, 4.50818151e-001,
          5.04594326e-001, 4.62195247e-001, 4.93689328e-001,
          4.15514141e-001 ]
      - [ 7.02137589e-001, 6.43556595e-001, 6.16019845e-001,
          7.30382919e-001, 5.92864811e-001, 5.28521121e-001,
          5.93129635e-001, 5.42670369e-001, 3.64744484e-001,
          4.93715256e-001, 4.81497169e-001, 4.54187065e-001,
          6.38656497e-001, 5.21022558e-001, 4.37766552e-001,
          4.70928699e-001, 4.45527494e-001, 5.04288554e-001,
          4.97081876e-001, 3.39976609e-001, 4.81183678e-001,
          5.47902226e-001, 4.47873741e-001, 4.63070154e-001,
          4.26460624e-001 ]
      - [ 8.37962091e-001, 5.80558240e-001, 2.85822719e-001,
          5.35660565e-001, 5.86162567e-001, 6.61531925e-001,
          4.30313349e-001, 6.21294618e-001, 4.31487769e-001,
          4.44228530e-001, 4.87139255e-001, 6.83509707e-001,
          2.54375815e-001, 5.42905927e-001, 5.26875257e-001,
          4.15095478e-001, 6.44774735e-001, 4.69178885e-001,
          4.81441975e-001, 6.17632747e-001, 4.54146653e-001,
          4.38599139e-001, 5.03430903e-001, 5.30872643e-001,
          6.40519857e-001 ]
      - [ 7.21304178e-001, 5.41398585e-001, 6.85019016e-001,
          6.52526319e-001, 7.26128101e-001, 5.11874437e-001,
          7.04302073e-001, 5.46590507e-001, 3.92475963e-001,
          4.88008827e-001, 4.45599943e-001, 4.07696962e-001,
          6.03011668e-001, 5.91229081e-001, 4.62030441e-001,
          5.56663275e-001, 3.95898283e-001, 4.89603698e-001,
          5.03506303e-001, 3.68073642e-001, 4.78353798e-001,
          5.24546683e-001, 5.14750183e-001, 4.43997264e-001,
          4.83898610e-001 ]
      - [ 8.17436934e-001, 6.37750983e-001, 3.46115589e-001,
          5.53260028e-001, 6.30867660e-001, 5.80560982e-001,
          5.98839760e-001, 5.54791927e-001, 4.18692112e-001,
          4.31106865e-001, 5.25813580e-001, 6.78100288e-001,
          3.74534696e-001, 4.42609549e-001, 4.31186289e-001,
          4.48000878e-001, 5.23989260e-001, 5.21603286e-001,
          4.68126714e-001, 5.54021239e-001, 6.22399926e-001,
          4.55993980e-001, 4.49848354e-001, 5.83202004e-001,
          5.64588726e-001 ]
      - [ 6.92776203e-001, 4.36583340e-001, 7.34761238e-001,
          5.84171772e-001, 4.41929430e-001, 5.09153247e-001,
          4.34321851e-001, 6.13434196e-001, 4.45303321e-001,
          6.06903434e-001, 4.90344077e-001, 4.65297043e-001,
          5.96878350e-001, 4.86179799e-001, 4.84057397e-001,
          3.95501941e-001, 3.65993887e-001, 4.56996977e-001,
          5.11152625e-001, 4.25356239e-001, 4.91469175e-001,
          4.54816073e-001, 4.86028314e-001, 5.35546303e-001,
          3.85137916e-001 ]
      - [ 8.07169199e-001, 4.53096628e-001, 7.11724162e-001,
          6.62142038e-001, 6.22580945e-001, 6.05527878e-001,
          6.49770617e-001, 5.37856162e-001, 3.86404216e-001,
          4.34142321e-001, 5.54908931e-001, 4.40835416e-001,
          6.17985368e-001, 6.49887800e-001, 4.94355083e-001,
          5.64846516e-001, 5.83579779e-001, 4.62252855e-001,
          5.08130610e-001, 4.98144984e-001, 3.15284491e-001,
          5.00436783e-001, 4.45995867e-001, 5.15150070e-001,
          4.60267454e-001 ]
      - [ 8.06370318e-001, 5.90180457e-001, 5.65341651e-001,
          6.33959651e-001, 5.12956023e-001, 5.48021436e-001,
          5.29759467e-001, 4.69931334e-001, 3.23607087e-001,
          4.93264616e-001, 5.10527015e-001, 3.97736907e-001,
          4.94040519e-001, 4.20613706e-001, 5.26527822e-001,
          5.09951413e-001, 3.66919756e-001, 4.58737433e-001,
          5.06569028e-001, 4.61445630e-001, 4.81617540e-001,
          4.86932933e-001, 4.15587902e-001, 5.10417163e-001,
          4.73513573e-001 ]
      - [ 7.38781989e-001, 5.27602315e-001, 4.66985703e-001,
          7.11406946e-001, 5.21578908e-001, 5.42465270e-001,
          4.10960317e-001, 5.29083908e-001, 3.61245632e-001,
          4.68924403e-001, 4.99393731e-001, 4.71960187e-001,
          4.49551821e-001, 4.73034263e-001, 4.68887389e-001,
          4.60203350e-001, 4.08624440e-001, 4.19650257e-001,
          4.53884065e-001, 5.55311561e-001, 4.92027104e-001,
          4.76315588e-001, 4.73656625e-001, 4.43913341e-001,
          4.89474595e-001 ]
      - [ 6.95444405e-001, 5.49097538e-001, 5.79753518e-001,
          6.72133565e-001, 6.47399604e-001, 5.05935073e-001,
          7.69814610e-001, 4.91705894e-001, 3.21630597e-001,
          5.53674757e-001, 4.67196196e-001, 4.61639911e-001,
          6.11861229e-001, 4.91003484e-001, 4.31462824e-001,
          6.15922809e-001, 3.46912771e-001, 3.97282541e-001,
          5.07008493e-001, 4.56052393e-001, 4.44040656e-001,
          5.55719256e-001, 5.45107067e-001, 4.11570758e-001,
          4.99957740e-001 ]
      - [ 7.59298265e-001, 7.76593685e-001, 4.68409419e-001,
          6.57784343e-001, 6.67400837e-001, 6.04055226e-001,
          6.52903438e-001, 5.97615242e-001, 3.52226615e-001,
          3.63134414e-001, 5.19008994e-001, 5.60561299e-001,
          4.40953672e-001, 4.78285283e-001, 4.97402966e-001,
          4.84897733e-001, 4.99399394e-001, 5.19488215e-001,
          5.35182953e-001, 3.95319015e-001, 5.44551075e-001,
          4.77820218e-001, 5.36771476e-001, 4.53756332e-001,
          4.05241579e-001 ]
      - [ 7.88932860e-001, 6.59379780e-001, 3.87453407e-001,
          5.22186697e-001, 5.17573237e-001, 5.92520297e-001,
          4.38647151e-001, 5.96865058e-001, 3.91673446e-001,
          4.20685589e-001, 5.76340675e-001, 5.86665571e-001,
          2.81604141e-001, 5.12037933e-001, 5.00201583e-001,
          4.61008638e-001, 6.59591675e-001, 5.22345960e-001,
          4.91522193e-001, 5.76118588e-001, 6.16575241e-001,
          4.00632083e-001, 5.24982989e-001, 5.09001374e-001,
          5.45978904e-001 ]
      - [ 7.08030939e-001, 7.68641949e-001, 3.85320157e-001,
          5.58406055e-001, 5.01093268e-001, 5.64198673e-001,
          6.84888184e-001, 4.60662156e-001, 2.53536463e-001,
          4.22633082e-001, 4.93628711e-001, 4.75052893e-001,
          4.03966606e-001, 2.64910877e-001, 4.49474394e-001,
          4.67451990e-001, 5.80939651e-001, 3.71613324e-001,
          5.56713223e-001, 3.71940374e-001, 5.12128353e-001,
          4.57928002e-001, 5.53265631e-001, 5.35826147e-001,
          4.05676782e-001 ]
      - [ 6.74059093e-001, 5.97921252e-001, 3.79912257e-001,
          5.45387089e-001, 5.10694206e-001, 4.91975158e-001,
          4.30022776e-001, 5.01138330e-001, 4.41839576e-001,
          6.19797289e-001, 5.67328215e-001, 5.02652109e-001,
          3.90550196e-001, 4.42054033e-001, 4.46151078e-001,
          4.89987612e-001, 4.17724967e-001, 4.39461291e-001,
          5.02617002e-001, 5.06725669e-001, 5.83428264e-001,
          3.68687302e-001, 5.71192384e-001, 5.22333443e-001,
          4.73668307e-001 ]
      - [ 9.32182610e-001, 4.84642118e-001, 4.87927139e-001,
          6.25533938e-001, 6.35887206e-001, 6.40631676e-001,
          6.26438141e-001, 5.26385307e-001, 3.07615608e-001,
          4.19639349e-001, 5.83206236e-001, 4.79894102e-001,
          4.67999607e-001, 4.75290269e-001, 5.17060161e-001,
          5.17201662e-001, 4.90988076e-001, 4.51536953e-001,
          5.22373557e-001, 3.78936440e-001, 3.83286238e-001,
          4.19375330e-001, 4.12157685e-001, 4.76735830e-001,
          4.61054951e-001 ]
      - [ 7.20806181e-001, 5.44463992e-001, 5.73932111e-001,
          6.19178355e-001, 5.59816599e-001, 3.73564959e-001,
          6.34117723e-001, 5.19236088e-001, 4.14391309e-001,
          5.78880608e-001, 5.84738910e-001, 4.82434124e-001,
          5.20870626e-001, 4.66016144e-001, 4.39805537e-001,
          4.60593402e-001, 3.64976823e-001, 4.70036119e-001,
          4.74244356e-001, 5.03776073e-001, 4.54118371e-001,
          5.06424785e-001, 4.15829927e-001, 5.00998974e-001,
          4.52333689e-001 ]
      - [ 6.61290228e-001, 6.87084854e-001, 3.78258318e-001,
          6.02862358e-001, 4.73075360e-001, 5.33126950e-001,
          3.96360964e-001, 4.94657934e-001, 3.27283621e-001,
          5.79106510e-001, 5.03545702e-001, 4.96752769e-001,
          4.51034665e-001, 3.88927221e-001, 4.63247389e-001,
          4.55921561e-001, 4.72974360e-001, 4.62835699e-001,
          4.78733629e-001, 5.47657788e-001, 5.81599951e-001,
          3.96963298e-001, 5.43445885e-001, 5.01067817e-001,
          5.37503004e-001 ]
      - [ 7.65539765e-001, 6.20090127e-001, 4.57657814e-001,
          6.23571038e-001, 5.50834298e-001, 5.48989296e-001,
          4.12460685e-001, 5.94105780e-001, 3.54969800e-001,
          3.76021624e-001, 5.31355381e-001, 6.26607418e-001,
          3.42704445e-001, 5.27420640e-001, 5.15027821e-001,
          3.64446223e-001, 5.98261952e-001, 4.57815915e-001,
          5.41994393e-001, 5.68614841e-001, 4.38340962e-001,
          4.70707744e-001, 5.39150000e-001, 4.52672273e-001,
          5.42311609e-001 ]
      - [ 7.36907184e-001, 5.33162534e-001, 4.40820277e-001,
          6.98522925e-001, 5.37370622e-001, 4.26477730e-001,
          6.70940280e-001, 5.15661418e-001, 3.20593715e-001,
          6.01957679e-001, 4.89392519e-001, 4.83816355e-001,
          4.79878306e-001, 4.48380262e-001, 4.19298351e-001,
          5.36060214e-001, 3.26061875e-001, 4.50491399e-001,
          5.40675163e-001, 4.79726404e-001, 4.60029304e-001,
          5.03465235e-001, 4.54756975e-001, 4.70566809e-001,
          4.96292472e-001 ]
      - [ 7.87912250e-001, 7.11548746e-001, 3.94565463e-001,
          5.29296041e-001, 4.72340137e-001, 5.33298671e-001,
          5.37106335e-001, 5.38991690e-001, 3.42022866e-001,
          4.49213982e-001, 4.88708079e-001, 4.73084122e-001,
          4.39157546e-001, 2.70064980e-001, 5.10967076e-001,
          5.26671410e-001, 4.97201204e-001, 4.84397501e-001,
          5.05195618e-001, 4.56843436e-001, 5.31668663e-001,
          4.67527121e-001, 4.69031841e-001, 5.39620936e-001,
          4.75081623e-001 ]
      - [ 7.55174279e-001, 5.59292436e-001, 4.85069036e-001,
          5.98779857e-001, 4.41418648e-001, 4.03487742e-001,
          4.35797393e-001, 5.41295171e-001, 4.17214811e-001,
          5.37774444e-001, 4.77843434e-001, 4.63382423e-001,
          4.54669952e-001, 4.38585937e-001, 4.94758695e-001,
          4.87930417e-001, 4.04449582e-001, 4.58848357e-001,
          5.18000484e-001, 5.39961517e-001, 5.38728595e-001,
          4.63275105e-001, 4.04839158e-001, 5.65066159e-001,
          5.18196940e-001 ]
      - [ 6.65147483e-001, 6.17541015e-001, 5.50108790e-001,
          7.11715579e-001, 5.23877025e-001, 4.70998287e-001,
          4.44612294e-001, 5.18357992e-001, 3.92800927e-001,
          4.90280896e-001, 4.77839619e-001, 4.89621580e-001,
          5.62153041e-001, 4.71164316e-001, 4.35302585e-001,
          3.85231137e-001, 4.15339500e-001, 4.60204273e-001,
          4.60012972e-001, 4.69803780e-001, 5.39710879e-001,
          5.00192463e-001, 4.96288002e-001, 4.81877804e-001,
          5.06869316e-001 ]
      - [ 7.70425558e-001, 4.89178628e-001, 5.78069150e-001,
          6.77360475e-001, 5.48001826e-001, 5.62796652e-001,
          6.76170945e-001, 4.70563829e-001, 3.29893410e-001,
          5.64616323e-001, 5.49352467e-001, 3.55359256e-001,
          5.54103851e-001, 4.83685106e-001, 4.10934150e-001,
          6.26907349e-001, 4.21328515e-001, 4.23629224e-001,
          5.16522348e-001, 4.81787086e-001, 4.02909517e-001,
          4.92839962e-001, 4.43094701e-001, 4.95337218e-001,
          4.84073073e-001 ]
      - [ 7.84824908e-001, 5.00538409e-001, 6.72586381e-001,
          6.52644753e-001, 5.68801641e-001, 5.62236071e-001,
          5.47389567e-001, 4.81874913e-001, 4.16474402e-001,
          5.02704203e-001, 5.08709490e-001, 3.63205075e-001,
          5.65014541e-001, 5.20317852e-001, 4.65416878e-001,
          5.04116476e-001, 4.05653775e-001, 4.59687203e-001,
          5.38543105e-001, 3.86209548e-001, 4.73210126e-001,
          5.30117869e-001, 4.81179565e-001, 5.40471137e-001,
          4.15964484e-001 ]
      - [ 6.36094153e-001, 5.68529606e-001, 5.55737138e-001,
          5.44981658e-001, 3.94715101e-001, 3.58765572e-001,
          5.41664183e-001, 4.69117314e-001, 3.70273918e-001,
          5.86796045e-001, 4.97574866e-001, 4.70716476e-001,
          4.81414378e-001, 3.79743040e-001, 5.07689774e-001,
          4.66026455e-001, 4.28749084e-001, 4.82138723e-001,
          4.74686503e-001, 5.43232083e-001, 5.01919568e-001,
          4.87646073e-001, 4.12670046e-001, 5.57270229e-001,
          5.49109221e-001 ]
      - [ 6.88267887e-001, 7.65557170e-001, 3.86719137e-001,
          5.47856331e-001, 4.77871060e-001, 5.85539401e-001,
          6.72656000e-001, 4.51830149e-001, 2.47054994e-001,
          4.29746509e-001, 4.86285180e-001, 4.79966253e-001,
          3.69604468e-001, 2.74257839e-001, 4.86990154e-001,
          4.70785677e-001, 5.46720624e-001, 3.95355344e-001,
          5.79752088e-001, 3.33649695e-001, 5.58277428e-001,
          4.51088935e-001, 5.69004834e-001, 5.44313729e-001,
          4.08755511e-001 ]
      - [ 8.53057981e-001, 4.69881624e-001, 7.07894623e-001,
          6.09517932e-001, 5.69376290e-001, 5.75364113e-001,
          4.95798826e-001, 6.35203481e-001, 3.31826627e-001,
          4.18675572e-001, 5.50567508e-001, 3.72224450e-001,
          4.95048076e-001, 5.56805968e-001, 5.51954925e-001,
          4.99460101e-001, 4.76203829e-001, 4.51464057e-001,
          5.19585192e-001, 4.13298160e-001, 4.36105281e-001,
          4.49795961e-001, 4.54232574e-001, 4.54142034e-001,
          4.37330782e-001 ]
      - [ 6.97555006e-001, 6.61198556e-001, 5.60123444e-001,
          6.47831678e-001, 4.88264591e-001, 4.88935053e-001,
          3.96309197e-001, 5.50573945e-001, 3.96510541e-001,
          4.36571985e-001, 4.86187279e-001, 4.53270435e-001,
          5.32783449e-001, 4.31274772e-001, 5.01005411e-001,
          4.51192915e-001, 4.70291138e-001, 4.89279985e-001,
          4.79394674e-001, 4.50063378e-001, 5.39441109e-001,
          4.97423828e-001, 4.88239199e-001, 5.54377198e-001,
          4.62758899e-001 ]
      - [ 7.46125579e-001, 6.29847586e-001, 5.43786228e-001,
          7.34289050e-001, 6.30958855e-001, 5.82324266e-001,
          4.65409368e-001, 5.50252199e-001, 3.39691877e-001,
          4.53643143e-001, 4.91462380e-001, 4.78380054e-001,
          4.87680644e-001, 5.57729781e-001, 4.67998058e-001,
          4.22297448e-001, 5.16212702e-001, 4.88487929e-001,
          4.39341277e-001, 5.02830207e-001, 5.47779620e-001,
          4.91062552e-001, 4.47447479e-001, 4.65867281e-001,
          4.82646406e-001 ]
      - [ 7.40729094e-001, 7.41705894e-001, 3.65543723e-001,
          5.98729491e-001, 6.08759940e-001, 6.42496109e-001,
          5.10786235e-001, 5.58658421e-001, 4.15432185e-001,
          3.67424041e-001, 4.91714567e-001, 5.90382338e-001,
          2.50365019e-001, 5.16205072e-001, 4.21871930e-001,
          4.48524892e-001, 5.15577018e-001, 4.86637980e-001,
          4.72827256e-001, 4.57985103e-001, 6.19087756e-001,
          4.12610054e-001, 5.40754914e-001, 5.35354257e-001,
          5.16066372e-001 ]
      - [ 7.04524875e-001, 7.23514497e-001, 3.60584199e-001,
          5.69453835e-001, 4.75443721e-001, 6.01003051e-001,
          6.44597888e-001, 4.36258376e-001, 2.12385297e-001,
          4.19568747e-001, 4.66659784e-001, 4.95452553e-001,
          3.65044415e-001, 2.92266399e-001, 4.51522946e-001,
          4.58171964e-001, 5.43973446e-001, 3.42714727e-001,
          5.71346045e-001, 3.57636273e-001, 5.53911924e-001,
          4.28297400e-001, 5.90087056e-001, 5.19615710e-001,
          4.35689151e-001 ]
      - [ 7.20574200e-001, 4.88545001e-001, 3.89353424e-001,
          6.46782517e-001, 4.22865599e-001, 4.72643584e-001,
          4.28584486e-001, 5.30858338e-001, 3.33696753e-001,
          6.46406829e-001, 4.35979158e-001, 4.82950747e-001,
          4.59737360e-001, 3.87733340e-001, 4.86290991e-001,
          3.89549255e-001, 4.50412869e-001, 3.51339370e-001,
          4.76077467e-001, 5.29559731e-001, 4.61594194e-001,
          4.24237609e-001, 4.67642933e-001, 5.05389869e-001,
          5.41483521e-001 ]
      - [ 7.33465433e-001, 6.08424306e-001, 5.41634560e-001,
          6.71957016e-001, 6.33374810e-001, 4.38730359e-001,
          6.63484156e-001, 5.19720912e-001, 3.54762137e-001,
          5.40500700e-001, 4.92911458e-001, 5.10551989e-001,
          5.21407902e-001, 5.03153563e-001, 4.34972048e-001,
          4.74672198e-001, 2.97988892e-001, 4.68470097e-001,
          4.96830016e-001, 4.34143841e-001, 4.90141451e-001,
          5.17901957e-001, 4.45693731e-001, 5.01027703e-001,
          4.48908091e-001 ]
      - [ 8.32324743e-001, 6.15682900e-001, 5.58456779e-001,
          6.32632792e-001, 5.55073380e-001, 5.11568546e-001,
          4.48095441e-001, 6.02340758e-001, 3.69235188e-001,
          4.06678438e-001, 5.78070045e-001, 5.08590460e-001,
          4.37763512e-001, 5.32217681e-001, 5.35696864e-001,
          4.44638044e-001, 5.35888314e-001, 5.08620262e-001,
          4.96066153e-001, 4.96850878e-001, 5.44244409e-001,
          4.63818997e-001, 4.21368361e-001, 4.78490204e-001,
          4.20233279e-001 ]
      - [ 8.25997233e-001, 5.39279997e-001, 3.91619533e-001,
          6.06988490e-001, 5.00000179e-001, 5.11240184e-001,
          4.99998033e-001, 5.87467015e-001, 3.72062117e-001,
          5.83889902e-001, 5.26879668e-001, 5.48431814e-001,
          2.97063112e-001, 5.34368932e-001, 4.86702740e-001,
          4.52761829e-001, 4.97672647e-001, 4.55531359e-001,
          5.42131066e-001, 5.58491826e-001, 5.81614077e-001,
          4.23790753e-001, 4.63915229e-001, 5.37446320e-001,
          5.27823865e-001 ]
      - [ 7.64376104e-001, 6.93532407e-001, 4.29174542e-001,
          5.38828611e-001, 4.88446265e-001, 5.03010690e-001,
          4.19542253e-001, 5.76173782e-001, 3.74920815e-001,
          4.15136367e-001, 5.37825882e-001, 4.84089524e-001,
          4.22417462e-001, 3.89869750e-001, 5.04373610e-001,
          4.91434753e-001, 5.85139930e-001, 5.45462668e-001,
          4.96424884e-001, 5.25535107e-001, 5.46186447e-001,
          4.25834715e-001, 4.51576412e-001, 4.99059021e-001,
          4.90913630e-001 ]
      - [ 8.28270972e-001, 5.00737906e-001, 7.12836325e-001,
          5.71703136e-001, 6.12132907e-001, 5.35050273e-001,
          6.55722141e-001, 5.72920263e-001, 4.62800980e-001,
          4.52883124e-001, 5.70646107e-001, 4.26612854e-001,
          5.99935174e-001, 5.89954913e-001, 5.49696803e-001,
          4.98911947e-001, 5.13598382e-001, 5.17885625e-001,
          4.73038703e-001, 4.35161024e-001, 3.98115277e-001,
          5.01843631e-001, 4.65754509e-001, 5.30583978e-001,
          4.34095740e-001 ]
      - [ 8.10582638e-001, 4.87029076e-001, 7.09158778e-001,
          5.70876360e-001, 7.35532939e-001, 5.95133483e-001,
          7.37345099e-001, 5.06363571e-001, 4.44265306e-001,
          4.57828283e-001, 5.38203299e-001, 4.73985761e-001,
          6.13601804e-001, 6.23449743e-001, 4.72657800e-001,
          5.81156850e-001, 5.59484422e-001, 5.34341872e-001,
          4.39153671e-001, 3.86871785e-001, 4.29482341e-001,
          5.19152761e-001, 4.72503603e-001, 5.65566838e-001,
          4.20134574e-001 ]
      - [ 8.88406038e-001, 4.59305018e-001, 5.89190543e-001,
          5.99801779e-001, 5.70929766e-001, 5.40023863e-001,
          4.48557734e-001, 6.30248368e-001, 3.82033408e-001,
          4.49669003e-001, 5.74655652e-001, 5.32962918e-001,
          3.58068824e-001, 5.74479759e-001, 5.61712921e-001,
          3.66377234e-001, 4.86085802e-001, 4.96234834e-001,
          4.97394383e-001, 4.82270896e-001, 5.54788888e-001,
          4.99046773e-001, 4.60548788e-001, 4.89316702e-001,
          4.93952811e-001 ]
      - [ 6.89560771e-001, 7.39705563e-001, 3.64602983e-001,
          5.78615487e-001, 4.94906604e-001, 5.55454850e-001,
          6.26038373e-001, 4.45538104e-001, 2.55598962e-001,
          4.27425981e-001, 5.01061618e-001, 4.74703372e-001,
          3.80992144e-001, 2.77700573e-001, 3.88923526e-001,
          4.61542547e-001, 5.76481283e-001, 3.44803631e-001,
          5.35320938e-001, 4.23096269e-001, 5.56382120e-001,
          4.17295575e-001, 5.50851047e-001, 4.92836028e-001,
          4.44979072e-001 ]
      - [ 6.89560771e-001, 7.39705563e-001, 3.64602983e-001,
          5.78615487e-001, 4.94906604e-001, 5.55454850e-001,
          6.26038373e-001, 4.45538104e-001, 2.55598962e-001,
          4.27425981e-001, 5.01061618e-001, 4.74703372e-001,
          3.80992144e-001, 2.77700573e-001, 3.88923526e-001,
          4.61542547e-001, 5.76481283e-001, 3.44803631e-001,
          5.35320938e-001, 4.23096269e-001, 5.56382120e-001,
          4.17295575e-001, 5.50851047e-001, 4.92836028e-001,
          4.44979072e-001 ]
      - [ 8.33992124e-001, 6.50952637e-001, 5.41029036e-001,
          5.64211249e-001, 5.94656110e-001, 5.79895258e-001,
          5.03508925e-001, 5.56068778e-001, 3.14795613e-001,
          3.10824990e-001, 5.46595931e-001, 6.07180715e-001,
          4.89522338e-001, 4.54501331e-001, 5.61545253e-001,
          4.53796625e-001, 6.21259034e-001, 5.32712698e-001,
          5.34462214e-001, 4.43280041e-001, 4.22854394e-001,
          4.42944139e-001, 4.71998006e-001, 5.00158429e-001,
          4.72404510e-001 ]
      - [ 7.65628934e-001, 4.39882934e-001, 6.81752384e-001,
          7.25517631e-001, 6.58095360e-001, 6.24100149e-001,
          6.49320364e-001, 5.56194723e-001, 3.54970396e-001,
          5.00673234e-001, 4.92317587e-001, 5.43171704e-001,
          5.83100855e-001, 7.07557142e-001, 4.54771250e-001,
          5.39237499e-001, 5.70402682e-001, 4.51834232e-001,
          4.83179092e-001, 4.82062936e-001, 3.70695621e-001,
          5.12766957e-001, 4.23731953e-001, 4.52369601e-001,
          4.69928652e-001 ]
      - [ 7.47465491e-001, 7.12545395e-001, 4.37389761e-001,
          6.31798983e-001, 5.25279462e-001, 4.87620056e-001,
          5.11471272e-001, 5.36655605e-001, 3.81371230e-001,
          4.17128950e-001, 4.95649517e-001, 4.95574921e-001,
          4.44282383e-001, 3.80481124e-001, 4.37699467e-001,
          5.26142299e-001, 4.00988698e-001, 4.87233520e-001,
          4.75702703e-001, 4.63862896e-001, 5.46032012e-001,
          4.49371278e-001, 4.46557283e-001, 5.03511608e-001,
          4.47539091e-001 ]
      - [ 7.43814349e-001, 6.47136450e-001, 4.62997228e-001,
          6.64078295e-001, 4.83251691e-001, 5.65534353e-001,
          5.17151058e-001, 4.50803995e-001, 2.47535214e-001,
          4.45065469e-001, 4.76884991e-001, 4.06837672e-001,
          3.93015295e-001, 3.18968415e-001, 4.48093951e-001,
          4.61571932e-001, 4.65275079e-001, 4.04346108e-001,
          5.19763231e-001, 4.54067916e-001, 5.02340317e-001,
          4.53018337e-001, 4.55981314e-001, 5.20199716e-001,
          4.85831141e-001 ]
      - [ 8.10479820e-001, 5.49867272e-001, 5.83777428e-001,
          5.82690120e-001, 4.71068710e-001, 5.04297316e-001,
          6.01872265e-001, 4.96837825e-001, 2.70120502e-001,
          5.21453977e-001, 5.14778614e-001, 4.96812850e-001,
          5.33959031e-001, 4.40026343e-001, 5.43755293e-001,
          5.10893226e-001, 3.83482218e-001, 4.09647226e-001,
          5.04833221e-001, 5.35448253e-001, 4.49161410e-001,
          4.66400862e-001, 4.35292780e-001, 5.39609671e-001,
          4.92857456e-001 ]
      - [ 7.31104195e-001, 3.02924216e-001, 5.86809635e-001,
          7.58923769e-001, 6.20927095e-001, 5.86248457e-001,
          6.55523300e-001, 5.77484369e-001, 5.26237130e-001,
          5.16014576e-001, 5.35496116e-001, 4.95796740e-001,
          4.81525242e-001, 6.48259461e-001, 3.91068310e-001,
          5.12167096e-001, 4.77791607e-001, 4.67805386e-001,
          4.66048330e-001, 5.76529622e-001, 4.56250936e-001,
          5.83763182e-001, 5.17503440e-001, 4.99612689e-001,
          4.55336660e-001 ]
      - [ 9.25986946e-001, 4.27365065e-001, 6.07557058e-001,
          5.00734866e-001, 7.53078997e-001, 7.16912806e-001,
          5.80485761e-001, 5.65117717e-001, 4.59805727e-001,
          4.38223541e-001, 5.96174955e-001, 4.70646441e-001,
          4.55289751e-001, 5.51107228e-001, 4.78516161e-001,
          4.09609079e-001, 6.15586758e-001, 5.19653201e-001,
          5.51852226e-001, 4.23331201e-001, 4.82597619e-001,
          4.43669617e-001, 4.73489940e-001, 5.48428535e-001,
          5.02576649e-001 ]
      - [ 6.81557715e-001, 6.12240672e-001, 3.37738007e-001,
          5.85470676e-001, 4.21325386e-001, 5.77646971e-001,
          4.24114794e-001, 5.18859029e-001, 2.18540877e-001,
          5.44301927e-001, 4.66260374e-001, 4.72534180e-001,
          4.13991392e-001, 3.29144806e-001, 4.71975386e-001,
          3.95949215e-001, 6.33889973e-001, 3.22572410e-001,
          4.49595928e-001, 5.33973515e-001, 4.90655780e-001,
          4.35634792e-001, 6.22566342e-001, 4.57221836e-001,
          4.95405108e-001 ]
      - [ 8.27429175e-001, 5.90208530e-001, 5.74129105e-001,
          6.72789097e-001, 5.60862064e-001, 5.11227846e-001,
          5.40895522e-001, 5.88011861e-001, 3.72771949e-001,
          3.61483067e-001, 5.68918884e-001, 4.78130400e-001,
          5.18781185e-001, 5.07744133e-001, 5.08573890e-001,
          4.76382971e-001, 5.07765710e-001, 4.96115208e-001,
          4.96824086e-001, 4.58401114e-001, 4.18103218e-001,
          4.59593236e-001, 4.41221684e-001, 4.76309955e-001,
          4.46422815e-001 ]
      - [ 8.73148441e-001, 5.70227683e-001, 4.83118802e-001,
          5.75423837e-001, 5.08819461e-001, 4.83267695e-001,
          5.74546397e-001, 5.96128106e-001, 3.24990451e-001,
          5.29624224e-001, 5.44580400e-001, 5.58735132e-001,
          4.53518480e-001, 5.01511335e-001, 5.46326399e-001,
          4.76907462e-001, 4.90705371e-001, 5.17510116e-001,
          5.15257120e-001, 5.15581250e-001, 5.05983114e-001,
          4.63624656e-001, 4.17412698e-001, 5.45469344e-001,
          4.77278322e-001 ]
      - [ 8.89642596e-001, 3.70376885e-001, 6.34869337e-001,
          7.06041336e-001, 6.15319073e-001, 6.93677425e-001,
          5.65820694e-001, 5.60467124e-001, 3.97028327e-001,
          4.31799561e-001, 5.48534870e-001, 4.05538976e-001,
          4.76431042e-001, 6.66048646e-001, 5.23973823e-001,
          4.90181148e-001, 5.89427352e-001, 4.47570771e-001,
          5.38565934e-001, 4.59646404e-001, 3.92551184e-001,
          5.16942799e-001, 4.81010705e-001, 5.46259463e-001,
          4.73046005e-001 ]
      - [ 7.72106051e-001, 4.71185207e-001, 5.63522756e-001,
          7.10572422e-001, 4.81906354e-001, 5.49968362e-001,
          3.99357706e-001, 5.91420233e-001, 3.92844081e-001,
          5.06039917e-001, 5.13663113e-001, 4.81587023e-001,
          5.23289263e-001, 5.51937163e-001, 5.16455233e-001,
          4.07071203e-001, 4.58320737e-001, 4.12607908e-001,
          4.89064336e-001, 5.06160438e-001, 4.35478836e-001,
          4.37616467e-001, 4.76574481e-001, 4.53495860e-001,
          4.86698925e-001 ]
      - [ 7.82005966e-001, 5.94094813e-001, 6.17006779e-001,
          5.67037106e-001, 5.04086137e-001, 5.00551522e-001,
          3.97043884e-001, 6.33851171e-001, 3.72285783e-001,
          3.61481696e-001, 5.31281173e-001, 4.25315797e-001,
          4.81449991e-001, 4.21008736e-001, 5.62938273e-001,
          4.55857545e-001, 4.71774846e-001, 5.30200481e-001,
          4.67964619e-001, 4.33775306e-001, 5.18205047e-001,
          4.75015312e-001, 4.74863112e-001, 4.45619464e-001,
          4.36237603e-001 ]
      - [ 7.91813493e-001, 6.67361140e-001, 6.01809680e-001,
          6.09622777e-001, 5.18279076e-001, 5.36346972e-001,
          5.15276909e-001, 5.91183484e-001, 3.43082130e-001,
          3.48287284e-001, 4.97946292e-001, 5.40583372e-001,
          5.15186250e-001, 5.03040910e-001, 6.11873984e-001,
          4.81925160e-001, 5.55616260e-001, 5.17818928e-001,
          5.39281428e-001, 4.70238835e-001, 4.24633592e-001,
          5.31613529e-001, 4.64707375e-001, 5.52380085e-001,
          4.43190694e-001 ]
      - [ 8.70306313e-001, 5.17650485e-001, 3.68994802e-001,
          6.41748309e-001, 6.69077575e-001, 5.83957434e-001,
          5.05227208e-001, 5.61359107e-001, 4.60276574e-001,
          4.97541159e-001, 5.24305820e-001, 5.57426870e-001,
          3.12095940e-001, 5.23366034e-001, 4.34236288e-001,
          3.72856259e-001, 4.87559408e-001, 4.77966309e-001,
          4.50802863e-001, 5.47245741e-001, 6.01572216e-001,
          4.95285988e-001, 4.36437875e-001, 5.17596841e-001,
          5.26243508e-001 ]
      - [ 6.77930593e-001, 5.82272768e-001, 5.45950890e-001,
          7.27449417e-001, 6.43794477e-001, 5.37290335e-001,
          5.21512091e-001, 5.86174190e-001, 2.89928854e-001,
          4.99292612e-001, 4.48794723e-001, 4.82105225e-001,
          5.16656578e-001, 5.11586487e-001, 3.93145084e-001,
          4.87751514e-001, 4.46264178e-001, 3.73624057e-001,
          4.35541689e-001, 5.21869481e-001, 5.05375683e-001,
          4.80328143e-001, 4.82867360e-001, 4.45895404e-001,
          4.96555328e-001 ]
      - [ 8.47015381e-001, 5.12417316e-001, 5.77336073e-001,
          5.22789061e-001, 4.89570171e-001, 4.76175636e-001,
          5.78611434e-001, 5.33501148e-001, 4.44563299e-001,
          4.52085406e-001, 5.42047620e-001, 4.49508131e-001,
          5.80811501e-001, 4.21171129e-001, 5.33422410e-001,
          5.49219906e-001, 4.55436945e-001, 5.06823897e-001,
          5.25912642e-001, 3.81545603e-001, 4.23205703e-001,
          4.61395264e-001, 4.37448025e-001, 5.76437712e-001,
          4.62167621e-001 ]
      - [ 6.63505554e-001, 6.29083514e-001, 4.50752109e-001,
          7.25449085e-001, 5.25017321e-001, 5.05465090e-001,
          5.84908962e-001, 4.75967139e-001, 3.04085314e-001,
          5.20557046e-001, 4.41647708e-001, 4.58797038e-001,
          4.86546040e-001, 3.86124283e-001, 3.78609896e-001,
          4.75149125e-001, 3.86086285e-001, 4.23997939e-001,
          4.66667831e-001, 5.12581766e-001, 5.39925516e-001,
          4.98123139e-001, 4.70436782e-001, 4.74066675e-001,
          5.57618558e-001 ]
      - [ 6.90377235e-001, 6.22632146e-001, 5.06133497e-001,
          7.32965708e-001, 6.13963008e-001, 5.41396081e-001,
          5.85245192e-001, 5.25495648e-001, 2.98839092e-001,
          5.06857097e-001, 4.45769072e-001, 4.50806022e-001,
          5.05417645e-001, 4.67567623e-001, 3.79605412e-001,
          5.22316396e-001, 3.86307031e-001, 4.36075062e-001,
          4.48794097e-001, 5.17202556e-001, 5.26886463e-001,
          4.67527568e-001, 4.44367170e-001, 4.54475760e-001,
          5.29230058e-001 ]
      - [ 7.39829898e-001, 5.19866407e-001, 3.94341826e-001,
          6.20184004e-001, 4.91261393e-001, 4.27008867e-001,
          4.66114044e-001, 4.78318274e-001, 3.57721746e-001,
          6.17600679e-001, 5.25460720e-001, 4.61931646e-001,
          4.20026243e-001, 3.89106452e-001, 4.61580157e-001,
          4.22699600e-001, 4.09517884e-001, 4.34001893e-001,
          5.21522105e-001, 5.13208151e-001, 5.25650859e-001,
          4.41264987e-001, 4.38616097e-001, 4.94460046e-001,
          5.16639769e-001 ]
      - [ 8.27465117e-001, 5.31371355e-001, 7.02906728e-001,
          5.36817133e-001, 6.81672394e-001, 5.43040812e-001,
          6.64550602e-001, 5.77904224e-001, 3.71774316e-001,
          3.82133245e-001, 5.71546853e-001, 4.91122216e-001,
          6.34194613e-001, 5.55470943e-001, 5.19941032e-001,
          5.23088038e-001, 5.70022106e-001, 5.44141412e-001,
          4.42449212e-001, 4.01954889e-001, 3.56294155e-001,
          4.20058966e-001, 4.32622880e-001, 4.86198157e-001,
          4.60966736e-001 ]
      - [ 8.09494257e-001, 6.37382865e-001, 5.91779053e-001,
          5.89167356e-001, 5.35279393e-001, 4.61915135e-001,
          5.31251848e-001, 6.37085676e-001, 4.00546312e-001,
          4.13112342e-001, 5.32081425e-001, 5.30014157e-001,
          4.98688281e-001, 4.90066558e-001, 5.94880342e-001,
          4.65613365e-001, 4.88026291e-001, 5.13090432e-001,
          5.07947206e-001, 4.91234034e-001, 4.46577042e-001,
          5.32951176e-001, 4.47699100e-001, 5.24578094e-001,
          3.95218760e-001 ]
      - [ 8.28274965e-001, 4.47151363e-001, 7.35496402e-001,
          5.75552881e-001, 5.12399852e-001, 6.03002071e-001,
          5.40436506e-001, 5.58500350e-001, 4.34478700e-001,
          4.61930513e-001, 5.43925107e-001, 3.66129726e-001,
          5.57664454e-001, 5.31846881e-001, 5.59645712e-001,
          5.27782440e-001, 4.72688138e-001, 4.97536987e-001,
          5.78824639e-001, 4.16450441e-001, 4.73205239e-001,
          5.47869146e-001, 4.96378541e-001, 5.78613639e-001,
          3.72650802e-001 ]
      - [ 6.44350886e-001, 6.51982069e-001, 4.51266706e-001,
          7.02988565e-001, 5.38762331e-001, 4.45521921e-001,
          6.27577186e-001, 4.96158481e-001, 3.59967768e-001,
          4.46741521e-001, 4.53615397e-001, 5.12803018e-001,
          4.80546594e-001, 3.76781523e-001, 3.94224316e-001,
          4.67789173e-001, 3.58398974e-001, 4.50915188e-001,
          5.24103999e-001, 4.50981021e-001, 5.26120484e-001,
          5.35264373e-001, 5.16790926e-001, 4.88542795e-001,
          5.39953530e-001 ]
      - [ 8.99927080e-001, 6.15781188e-001, 4.13579613e-001,
          6.10562503e-001, 6.18570566e-001, 6.19865954e-001,
          7.17384994e-001, 4.53721583e-001, 2.38446876e-001,
          4.31592911e-001, 5.04598260e-001, 5.69116473e-001,
          5.26868641e-001, 4.34540182e-001, 5.27624786e-001,
          5.15808940e-001, 4.92628634e-001, 5.07246912e-001,
          5.16071498e-001, 3.76819372e-001, 3.75393301e-001,
          4.54114944e-001, 4.79076684e-001, 4.76736605e-001,
          4.44631815e-001 ]
      - [ 6.38135195e-001, 6.51814282e-001, 4.69836652e-001,
          7.06982613e-001, 5.51001251e-001, 4.40279335e-001,
          6.12062931e-001, 5.03613174e-001, 3.74334037e-001,
          4.25520241e-001, 4.53648120e-001, 5.17326415e-001,
          4.86547172e-001, 3.92734647e-001, 3.94527793e-001,
          4.56318706e-001, 3.53612989e-001, 4.52862173e-001,
          5.24219453e-001, 4.38498914e-001, 5.25694132e-001,
          5.46299338e-001, 5.30077994e-001, 4.81628954e-001,
          5.21177590e-001 ]
      - [ 8.55269670e-001, 4.65736121e-001, 6.93954110e-001,
          5.56180000e-001, 7.22080827e-001, 5.94443679e-001,
          7.26223230e-001, 4.96815860e-001, 4.37138945e-001,
          4.52776253e-001, 5.88309050e-001, 5.30524850e-001,
          6.05662405e-001, 6.34446502e-001, 5.09900033e-001,
          5.31822383e-001, 6.01900935e-001, 5.39749801e-001,
          4.43623006e-001, 4.13938671e-001, 3.85162830e-001,
          4.88105595e-001, 4.83061522e-001, 5.26186168e-001,
          4.42090750e-001 ]
      - [ 6.33206964e-001, 6.40347362e-001, 4.82334644e-001,
          7.13598549e-001, 5.39913416e-001, 4.40029979e-001,
          6.09444976e-001, 4.97898936e-001, 3.80583674e-001,
          4.26060736e-001, 4.38387752e-001, 5.09798288e-001,
          4.98019576e-001, 4.02648032e-001, 4.01845098e-001,
          4.69840139e-001, 3.48185450e-001, 4.45497513e-001,
          5.22054136e-001, 4.40817237e-001, 5.25158942e-001,
          5.53397298e-001, 5.27197719e-001, 4.93852615e-001,
          5.34265935e-001 ]
      - [ 7.99824417e-001, 6.63198471e-001, 5.59390664e-001,
          5.74348927e-001, 6.05210006e-001, 4.85004038e-001,
          6.66200638e-001, 5.66647232e-001, 4.22859073e-001,
          4.03477430e-001, 5.68071246e-001, 5.07928073e-001,
          5.62140286e-001, 4.11052436e-001, 5.49543321e-001,
          4.88485873e-001, 4.74083304e-001, 5.55374563e-001,
          4.73003238e-001, 4.29318398e-001, 4.23227012e-001,
          5.18776238e-001, 4.19948339e-001, 5.07340193e-001,
          3.99958074e-001 ]
      - [ 6.25870407e-001, 5.79436541e-001, 4.48755145e-001,
          7.29899645e-001, 5.19282460e-001, 4.76661921e-001,
          5.84081292e-001, 4.21527475e-001, 2.63301373e-001,
          5.74640393e-001, 4.36643749e-001, 4.44543034e-001,
          4.65328395e-001, 3.54720831e-001, 3.93866479e-001,
          3.76772016e-001, 4.04613525e-001, 3.30399215e-001,
          5.18771946e-001, 4.39308137e-001, 5.05181491e-001,
          4.89084870e-001, 4.87101734e-001, 5.17403543e-001,
          5.44417799e-001 ]
      - [ 7.68926084e-001, 6.71325088e-001, 4.44811285e-001,
          6.02683485e-001, 5.16435683e-001, 4.73846108e-001,
          6.08744144e-001, 5.19372225e-001, 2.88515121e-001,
          5.02489805e-001, 4.56305623e-001, 5.81721544e-001,
          4.69434261e-001, 3.74521375e-001, 4.73379105e-001,
          5.26426554e-001, 3.35564137e-001, 4.61248845e-001,
          5.13598621e-001, 4.54557776e-001, 5.63970983e-001,
          4.95225877e-001, 4.90227312e-001, 5.34980834e-001,
          4.54314649e-001 ]
      - [ 8.37081790e-001, 5.32287002e-001, 2.71700382e-001,
          6.61538064e-001, 6.06318414e-001, 6.06333196e-001,
          5.62727749e-001, 5.36410809e-001, 3.81048530e-001,
          5.11719882e-001, 4.73541677e-001, 6.06560647e-001,
          3.31980467e-001, 4.61052328e-001, 4.46035296e-001,
          4.37326312e-001, 4.59500313e-001, 5.16594172e-001,
          4.49517876e-001, 5.78965187e-001, 6.06234133e-001,
          4.81366485e-001, 4.67080861e-001, 4.62838978e-001,
          5.56921363e-001 ]
      - [ 6.85776472e-001, 6.66854262e-001, 4.37988460e-001,
          6.85836434e-001, 5.61828613e-001, 4.75332260e-001,
          6.32304311e-001, 5.17113626e-001, 3.54949236e-001,
          4.30587530e-001, 4.80777979e-001, 5.17309070e-001,
          4.88654107e-001, 3.55720967e-001, 4.03252989e-001,
          4.95947272e-001, 3.62768352e-001, 4.73657459e-001,
          5.00123143e-001, 4.38085347e-001, 5.33427715e-001,
          5.16905010e-001, 5.21513402e-001, 4.43059266e-001,
          5.24375021e-001 ]
      - [ 7.87891448e-001, 4.92215395e-001, 7.66389370e-001,
          5.44119418e-001, 5.38182139e-001, 5.53677797e-001,
          5.98328471e-001, 5.55063248e-001, 4.45440531e-001,
          4.67965901e-001, 5.28458536e-001, 3.84044409e-001,
          6.00268126e-001, 5.11343181e-001, 5.47769666e-001,
          5.46038508e-001, 4.69312340e-001, 4.97448653e-001,
          5.53372979e-001, 4.63219136e-001, 4.07829940e-001,
          5.22146642e-001, 4.76097882e-001, 5.63616633e-001,
          3.76646340e-001 ]
      - [ 6.75701380e-001, 6.59118235e-001, 4.34168816e-001,
          6.66217446e-001, 5.39655864e-001, 4.62175429e-001,
          6.20036364e-001, 4.39703286e-001, 3.09751511e-001,
          4.86423224e-001, 4.68599349e-001, 4.90099996e-001,
          4.59853739e-001, 3.42790067e-001, 4.00375724e-001,
          4.55884159e-001, 3.97239000e-001, 4.61049914e-001,
          4.98536378e-001, 4.55737233e-001, 5.67631185e-001,
          4.95189637e-001, 4.85936135e-001, 4.74826008e-001,
          5.52832365e-001 ]
      - [ 8.00254941e-001, 5.88307977e-001, 6.96740031e-001,
          6.36770308e-001, 5.99191725e-001, 5.25171399e-001,
          6.19275033e-001, 5.93894601e-001, 3.72440159e-001,
          4.17238533e-001, 5.96076488e-001, 3.84284079e-001,
          5.81358135e-001, 5.48796773e-001, 5.37475526e-001,
          4.99168396e-001, 5.34082413e-001, 5.13966858e-001,
          4.83808666e-001, 4.35285509e-001, 3.81053090e-001,
          5.11645913e-001, 4.37940300e-001, 4.74615902e-001,
          4.10468072e-001 ]
      - [ 6.77191019e-001, 5.18739820e-001, 4.20262039e-001,
          4.79037642e-001, 3.49665582e-001, 4.98007596e-001,
          3.01474124e-001, 5.77198267e-001, 2.98770368e-001,
          4.97496426e-001, 3.06551456e-001, 4.16049808e-001,
          4.59475726e-001, 4.49044198e-001, 5.33117950e-001,
          4.84637290e-001, 5.15780509e-001, 4.73018229e-001,
          3.90630186e-001, 5.51148474e-001, 5.53191125e-001,
          5.45155108e-001, 5.02129376e-001, 4.26646113e-001,
          4.80753005e-001 ]
      - [ 7.99467027e-001, 4.75684017e-001, 5.34707606e-001,
          6.99874699e-001, 5.09344757e-001, 5.37636459e-001,
          6.74514532e-001, 5.13056517e-001, 3.02083075e-001,
          5.86064637e-001, 5.61505914e-001, 4.51349616e-001,
          5.19125283e-001, 5.61129808e-001, 4.58902717e-001,
          5.73223174e-001, 4.44950014e-001, 4.44214553e-001,
          5.13620734e-001, 5.73475003e-001, 4.13528621e-001,
          5.13873339e-001, 4.29025918e-001, 4.70917732e-001,
          5.05683124e-001 ]
      - [ 8.64276648e-001, 4.32160527e-001, 6.85754478e-001,
          5.81365108e-001, 7.29784012e-001, 6.61607146e-001,
          6.76619887e-001, 4.58026201e-001, 4.04879898e-001,
          4.24105465e-001, 5.10983407e-001, 4.87863719e-001,
          5.75226605e-001, 6.37361765e-001, 4.65014994e-001,
          5.36780357e-001, 5.31960785e-001, 4.94400948e-001,
          5.18950701e-001, 3.99789572e-001, 3.90599668e-001,
          4.74682599e-001, 4.99558240e-001, 5.32252133e-001,
          4.28795636e-001 ]
      - [ 6.52154267e-001, 7.00856090e-001, 4.62588042e-001,
          6.59841537e-001, 5.45869231e-001, 4.54129636e-001,
          6.03403866e-001, 4.44674253e-001, 3.32737625e-001,
          4.67582494e-001, 4.68229383e-001, 5.32386601e-001,
          4.55302387e-001, 3.72262120e-001, 4.12271917e-001,
          4.63328302e-001, 3.73705417e-001, 4.94138539e-001,
          4.87510055e-001, 4.47647780e-001, 5.77531338e-001,
          4.89268720e-001, 4.92629617e-001, 4.89517361e-001,
          5.19717872e-001 ]
      - [ 7.42011726e-001, 4.72196430e-001, 7.55550027e-001,
          5.77764988e-001, 6.96747124e-001, 4.93463099e-001,
          6.91500902e-001, 6.14291728e-001, 4.10299778e-001,
          5.18460393e-001, 5.33816218e-001, 4.27386463e-001,
          5.51685750e-001, 6.35494292e-001, 5.21948397e-001,
          5.22611499e-001, 5.24858177e-001, 4.68312502e-001,
          4.91622001e-001, 5.27727962e-001, 3.42746556e-001,
          4.85931993e-001, 5.30869246e-001, 3.99223506e-001,
          4.67562556e-001 ]
      - [ 8.72096658e-001, 4.51451659e-001, 6.15777433e-001,
          6.90109968e-001, 6.28943801e-001, 6.14058495e-001,
          6.01764381e-001, 5.22266150e-001, 3.79646450e-001,
          3.89362842e-001, 5.43892443e-001, 4.37469244e-001,
          5.55538654e-001, 5.87914884e-001, 5.11378586e-001,
          5.03637791e-001, 5.36238849e-001, 4.54948634e-001,
          5.30569494e-001, 4.30904746e-001, 3.31700355e-001,
          4.80460972e-001, 4.41529393e-001, 4.50811058e-001,
          4.61198896e-001 ]
      - [ 8.22171032e-001, 4.08557802e-001, 4.02344435e-001,
          6.99136436e-001, 6.39097214e-001, 5.08316040e-001,
          5.57209134e-001, 5.75976849e-001, 4.57611740e-001,
          5.43929875e-001, 5.52673161e-001, 5.50753593e-001,
          2.95492977e-001, 5.52906394e-001, 4.15684462e-001,
          3.86312842e-001, 4.47776854e-001, 4.52766985e-001,
          4.99076337e-001, 5.07727385e-001, 5.29490709e-001,
          5.40022969e-001, 4.80452299e-001, 5.06483734e-001,
          5.16472995e-001 ]
      - [ 6.82717681e-001, 7.19927490e-001, 4.82409596e-001,
          6.45509243e-001, 5.63918471e-001, 4.43258464e-001,
          6.70961797e-001, 5.12392223e-001, 3.54564428e-001,
          4.50338304e-001, 4.81497884e-001, 5.38594127e-001,
          5.18886268e-001, 3.58950704e-001, 4.34536576e-001,
          4.83537644e-001, 3.43390703e-001, 5.16168177e-001,
          4.84137267e-001, 4.02771115e-001, 5.28520226e-001,
          5.31957805e-001, 4.99699861e-001, 5.01354933e-001,
          4.83586341e-001 ]
      - [ 6.78265333e-001, 6.23049676e-001, 4.98965800e-001,
          7.30767667e-001, 6.06907070e-001, 5.36559999e-001,
          5.89377701e-001, 5.20646393e-001, 3.02352130e-001,
          5.13237774e-001, 4.29724127e-001, 4.41180766e-001,
          5.18977880e-001, 4.38381016e-001, 3.72272551e-001,
          5.23490846e-001, 3.77322942e-001, 4.11176383e-001,
          4.59331244e-001, 5.02243698e-001, 5.44744849e-001,
          4.79246050e-001, 4.61544394e-001, 4.50476527e-001,
          5.30648708e-001 ]
      - [ 8.73827517e-001, 4.82274979e-001, 6.98801458e-001,
          5.86765230e-001, 6.19244218e-001, 5.97088099e-001,
          5.63741505e-001, 5.70195973e-001, 3.40983838e-001,
          3.94573092e-001, 5.50074637e-001, 4.12560105e-001,
          5.54952264e-001, 5.84475636e-001, 5.67285836e-001,
          5.13371885e-001, 5.42559385e-001, 4.82782900e-001,
          5.45162141e-001, 3.83290887e-001, 3.74090374e-001,
          4.41548526e-001, 4.33195114e-001, 5.18538654e-001,
          4.41975534e-001 ]
      - [ 7.29601681e-001, 6.87636435e-001, 5.00152469e-001,
          6.12101674e-001, 6.04021549e-001, 4.68316317e-001,
          6.83247030e-001, 5.16849101e-001, 3.80384654e-001,
          3.98468316e-001, 5.10288835e-001, 5.53902268e-001,
          5.65268040e-001, 3.61225098e-001, 4.51197445e-001,
          5.03200233e-001, 3.43890965e-001, 5.34211397e-001,
          4.78065550e-001, 3.61993283e-001, 5.02408445e-001,
          5.08826852e-001, 5.18187702e-001, 4.77836967e-001,
          4.61745769e-001 ]
      - [ 8.79251122e-001, 3.12421083e-001, 6.68799460e-001,
          6.70808911e-001, 5.57792664e-001, 7.47454286e-001,
          5.47845602e-001, 5.11687338e-001, 4.20991302e-001,
          4.52099591e-001, 5.21359205e-001, 5.03527582e-001,
          4.68787014e-001, 6.38895929e-001, 4.80457544e-001,
          4.98163432e-001, 5.43088555e-001, 4.71183568e-001,
          5.79929709e-001, 5.21854222e-001, 3.23405653e-001,
          5.36561370e-001, 5.14718294e-001, 4.92655009e-001,
          4.29335177e-001 ]
      - [ 7.29062438e-001, 6.88043058e-001, 4.92682219e-001,
          6.47224426e-001, 5.99709392e-001, 4.81200069e-001,
          6.55272841e-001, 5.16397834e-001, 3.70333612e-001,
          4.03158665e-001, 5.14131606e-001, 5.18677652e-001,
          5.36427677e-001, 3.62214297e-001, 4.38533694e-001,
          4.91370946e-001, 3.43319058e-001, 5.18679798e-001,
          4.92287129e-001, 3.67740422e-001, 5.11981606e-001,
          5.11779428e-001, 5.10806799e-001, 4.57648098e-001,
          4.65669721e-001 ]
      - [ 8.65583658e-001, 4.47433472e-001, 7.10170269e-001,
          6.20702744e-001, 5.69076121e-001, 6.49961233e-001,
          5.63226581e-001, 5.48408151e-001, 3.58144403e-001,
          3.91947567e-001, 5.51338673e-001, 4.12913740e-001,
          5.80057144e-001, 5.89338243e-001, 5.53378403e-001,
          5.47152400e-001, 5.51404893e-001, 4.66600507e-001,
          5.82900465e-001, 4.27461147e-001, 3.81221175e-001,
          4.74724799e-001, 4.40302044e-001, 5.37898362e-001,
          4.03976381e-001 ]
      - [ 8.61349046e-001, 4.93572950e-001, 5.79539895e-001,
          6.46551549e-001, 4.75930780e-001, 6.29077315e-001,
          5.35105050e-001, 5.08319795e-001, 3.54637921e-001,
          4.95299250e-001, 5.03656149e-001, 3.17216247e-001,
          4.91669774e-001, 4.38901752e-001, 5.59812188e-001,
          5.21964133e-001, 4.61595744e-001, 4.58849013e-001,
          5.65274179e-001, 4.48913455e-001, 4.02686745e-001,
          5.06617308e-001, 4.20449257e-001, 5.36645889e-001,
          4.33555007e-001 ]
      - [ 7.35100150e-001, 5.20340860e-001, 6.14167988e-001,
          6.96913242e-001, 5.38370967e-001, 4.69413072e-001,
          5.88805616e-001, 5.25196433e-001, 4.49681759e-001,
          4.47430372e-001, 5.26088893e-001, 4.43748474e-001,
          5.96093237e-001, 5.10397911e-001, 4.19574112e-001,
          5.35604835e-001, 3.98935556e-001, 4.51157928e-001,
          4.99207705e-001, 5.01526237e-001, 4.49155033e-001,
          5.43684483e-001, 4.41256404e-001, 4.64413226e-001,
          4.67734218e-001 ]
      - [ 8.18880320e-001, 5.27969718e-001, 3.68277252e-001,
          6.20161533e-001, 4.82225120e-001, 5.19863367e-001,
          5.34275949e-001, 5.11719942e-001, 2.87301958e-001,
          4.81222600e-001, 4.62176651e-001, 5.42772889e-001,
          4.14608538e-001, 3.88472080e-001, 5.14377415e-001,
          4.83706683e-001, 4.12172258e-001, 4.47895229e-001,
          5.01838505e-001, 5.08009672e-001, 4.03247803e-001,
          4.67227072e-001, 4.97948557e-001, 4.70070273e-001,
          5.98497689e-001 ]
      - [ 6.68749392e-001, 6.95069551e-001, 4.96073306e-001,
          6.43497705e-001, 5.59836626e-001, 4.29255784e-001,
          6.82154834e-001, 4.75838721e-001, 3.59543622e-001,
          4.51695234e-001, 4.96379584e-001, 5.15348256e-001,
          5.07185876e-001, 3.50884855e-001, 4.31231260e-001,
          4.49605107e-001, 3.43471825e-001, 5.10947227e-001,
          4.94352758e-001, 3.70015979e-001, 5.01715064e-001,
          5.23489714e-001, 5.03162086e-001, 5.00874341e-001,
          5.01476586e-001 ]
      - [ 8.40717912e-001, 6.33680701e-001, 3.67710680e-001,
          5.65270364e-001, 5.26236892e-001, 5.18736720e-001,
          4.71920967e-001, 5.88794351e-001, 3.87357205e-001,
          5.18508673e-001, 5.15262067e-001, 5.75529158e-001,
          3.53414297e-001, 4.78718042e-001, 5.10429978e-001,
          4.51254845e-001, 5.00423610e-001, 5.09944677e-001,
          4.79356498e-001, 5.73617220e-001, 5.88258386e-001,
          4.19664145e-001, 4.34369236e-001, 5.18899441e-001,
          5.04893005e-001 ]
      - [ 6.75709844e-001, 6.78015947e-001, 4.73319709e-001,
          5.99842906e-001, 5.72192609e-001, 4.32810307e-001,
          6.82249606e-001, 4.54279721e-001, 3.87180299e-001,
          4.31394458e-001, 4.92394686e-001, 5.48834920e-001,
          5.24084449e-001, 3.22745800e-001, 4.34436649e-001,
          4.55914885e-001, 3.59033346e-001, 5.28961241e-001,
          4.80128109e-001, 3.66416514e-001, 5.26025951e-001,
          4.96571451e-001, 5.08571267e-001, 5.06298900e-001,
          5.22304773e-001 ]
      - [ 8.89259815e-001, 5.28183758e-001, 4.95973349e-001,
          6.33231759e-001, 5.93095839e-001, 6.00855947e-001,
          6.43465281e-001, 4.89969254e-001, 3.25421572e-001,
          4.19323742e-001, 5.30609727e-001, 4.87906992e-001,
          5.09852707e-001, 4.52308238e-001, 5.07531226e-001,
          5.55120528e-001, 3.78102243e-001, 4.57865775e-001,
          5.47192931e-001, 3.45925212e-001, 4.53431249e-001,
          4.33581650e-001, 4.36884850e-001, 5.03647327e-001,
          4.35947299e-001 ]
      - [ 6.84347332e-001, 6.67048097e-001, 4.61571664e-001,
          6.21162653e-001, 5.72400272e-001, 4.50911283e-001,
          6.65814340e-001, 4.46985394e-001, 3.79502714e-001,
          4.19757307e-001, 4.87327874e-001, 5.31770706e-001,
          5.13031781e-001, 3.23421538e-001, 4.30018067e-001,
          4.54724282e-001, 3.62870455e-001, 5.17125845e-001,
          4.99757558e-001, 3.59793365e-001, 5.28709769e-001,
          4.90618140e-001, 5.05921245e-001, 5.02035737e-001,
          5.30555665e-001 ]
      - [ 8.34092617e-001, 4.95252192e-001, 6.47806942e-001,
          5.68857670e-001, 4.81317073e-001, 5.68324685e-001,
          4.70883280e-001, 5.36533594e-001, 4.21426117e-001,
          3.99620682e-001, 4.94217217e-001, 3.85310799e-001,
          5.06243706e-001, 4.42032695e-001, 6.05375171e-001,
          4.96520638e-001, 4.43083286e-001, 4.73891675e-001,
          5.45747221e-001, 3.86362940e-001, 4.19940382e-001,
          5.27704954e-001, 4.79279310e-001, 5.64803362e-001,
          3.88709694e-001 ]
      - [ 6.15020275e-001, 6.71895266e-001, 4.56761956e-001,
          6.45684838e-001, 4.73073035e-001, 3.82307172e-001,
          6.12405300e-001, 4.22686636e-001, 3.53335261e-001,
          5.28842032e-001, 4.49613959e-001, 4.69841838e-001,
          4.54542309e-001, 3.58705163e-001, 4.18314725e-001,
          4.55285460e-001, 4.12173152e-001, 5.13676941e-001,
          5.03336966e-001, 4.60732341e-001, 5.43920577e-001,
          5.04660726e-001, 4.36735600e-001, 5.64005733e-001,
          5.33041239e-001 ]
      - [ 7.92663991e-001, 5.98232210e-001, 4.80540365e-001,
          6.13727868e-001, 4.46504891e-001, 5.18037856e-001,
          5.50530314e-001, 4.73464817e-001, 2.98713624e-001,
          4.50315595e-001, 5.06496370e-001, 4.23753262e-001,
          4.63894933e-001, 3.59499574e-001, 4.96673644e-001,
          4.98393863e-001, 4.37889278e-001, 4.86040324e-001,
          5.34262836e-001, 4.36686963e-001, 4.33016568e-001,
          4.76233900e-001, 4.61199015e-001, 5.14120340e-001,
          5.71414351e-001 ]
      - [ 7.34579325e-001, 5.78526855e-001, 5.64645410e-001,
          7.17654109e-001, 5.50850630e-001, 4.94475186e-001,
          5.54981709e-001, 5.22338986e-001, 3.88977975e-001,
          4.61903930e-001, 5.30681968e-001, 4.06139791e-001,
          5.63298166e-001, 4.77518439e-001, 4.17888284e-001,
          5.00285447e-001, 4.33023214e-001, 4.53103125e-001,
          4.82614994e-001, 4.74725276e-001, 4.71473217e-001,
          5.00220716e-001, 4.22388226e-001, 4.39524084e-001,
          4.94178295e-001 ]
      - [ 9.31526661e-001, 4.34841871e-001, 6.31115794e-001,
          5.85015178e-001, 5.83204746e-001, 6.23866141e-001,
          5.01645505e-001, 5.65171421e-001, 3.47204566e-001,
          3.81951034e-001, 5.46532154e-001, 4.74679291e-001,
          5.02770364e-001, 5.55661798e-001, 6.32496715e-001,
          4.50573564e-001, 5.14253199e-001, 4.79749024e-001,
          5.35900950e-001, 3.92998189e-001, 3.70370328e-001,
          4.43029791e-001, 4.53124076e-001, 4.54987407e-001,
          4.60238099e-001 ]
      - [ 8.97355974e-001, 4.75455552e-001, 3.84504884e-001,
          5.34605026e-001, 5.14171660e-001, 5.87821126e-001,
          4.60036248e-001, 6.84607863e-001, 3.22600007e-001,
          3.25680465e-001, 4.68446136e-001, 5.59911430e-001,
          4.52337474e-001, 5.48228920e-001, 5.81918955e-001,
          4.24169809e-001, 6.22955084e-001, 5.89583457e-001,
          5.00303984e-001, 4.76699889e-001, 3.64366472e-001,
          4.87688750e-001, 5.25829673e-001, 4.30322886e-001,
          4.79095399e-001 ]
      - [ 7.66203165e-001, 7.79638171e-001, 4.63520676e-001,
          6.25889063e-001, 6.34676576e-001, 5.70348978e-001,
          6.09252810e-001, 6.08597219e-001, 3.53249818e-001,
          3.71208161e-001, 5.01272798e-001, 5.90285599e-001,
          4.14331496e-001, 4.92635876e-001, 4.88933027e-001,
          4.86139208e-001, 4.76528794e-001, 5.19144416e-001,
          5.21173120e-001, 4.13787216e-001, 5.40906370e-001,
          4.61690456e-001, 5.47665596e-001, 5.00723064e-001,
          3.95712614e-001 ]
      - [ 8.72242689e-001, 5.61956286e-001, 4.23810422e-001,
          5.86431503e-001, 5.52415490e-001, 5.47294915e-001,
          5.80399871e-001, 5.27872503e-001, 2.98293173e-001,
          4.37934220e-001, 5.23085177e-001, 5.98794639e-001,
          4.41284120e-001, 4.28008318e-001, 5.32200873e-001,
          4.80896235e-001, 4.20109242e-001, 4.80805248e-001,
          5.24287999e-001, 4.69247550e-001, 4.73770797e-001,
          4.24164116e-001, 4.42911744e-001, 5.26154459e-001,
          5.37160039e-001 ]
      - [ 7.31544256e-001, 5.93969524e-001, 5.52015781e-001,
          7.17215776e-001, 5.29284298e-001, 4.90267396e-001,
          5.53519726e-001, 5.30152678e-001, 3.82116288e-001,
          4.28380340e-001, 5.21167159e-001, 4.27249551e-001,
          5.58490276e-001, 4.59353596e-001, 4.26282763e-001,
          4.92499262e-001, 4.27176237e-001, 4.54566956e-001,
          4.92903411e-001, 4.63993102e-001, 4.55068678e-001,
          5.07959604e-001, 4.46467191e-001, 4.60756779e-001,
          4.92717266e-001 ]
      - [ 7.89473891e-001, 3.98063421e-001, 6.84899211e-001,
          7.29978442e-001, 6.56850517e-001, 6.39878690e-001,
          6.59789085e-001, 5.61713576e-001, 4.07866716e-001,
          4.67168510e-001, 5.77719986e-001, 3.93895268e-001,
          5.35733342e-001, 6.66857004e-001, 4.26832497e-001,
          5.74540973e-001, 6.09964430e-001, 4.61938828e-001,
          4.98990923e-001, 4.91134048e-001, 3.88851166e-001,
          5.42389810e-001, 5.07219434e-001, 4.94142115e-001,
          4.24660087e-001 ]
      - [ 7.56839335e-001, 7.67377496e-001, 4.78490382e-001,
          6.29817724e-001, 6.54269874e-001, 5.69431543e-001,
          6.43601775e-001, 5.88768244e-001, 3.39130878e-001,
          3.81611109e-001, 5.38638234e-001, 6.12293363e-001,
          4.42287445e-001, 4.93610829e-001, 4.64528620e-001,
          4.94172066e-001, 4.77654248e-001, 5.22652149e-001,
          4.79798287e-001, 4.29228365e-001, 5.40580809e-001,
          4.38747942e-001, 5.37934780e-001, 4.67958122e-001,
          4.02638674e-001 ]
      - [ 8.64315510e-001, 6.06183767e-001, 3.88224393e-001,
          5.81189990e-001, 4.72212225e-001, 6.16070151e-001,
          4.31393385e-001, 6.39831662e-001, 3.00407797e-001,
          4.23900694e-001, 4.52737242e-001, 5.30886769e-001,
          3.60603690e-001, 5.12496591e-001, 6.02829278e-001,
          4.76000816e-001, 6.18587554e-001, 5.24114311e-001,
          5.04761457e-001, 5.25271177e-001, 3.94897044e-001,
          4.65338618e-001, 5.28596580e-001, 4.41599727e-001,
          5.23220420e-001 ]
      - [ 6.96971714e-001, 5.96270800e-001, 5.81319451e-001,
          7.21853316e-001, 5.56576014e-001, 4.98192400e-001,
          5.15043676e-001, 5.29273033e-001, 3.96923631e-001,
          4.50951219e-001, 5.28341115e-001, 4.22306061e-001,
          5.87664187e-001, 4.77932453e-001, 4.28709030e-001,
          4.66085643e-001, 4.44864720e-001, 4.58001524e-001,
          4.60718066e-001, 4.70363408e-001, 4.75166321e-001,
          4.98864114e-001, 4.71490711e-001, 4.45823252e-001,
          4.98016506e-001 ]
      - [ 8.38786542e-001, 4.06874299e-001, 6.81602359e-001,
          6.81191623e-001, 5.23713768e-001, 6.44458234e-001,
          5.26799679e-001, 5.67094445e-001, 3.96349549e-001,
          4.29262578e-001, 5.62206447e-001, 3.53194088e-001,
          5.34775198e-001, 5.56836665e-001, 4.86676812e-001,
          5.29845595e-001, 5.02775133e-001, 4.47575569e-001,
          5.56952059e-001, 4.77162927e-001, 4.00206983e-001,
          5.06026030e-001, 5.02517939e-001, 4.95418251e-001,
          3.90942037e-001 ]
      - [ 7.76396990e-001, 6.85601830e-001, 3.71229947e-001,
          5.66268921e-001, 4.89856839e-001, 5.47240257e-001,
          4.74980056e-001, 5.22509336e-001, 3.16978008e-001,
          4.34241205e-001, 4.83467460e-001, 5.00315666e-001,
          3.79419953e-001, 3.44538391e-001, 4.83282179e-001,
          4.84770656e-001, 5.31468213e-001, 4.79082733e-001,
          4.84864682e-001, 5.07027268e-001, 5.01120925e-001,
          4.19778168e-001, 4.69535321e-001, 5.02863467e-001,
          5.38973093e-001 ]
      - [ 7.69044340e-001, 6.24168515e-001, 4.27233934e-001,
          6.71751320e-001, 4.64033604e-001, 5.79053044e-001,
          4.29065585e-001, 5.42685091e-001, 3.26087475e-001,
          4.30578977e-001, 4.36928630e-001, 4.92176414e-001,
          4.13010389e-001, 4.25764918e-001, 5.03347933e-001,
          4.87888783e-001, 5.15949786e-001, 4.65595096e-001,
          4.84555066e-001, 5.12531936e-001, 4.62286651e-001,
          4.68424588e-001, 4.46513385e-001, 4.84315276e-001,
          5.36235750e-001 ]
      - [ 7.04686403e-001, 5.95661879e-001, 4.94120330e-001,
          7.28161693e-001, 5.34203708e-001, 5.67683280e-001,
          4.92546052e-001, 4.58181471e-001, 3.35886747e-001,
          4.85511005e-001, 5.02999187e-001, 3.94595087e-001,
          5.18897831e-001, 4.12191570e-001, 4.27061945e-001,
          4.53355551e-001, 3.91931683e-001, 4.32271719e-001,
          4.66287166e-001, 4.84251529e-001, 4.87210304e-001,
          4.51942205e-001, 4.67955679e-001, 4.54256266e-001,
          5.20036817e-001 ]
      - [ 8.99678349e-001, 3.95093501e-001, 5.14286101e-001,
          6.37227416e-001, 5.18674195e-001, 5.86131155e-001,
          5.28982282e-001, 5.40711820e-001, 3.48126411e-001,
          5.26279747e-001, 5.52209198e-001, 4.41879630e-001,
          4.05428827e-001, 5.07745206e-001, 5.35518467e-001,
          4.80969071e-001, 4.52569425e-001, 4.27550912e-001,
          5.14565229e-001, 5.00604689e-001, 4.09198105e-001,
          4.68598574e-001, 4.80577290e-001, 4.53811705e-001,
          4.98139024e-001 ]
      - [ 8.02007258e-001, 5.23843646e-001, 5.26714802e-001,
          6.60275638e-001, 5.07156312e-001, 5.29311955e-001,
          3.64181429e-001, 6.21340692e-001, 3.92279029e-001,
          4.10740167e-001, 5.06956697e-001, 4.68604058e-001,
          4.53069359e-001, 5.14171958e-001, 5.27169168e-001,
          4.18663740e-001, 4.74384755e-001, 4.64625984e-001,
          4.68729317e-001, 5.15815616e-001, 4.51274395e-001,
          4.28070009e-001, 4.81025845e-001, 4.29876834e-001,
          4.80575800e-001 ]
      - [ 7.10166037e-001, 5.32365322e-001, 5.61759114e-001,
          7.89503455e-001, 6.63183451e-001, 5.53978980e-001,
          5.65649390e-001, 5.81024945e-001, 3.54027271e-001,
          4.83819962e-001, 4.95574981e-001, 4.51663375e-001,
          5.57046831e-001, 5.95876396e-001, 4.26937282e-001,
          4.58711982e-001, 4.65983093e-001, 4.40086663e-001,
          4.58882511e-001, 4.82181311e-001, 4.19775963e-001,
          4.95607674e-001, 5.02878070e-001, 3.70926231e-001,
          4.91332442e-001 ]
      - [ 7.27668405e-001, 4.48482782e-001, 4.61292088e-001,
          6.02286935e-001, 5.37964702e-001, 4.11007196e-001,
          6.03419781e-001, 4.02239084e-001, 4.12007749e-001,
          5.42408109e-001, 5.18608153e-001, 5.16424358e-001,
          4.29019958e-001, 3.64645123e-001, 4.25255746e-001,
          4.29187626e-001, 3.26327384e-001, 3.85559440e-001,
          5.36460996e-001, 4.16699082e-001, 4.91654247e-001,
          4.54701036e-001, 4.71543014e-001, 5.20033360e-001,
          4.71753269e-001 ]
      - [ 8.20887983e-001, 5.78780949e-001, 3.72435391e-001,
          5.42755067e-001, 4.60919887e-001, 5.06115019e-001,
          5.02302468e-001, 4.80711579e-001, 3.21761191e-001,
          4.88776416e-001, 4.72369164e-001, 4.56125885e-001,
          4.51211572e-001, 3.22032332e-001, 4.83041734e-001,
          4.85745132e-001, 4.35210377e-001, 4.85039890e-001,
          4.87206846e-001, 4.89391476e-001, 5.24527609e-001,
          4.71205086e-001, 4.44216788e-001, 4.85522002e-001,
          5.55660307e-001 ]
      - [ 7.86855698e-001, 5.19025385e-001, 4.70730573e-001,
          6.78039074e-001, 4.88437355e-001, 5.61884284e-001,
          4.71338362e-001, 4.96455967e-001, 3.47379178e-001,
          5.87018192e-001, 4.90533262e-001, 4.14332449e-001,
          4.66003120e-001, 4.27560508e-001, 4.60962236e-001,
          4.44939435e-001, 3.84747326e-001, 4.24022853e-001,
          4.75354046e-001, 4.98072922e-001, 4.96947050e-001,
          4.26614076e-001, 4.23796237e-001, 4.54681277e-001,
          5.08810520e-001 ]
      - [ 6.51251972e-001, 4.28340137e-001, 3.73060554e-001,
          7.67538667e-001, 4.89449322e-001, 5.54695308e-001,
          5.22959709e-001, 4.98867333e-001, 3.68898183e-001,
          6.80913866e-001, 4.62822586e-001, 4.46635634e-001,
          5.26370108e-001, 4.14463878e-001, 4.44089055e-001,
          4.41517442e-001, 3.66216123e-001, 3.93307924e-001,
          4.53367829e-001, 5.42680621e-001, 4.52563971e-001,
          4.48275596e-001, 4.88605320e-001, 4.37052310e-001,
          5.16137600e-001 ]
      - [ 6.27442956e-001, 6.91596329e-001, 3.32915664e-001,
          4.62658525e-001, 4.08201367e-001, 5.30297339e-001,
          3.28403950e-001, 5.23204982e-001, 3.23864043e-001,
          5.82020521e-001, 4.87955242e-001, 4.51859355e-001,
          4.25895870e-001, 4.22938585e-001, 5.24171948e-001,
          5.12980223e-001, 5.06442606e-001, 5.18041968e-001,
          4.13388669e-001, 5.02012014e-001, 5.52521288e-001,
          3.96046102e-001, 6.00154996e-001, 4.69700515e-001,
          4.88143742e-001 ]
      - [ 7.39605188e-001, 6.93947375e-001, 3.29613388e-001,
          6.04414940e-001, 5.61657608e-001, 5.85698187e-001,
          5.38605511e-001, 5.13609529e-001, 3.77114534e-001,
          4.49012101e-001, 4.90380764e-001, 6.12878084e-001,
          2.59148061e-001, 4.81280535e-001, 4.44364071e-001,
          4.41097617e-001, 4.70090687e-001, 4.90551770e-001,
          4.75867480e-001, 5.18544316e-001, 6.54505849e-001,
          4.02503014e-001, 5.37175000e-001, 5.15640855e-001,
          5.69011748e-001 ]
      - [ 8.79927933e-001, 5.24394572e-001, 5.03683448e-001,
          6.16832137e-001, 5.70759535e-001, 5.79855084e-001,
          6.21508062e-001, 4.89612877e-001, 3.47956181e-001,
          4.22074556e-001, 5.41209161e-001, 4.80694950e-001,
          5.06730020e-001, 4.24939871e-001, 4.98264402e-001,
          5.55957198e-001, 3.81478131e-001, 4.53784376e-001,
          5.40204227e-001, 3.64217907e-001, 4.68264431e-001,
          4.24484730e-001, 4.20432389e-001, 5.15619993e-001,
          4.56152707e-001 ]
      - [ 7.14150310e-001, 5.19023120e-001, 4.49667394e-001,
          7.23759949e-001, 5.08958101e-001, 5.75565696e-001,
          3.73021245e-001, 5.45569420e-001, 3.74631107e-001,
          5.70616007e-001, 4.97637004e-001, 4.59959775e-001,
          5.13583720e-001, 4.62423533e-001, 4.84264582e-001,
          4.25157756e-001, 4.31994349e-001, 4.13929760e-001,
          4.46003675e-001, 5.24927974e-001, 4.64408994e-001,
          4.42008048e-001, 4.90184814e-001, 4.64324027e-001,
          4.95620072e-001 ]
      - [ 7.61066914e-001, 6.94816589e-001, 4.40505236e-001,
          5.35893142e-001, 4.96554524e-001, 4.86664206e-001,
          6.01176262e-001, 4.91137683e-001, 3.51529717e-001,
          4.49384511e-001, 4.73710567e-001, 4.84108001e-001,
          4.69628423e-001, 2.94247180e-001, 5.19607782e-001,
          5.05954921e-001, 4.62103426e-001, 5.58163583e-001,
          5.14683545e-001, 4.37372208e-001, 5.18049598e-001,
          5.12689173e-001, 4.60464835e-001, 5.38836479e-001,
          5.03472030e-001 ]
      - [ 8.30088377e-001, 5.68866968e-001, 5.29472589e-001,
          6.49114907e-001, 5.41329920e-001, 5.42654634e-001,
          4.31598216e-001, 6.26980066e-001, 3.70641410e-001,
          3.96443009e-001, 5.01740277e-001, 6.13250077e-001,
          3.41517925e-001, 5.93261540e-001, 5.29526114e-001,
          4.17119235e-001, 5.45084298e-001, 4.86763924e-001,
          5.13003349e-001, 5.51969945e-001, 5.71914911e-001,
          5.28637767e-001, 4.63716447e-001, 5.75724721e-001,
          5.10965824e-001 ]
      - [ 7.63013840e-001, 6.91794157e-001, 4.29037064e-001,
          4.92370963e-001, 4.57438946e-001, 4.67907488e-001,
          4.91798848e-001, 5.67004085e-001, 3.86532307e-001,
          4.57906932e-001, 4.88571197e-001, 5.14924765e-001,
          4.26379800e-001, 3.50382566e-001, 5.71488976e-001,
          5.23384690e-001, 5.32073796e-001, 5.46794772e-001,
          4.76127416e-001, 5.29109299e-001, 4.94392037e-001,
          4.50904787e-001, 4.71985400e-001, 5.08374155e-001,
          5.06657898e-001 ]
      - [ 8.62166882e-001, 4.68671769e-001, 5.68100512e-001,
          6.79814935e-001, 5.20628035e-001, 5.60842335e-001,
          4.49802041e-001, 6.30916655e-001, 4.20197576e-001,
          3.84541154e-001, 5.34033716e-001, 4.25998539e-001,
          4.61299390e-001, 5.60067832e-001, 5.40603936e-001,
          4.65529889e-001, 4.95022058e-001, 4.59382653e-001,
          5.08080006e-001, 4.81089085e-001, 4.42200959e-001,
          4.66092110e-001, 4.61050242e-001, 4.70439643e-001,
          4.71720248e-001 ]
      - [ 6.86419904e-001, 6.54493570e-001, 2.38275960e-001,
          4.09489155e-001, 4.83246952e-001, 4.79783773e-001,
          4.00940269e-001, 4.58535880e-001, 3.50109756e-001,
          5.20396709e-001, 4.61783379e-001, 4.87311989e-001,
          4.09065902e-001, 4.23261702e-001, 4.61915702e-001,
          5.57780981e-001, 4.51376498e-001, 5.39951682e-001,
          4.47552621e-001, 5.25370657e-001, 5.81012905e-001,
          4.44822758e-001, 4.88334864e-001, 4.66841757e-001,
          4.47689772e-001 ]
      - [ 8.85897636e-001, 3.83055896e-001, 5.59681118e-001,
          7.00033188e-001, 6.04007602e-001, 5.91927767e-001,
          5.76745987e-001, 5.98955095e-001, 4.00862962e-001,
          4.11022007e-001, 5.81991613e-001, 5.04158497e-001,
          4.96696264e-001, 6.12366557e-001, 5.56024075e-001,
          4.61018920e-001, 5.59188068e-001, 4.42282349e-001,
          5.00130653e-001, 4.74757940e-001, 3.19880903e-001,
          4.77058440e-001, 4.59462225e-001, 4.37816620e-001,
          4.87869143e-001 ]
      - [ 7.96542168e-001, 6.14714026e-001, 5.68373799e-001,
          5.91710210e-001, 5.83737731e-001, 4.93872046e-001,
          5.51817596e-001, 5.37392735e-001, 4.10785943e-001,
          3.72944832e-001, 5.76717734e-001, 4.70047325e-001,
          5.71496427e-001, 4.17173445e-001, 4.98102665e-001,
          4.84516919e-001, 5.26363730e-001, 5.48125744e-001,
          4.77859676e-001, 4.20291692e-001, 4.63712335e-001,
          4.57982570e-001, 4.41909462e-001, 4.77436364e-001,
          4.46126223e-001 ]
      - [ 8.61014009e-001, 4.43054765e-001, 6.46233916e-001,
          6.05172276e-001, 4.78334934e-001, 5.92734456e-001,
          5.23666501e-001, 5.65483749e-001, 3.95586133e-001,
          3.96927863e-001, 5.26893914e-001, 4.30626988e-001,
          5.50871015e-001, 5.15005469e-001, 5.30940473e-001,
          5.56963444e-001, 4.82145905e-001, 4.69862342e-001,
          5.94230354e-001, 4.54567075e-001, 4.30090189e-001,
          4.38867569e-001, 4.36014056e-001, 5.57708621e-001,
          4.15295362e-001 ]
      - [ 8.94133806e-001, 4.22402948e-001, 6.35653615e-001,
          5.90033412e-001, 7.12666810e-001, 6.25864148e-001,
          6.59261227e-001, 5.76095223e-001, 4.13143396e-001,
          3.88534397e-001, 6.13008022e-001, 4.80641752e-001,
          5.44997513e-001, 6.08720183e-001, 4.99172926e-001,
          4.72040027e-001, 6.29189849e-001, 5.14517188e-001,
          4.74544883e-001, 4.10268575e-001, 3.39733303e-001,
          4.29214209e-001, 4.88673717e-001, 4.56222653e-001,
          5.06729960e-001 ]
      - [ 8.52847695e-001, 4.68588442e-001, 6.57962322e-001,
          6.09427452e-001, 7.63686895e-001, 6.18055940e-001,
          6.85301602e-001, 5.27830958e-001, 3.80342364e-001,
          3.89760703e-001, 5.43122888e-001, 4.37107146e-001,
          5.65163970e-001, 6.04356110e-001, 4.56888527e-001,
          5.31471074e-001, 5.59897125e-001, 5.16859293e-001,
          4.73284304e-001, 3.37593555e-001, 3.90500695e-001,
          4.49500859e-001, 4.77773935e-001, 4.71399397e-001,
          4.86181796e-001 ]
      - [ 7.49316096e-001, 5.33032417e-001, 3.94889772e-001,
          5.02933264e-001, 4.03493673e-001, 4.80935484e-001,
          3.64815295e-001, 4.84756440e-001, 3.47978354e-001,
          4.83972579e-001, 4.91070926e-001, 3.51684660e-001,
          4.34936464e-001, 3.75780761e-001, 5.22677839e-001,
          5.00409603e-001, 5.07248044e-001, 5.32986820e-001,
          4.31057453e-001, 5.18248677e-001, 5.00024259e-001,
          4.99814898e-001, 4.77099568e-001, 3.88634384e-001,
          5.62445283e-001 ]
      - [ 8.68956208e-001, 4.70729440e-001, 5.95847666e-001,
          6.51167393e-001, 7.20009267e-001, 5.91965258e-001,
          6.77871823e-001, 5.19349456e-001, 3.84235322e-001,
          3.79439950e-001, 5.71246564e-001, 4.80227262e-001,
          5.65292716e-001, 6.14109397e-001, 4.75560725e-001,
          5.24798393e-001, 5.66279650e-001, 4.82558787e-001,
          4.95676100e-001, 3.82624626e-001, 3.77631843e-001,
          4.77166414e-001, 4.38458920e-001, 4.61955011e-001,
          4.97965544e-001 ]
      - [ 7.49316096e-001, 5.33032417e-001, 3.94889772e-001,
          5.02933264e-001, 4.03493673e-001, 4.80935484e-001,
          3.64815295e-001, 4.84756440e-001, 3.47978354e-001,
          4.83972579e-001, 4.91070926e-001, 3.51684660e-001,
          4.34936464e-001, 3.75780761e-001, 5.22677839e-001,
          5.00409603e-001, 5.07248044e-001, 5.32986820e-001,
          4.31057453e-001, 5.18248677e-001, 5.00024259e-001,
          4.99814898e-001, 4.77099568e-001, 3.88634384e-001,
          5.62445283e-001 ]
      - [ 6.74449742e-001, 5.47247648e-001, 3.84574264e-001,
          6.90484941e-001, 4.79570657e-001, 5.71993113e-001,
          3.39383721e-001, 5.22069991e-001, 3.58600616e-001,
          5.95614433e-001, 4.49373484e-001, 4.66279715e-001,
          4.84926134e-001, 4.13592696e-001, 4.89193529e-001,
          4.68874931e-001, 4.33138818e-001, 4.11424458e-001,
          4.14999425e-001, 5.45777500e-001, 5.02773464e-001,
          4.45157796e-001, 4.89410400e-001, 4.76118654e-001,
          5.14176786e-001 ]
      - [ 7.87668824e-001, 5.47432542e-001, 4.02357697e-001,
          6.24572694e-001, 4.58538026e-001, 5.07147193e-001,
          4.71438795e-001, 5.26181519e-001, 3.03955674e-001,
          5.24586856e-001, 4.73969221e-001, 4.74275470e-001,
          3.89166683e-001, 3.94323111e-001, 4.95405644e-001,
          5.09340405e-001, 3.90017688e-001, 4.42551434e-001,
          4.96212423e-001, 5.44098556e-001, 4.52354044e-001,
          4.90175664e-001, 4.72269863e-001, 4.48595494e-001,
          5.48969328e-001 ]
      - [ 7.21026719e-001, 6.25042439e-001, 4.75710720e-001,
          6.17753088e-001, 5.50982773e-001, 4.48432744e-001,
          4.72245395e-001, 4.47020024e-001, 3.57538193e-001,
          5.05638778e-001, 5.49654484e-001, 4.76342529e-001,
          4.58302140e-001, 4.01187897e-001, 4.44783419e-001,
          4.55158174e-001, 3.58669400e-001, 4.71874416e-001,
          4.70613152e-001, 5.20214796e-001, 6.07088625e-001,
          4.83379245e-001, 4.37692612e-001, 4.44771051e-001,
          4.78516698e-001 ]
      - [ 8.37623179e-001, 5.80605388e-001, 3.33664387e-001,
          5.35038352e-001, 4.66724277e-001, 5.34150541e-001,
          3.99193972e-001, 5.76179802e-001, 3.50432098e-001,
          4.75927740e-001, 4.52471137e-001, 5.35003841e-001,
          3.87442619e-001, 4.86160100e-001, 5.67757010e-001,
          4.19844478e-001, 5.76859653e-001, 5.60549378e-001,
          4.49509978e-001, 5.82977176e-001, 4.85161543e-001,
          4.80340898e-001, 4.78554070e-001, 4.29968417e-001,
          5.45684934e-001 ]
      - [ 7.94932604e-001, 6.20910287e-001, 4.78718758e-001,
          6.26875699e-001, 5.08696854e-001, 5.18675148e-001,
          5.08563519e-001, 5.03637195e-001, 3.10761869e-001,
          4.78961021e-001, 5.47942162e-001, 4.36164796e-001,
          4.42778528e-001, 3.84391129e-001, 4.74312991e-001,
          4.96650636e-001, 4.25452560e-001, 4.77822602e-001,
          5.00519872e-001, 5.00786960e-001, 5.44045091e-001,
          4.55489755e-001, 4.22758460e-001, 4.66777891e-001,
          5.05835414e-001 ]
      - [ 9.00755167e-001, 4.56720620e-001, 6.35298729e-001,
          5.96265078e-001, 5.41280150e-001, 5.64312160e-001,
          5.02033591e-001, 6.07262135e-001, 3.74487281e-001,
          3.92266959e-001, 5.65913677e-001, 4.42765146e-001,
          5.05149662e-001, 5.38749039e-001, 5.88033676e-001,
          4.78077292e-001, 4.75267023e-001, 4.70359027e-001,
          5.39052665e-001, 3.84844601e-001, 4.16872859e-001,
          4.56435025e-001, 4.65512186e-001, 4.80213791e-001,
